svm_type c_svc
kernel_type rbf
gamma 2.8284
nr_class 2
total_sv 668
rho -0.66648
label -1 1
nr_sv 449 219
SV
1.911766317489172 1:0.147504 2:0.336021 3:0.142068 4:0.361649 5:0.13245 6:0.37559 7:0.118851 8:0.381091 9:0.103611 10:0.393005 11:0.0857886 12:0.373378 13:0.0647343 14:0.343965 15:-0.0268083 16:0.308398 17:-0.0246734 18:0.253478 19:-0.0176107 20:0.194805 21:0.0575264 22:-0.0581649 23:0.0910843 24:-0.217884 25:0.142443 26:-0.280342 27:0.166105 28:-0.289588 29:0.110515 30:-0.244467 31:0.0859692 32:-0.163459 33:0.054384 34:-0.0612621 35:0.0308579 36:0.0149254 37:0.0128165 38:0.0517766 39:0.000579039 40:0.0989178 
7.821784263885435 1:0.14465 2:0.321624 3:0.139 4:0.346034 5:0.129139 6:0.358732 7:0.11526 8:0.362909 9:0.099686 10:0.374201 11:0.0814558 12:0.354839 13:0.0599034 14:0.325843 15:-0.0318665 16:0.290755 17:-0.0295114 18:0.236512 19:0.0347454 20:-0.0292208 21:0.0527325 22:-0.198134 23:0.0862651 24:-0.268554 25:0.137615 26:-0.283191 27:0.180549 28:-0.238069 29:0.123937 30:-0.1544 31:0.081914 32:-0.0489647 33:0.0506844 34:0.0285583 35:0.0274669 36:0.0560242 37:0.00969053 38:0.0984772 39:-0.00231616 40:0.0894247 
1.171957921749046 1:-0.170328 2:0.247337 3:-0.138386 4:0.240475 5:-0.103974 6:0.231288 7:-0.0800718 8:0.210909 9:0.0588697 10:0.186912 11:0.0710572 12:0.288839 13:0.280193 14:0.290323 15:0.401113 16:0.270289 17:0.384615 18:0.230404 19:0.404093 20:0.172727 21:0.424736 22:0.119751 23:0.479518 24:0.143368 25:0.319169 26:0.133333 27:0.323062 28:-0.00433839 29:0.148993 30:-0.0766855 31:0.00729927 32:-0.102071 33:-0.0913799 34:-0.122985 35:-0.129875 36:-0.103612 37:-0.122851 38:-0.0838579 39:-0.125072 40:-0.0810708 
0.3128782641643856 1:-0.0773181 2:0.198963 3:0.0352869 4:0.188007 5:0.0437086 6:0.296022 7:0.194973 8:0.324364 9:0.343799 10:0.349379 11:0.350953 12:0.345198 13:0.37971 14:0.316419 15:0.302984 16:0.281581 17:0.310111 18:0.309128 19:0.102332 20:0.287013 21:0.10163 22:0.117263 23:0.0390361 24:0.0217586 25:-0.0255915 26:-0.017094 27:-0.0977371 28:-0.0498915 29:-0.188367 30:-0.0375708 31:-0.184915 32:-0.03581 33:-0.192749 34:-0.0603409 35:0.0213632 36:-0.16591 37:0.116599 38:-0.158579 39:0.0966995 40:-0.15094 
0.2352861985589046 1:0.0293866 2:0.173625 3:0.0395827 4:0.285447 5:0.180795 6:0.320297 7:0.314901 8:0.336 9:0.317896 10:0.361414 11:0.339688 12:0.342232 13:0.347826 14:0.313519 15:0.289833 16:0.363444 17:0.065312 18:0.347133 19:0.0518801 20:0.167532 21:-0.0258869 22:0.0650078 23:-0.108434 24:0.0193741 25:-0.154032 26:-0.0193732 27:-0.168031 28:-0.00867679 29:-0.2 30:-0.00874936 31:-0.211679 32:-0.0377588 33:0.0196078 34:-0.154307 35:0.121058 36:-0.158988 37:0.0959675 38:-0.160203 39:0.0775912 40:-0.152459 
0.2196676713537442 1:0.299287 2:0.292255 3:0.305308 4:0.326671 5:0.321854 6:0.337829 7:0.324237 8:0.340364 9:0.343799 10:0.441143 11:0.160312 12:0.465332 13:0.128502 14:0.303371 15:-0.0612038 16:0.212421 17:-0.173682 18:0.161181 19:-0.2594 20:0.106494 21:-0.281879 22:0.106065 23:-0.230843 24:0.0944858 25:-0.180106 26:0.0524217 27:0.152624 28:-0.0921909 29:0.241163 30:-0.108595 31:0.188159 32:-0.132278 33:0.147614 34:-0.151543 35:0.0620549 36:-0.14774 37:-0.0834636 38:-0.117157 39:-0.215981 40:-0.112208 
0.0623361763728043 1:0.450499 2:0.372876 3:0.332924 4:0.439101 5:0.325166 6:0.337829 7:0.256014 8:0.282182 9:0.159341 10:0.290711 11:0.0606586 12:0.272525 13:-0.00193237 14:0.303371 15:-0.0763784 16:0.311221 17:-0.0720851 18:0.256193 19:0.240362 20:0.0675325 21:0.432407 22:0.0314152 23:0.467952 24:-0.0128167 25:0.520039 26:-0.0501425 27:0.465575 28:-0.0596529 29:0.191946 30:-0.0468348 31:-0.0348743 32:-0.0738124 33:-0.218646 34:-0.096269 35:-0.382163 36:-0.11313 37:-0.517974 38:-0.117157 39:-0.618413 40:-0.119803 
0.136437627961289 1:0.372896 2:0.412036 3:0.3722 4:0.331668 5:0.31457 6:0.289278 7:0.230162 8:0.288 9:0.146782 10:0.296728 11:0.0987868 12:0.337783 13:0.0985507 14:0.352664 15:0.00859889 16:0.316867 17:0.31882 18:0.125891 19:0.491671 20:0.0857143 21:0.512943 22:0.0363919 23:0.548916 24:-0.00804769 25:0.523901 26:-0.022792 27:0.353876 28:-0.0119306 29:0.0702461 30:-0.0427174 31:-0.145174 32:-0.0699147 33:-0.334073 34:-0.0925841 35:-0.487962 36:-0.109669 37:-0.603001 38:-0.12203 39:-0.674001 40:-0.124359 
0.09856704145009107 1:0.403138 2:0.315289 3:0.355631 4:0.289194 5:0.283444 6:0.29737 7:0.210772 8:0.296727 9:0.172684 10:0.365927 11:0.179376 12:0.391175 13:0.169082 14:0.361363 15:0.406171 16:0.184192 17:0.563619 18:0.147608 19:0.561161 20:0.0935065 21:0.582934 22:0.0438569 23:0.542169 24:0.0229508 25:0.401255 26:0.0296296 27:0.212325 28:-0.00542299 29:-0.0612975 30:-0.0365414 31:-0.280616 32:-0.0640682 33:-0.45764 34:-0.0870567 35:-0.587657 36:-0.11313 37:-0.669897 38:-0.125279 39:-0.631731 40:-0.127397 
0.07449828802154533 1:0.387161 2:0.270947 3:0.326174 4:0.291068 5:0.264901 6:0.299393 7:0.233752 8:0.357091 9:0.244898 10:0.413313 11:0.241768 12:0.3934 13:0.547826 14:0.218557 15:0.661103 16:0.200423 17:0.633285 18:0.149644 19:0.6297 20:0.0954545 21:0.575264 22:0.0706065 23:0.418795 24:0.0724292 25:0.258329 26:0.031339 27:0.0698122 28:-0.0037961 29:-0.211633 30:-0.0349974 31:-0.416869 32:-0.0626066 33:-0.567148 34:-0.0948871 35:-0.660902 36:-0.120485 37:-0.624883 38:-0.132183 39:-0.590041 40:-0.126258 
0.06657552946980112 1:0.350642 2:0.270947 3:0.299172 4:0.291068 5:0.275497 6:0.353338 7:0.28833 8:0.400727 9:0.288854 10:0.413313 11:0.567591 12:0.245087 13:0.775845 14:0.233055 15:0.717754 16:0.200423 17:0.68747 18:0.149644 19:0.606854 20:0.121429 21:0.4372 22:0.120373 23:0.260723 24:0.0724292 25:0.0999517 26:0.031339 27:-0.107366 28:-0.0037961 29:-0.376286 30:-0.0349974 31:-0.549878 32:-0.0723508 33:-0.658898 34:-0.104099 35:-0.622923 36:-0.129137 37:-0.589872 38:-0.132183 39:-0.430226 40:-0.133852 
0.031426107915877 1:0.314693 2:0.271523 3:0.29733 4:0.341661 5:0.313245 6:0.394471 7:0.314901 8:0.401455 9:0.569074 10:0.263633 11:0.755633 12:0.26066 13:0.811594 14:0.23378 15:0.755185 16:0.201129 17:0.645864 18:0.177469 19:0.45169 20:0.174026 21:0.261745 22:0.120995 23:0.0843373 24:0.0730253 25:-0.0960888 26:0.0319088 27:-0.302841 28:-0.0032538 29:-0.540045 30:-0.0447761 31:-0.665856 32:-0.0816078 33:-0.631521 34:-0.112851 35:-0.59783 36:-0.128704 37:-0.429197 38:-0.139898 39:-0.258251 40:-0.141067 
0.02141338669923479 1:0.30271 2:0.318745 3:0.321264 4:0.380387 5:0.325828 6:0.395819 7:0.558348 8:0.257455 9:0.725275 10:0.280181 11:0.772097 12:0.262143 13:0.829952 14:0.23523 15:0.693475 16:0.230769 17:0.470731 18:0.233118 19:0.260352 20:0.175325 21:0.0690316 22:0.12224 23:-0.128675 24:0.0742176 25:-0.309512 26:0.0330484 27:-0.496389 28:-0.0130152 29:-0.684116 30:-0.0540401 31:-0.650446 32:-0.0903776 33:-0.617462 34:-0.11193 35:-0.435741 36:-0.136491 37:-0.254767 38:-0.147208 39:-0.0966995 40:-0.147902 
0.01291499059495819 1:0.323252 2:0.353873 3:0.331083 4:0.381012 5:0.548344 6:0.261632 7:0.699102 8:0.272727 9:0.737834 10:0.280933 11:0.785962 12:0.262885 13:0.768116 14:0.264951 15:0.507334 16:0.287932 17:0.273343 18:0.233797 19:0.066159 20:0.175974 21:-0.145733 22:0.122862 23:-0.344578 24:0.0748137 25:-0.506519 26:0.0222222 27:-0.654309 28:-0.0233189 29:-0.669799 30:-0.0638188 31:-0.63747 32:-0.0898904 33:-0.442841 34:-0.120682 35:-0.248559 36:-0.144711 37:-0.0822132 38:-0.154924 39:-0.0758541 40:-0.10955 
0.1318711978865897 1:-0.0459344 2:0.290527 3:-0.176434 4:0.299813 5:-0.211258 6:0.295347 7:-0.25386 8:0.294545 9:-0.131083 10:0.288454 11:0.0519931 12:0.255469 13:0.278261 14:0.214208 15:0.216995 16:0.252646 17:0.440735 18:0.213437 19:0.611614 20:0.169481 21:0.710451 22:0.129082 23:0.74747 24:0.080775 25:0.703525 26:0.0507123 27:0.513722 28:0.0146421 29:0.218792 30:-0.0174987 31:-0.026764 32:-0.0460414 33:-0.063263 34:-0.0792262 35:-0.0905392 36:-0.0971231 37:-0.399187 38:-0.175228 39:-0.381008 40:-0.166508 
0.02241008059517333 1:-0.146362 2:0.282465 3:-0.17398 4:0.291068 5:-0.208609 6:0.299393 7:-0.0929982 8:0.284364 9:0.0761381 10:0.277924 11:0.280763 12:0.245087 13:0.301449 14:0.291047 15:0.463834 16:0.270995 17:0.618771 18:0.231082 19:0.691575 20:0.186364 21:0.714286 22:0.132815 23:0.65494 24:0.0962742 25:0.49493 26:0.0541311 27:0.305729 28:0.0178959 29:0.00760626 30:-0.0144107 31:-0.0397405 32:-0.0528624 33:-0.0751017 34:-0.0764625 35:-0.41336 36:-0.172399 37:-0.396686 38:-0.172792 39:-0.297626 40:-0.16423 
0.01372687409717322 1:-0.156063 2:0.273827 3:-0.184412 4:0.294191 5:-0.0741722 6:0.289278 7:0.0815081 8:0.273455 9:0.266876 10:0.266642 11:0.283362 12:0.322951 13:0.516908 14:0.30917 15:0.62873 16:0.288638 17:0.679729 18:0.248049 19:0.675393 20:0.18961 21:0.602109 22:0.148367 23:0.426506 24:0.0992548 25:0.266055 26:0.0569801 27:0.0582571 28:0.0206074 29:-0.0255034 30:-0.0221307 31:-0.0697486 32:-0.0504263 33:-0.442841 34:-0.15707 35:-0.42489 36:-0.170236 37:-0.319787 38:-0.170761 39:-0.1685 40:-0.162331 
0.06740422909119931 1:-0.172611 2:0.27613 3:-0.0671985 4:0.284197 5:0.0788079 6:0.27849 7:0.247397 8:0.261818 9:0.259812 10:0.344866 11:0.466205 12:0.340749 13:0.662802 14:0.326568 15:0.680324 16:0.305575 17:0.651669 18:0.250763 19:0.552594 20:0.205195 21:0.363375 22:0.150855 23:0.186506 24:0.101639 25:0.00627716 26:0.0592593 27:0.0110737 28:0.0119306 29:-0.0693512 30:-0.0200721 31:-0.482563 32:-0.136175 33:-0.464299 34:-0.155228 35:-0.34961 36:-0.168505 37:-0.187871 38:-0.169137 39:-0.0463231 40:-0.160813 
0.1117609762154988 1:-0.0796006 2:0.265189 3:0.0573796 4:0.27233 5:0.213245 6:0.265678 7:0.220826 8:0.335273 9:0.403454 10:0.360662 11:0.57279 12:0.356322 13:0.685024 14:0.341791 15:0.622661 16:0.306281 17:0.499758 18:0.265015 19:0.28891 20:0.205844 21:0.0977948 22:0.151477 23:-0.099759 24:0.102235 25:-0.0680831 26:0.048433 27:-0.0630717 28:0.0124729 29:-0.549888 30:-0.112198 31:-0.528792 32:-0.135688 33:-0.402886 34:-0.154767 35:-0.2255 36:-0.168073 37:-0.0734605 38:-0.168731 39:0.244933 40:-0.13765 
0.1625174627507407 1:0.0333809 2:0.252519 3:0.178889 4:0.258588 5:0.18543 6:0.33176 7:0.348654 8:0.348364 9:0.496075 10:0.374201 11:0.588388 12:0.36967 13:0.625121 14:0.340341 15:0.458776 16:0.318984 17:0.226899 18:0.263658 19:0.0204664 20:0.204545 21:-0.191755 22:0.150233 23:-0.178795 24:0.0891207 25:-0.147272 26:0.0472934 27:-0.584978 28:-0.0862256 29:-0.605369 30:-0.113227 31:-0.465531 32:-0.136663 33:-0.27118 34:-0.155689 35:-0.104781 36:-0.168938 37:0.237887 38:-0.145178 39:0.394325 40:-0.12322 
0.1822311954256621 1:0.148074 2:0.239274 3:0.154956 4:0.319176 5:0.305298 6:0.343223 7:0.435548 8:0.360727 9:0.512559 10:0.386988 11:0.537262 12:0.367445 13:0.471498 14:0.352664 15:0.17653 16:0.316867 17:-0.0430576 18:0.261622 19:-0.26416 20:0.202597 21:-0.267498 22:0.135925 23:-0.25494 24:0.0873323 25:-0.667793 26:-0.0569801 27:-0.641791 28:-0.0878525 29:-0.532886 30:-0.114771 31:-0.318735 32:-0.138124 33:-0.137255 34:-0.15707 35:0.234995 36:-0.144279 37:0.401063 38:-0.130152 39:0.47597 40:-0.124359 
0.1774224286282202 1:0.128673 2:0.294558 3:0.269101 4:0.329169 5:0.388742 6:0.354012 7:0.454219 8:0.372364 9:0.470173 10:0.383979 11:0.403813 12:0.37931 13:0.206763 14:0.349764 15:-0.100658 16:0.314044 17:-0.327528 18:0.258907 19:-0.334603 20:0.187013 21:-0.338447 22:0.133437 23:-0.769639 24:-0.0223547 25:-0.719942 26:-0.0592593 27:-0.558979 28:-0.0900217 29:-0.366443 30:-0.11683 31:-0.167883 32:-0.140073 33:0.237144 34:-0.131276 35:0.415395 36:-0.128704 37:0.492341 38:-0.131777 39:0.537348 40:-0.125878 
0.1730441400194416 1:0.235378 2:0.306651 3:0.347039 4:0.342286 5:0.406623 6:0.368173 7:0.416158 8:0.373091 9:0.350078 10:0.399774 11:0.167244 12:0.380052 13:-0.0570048 14:0.350489 15:-0.397066 16:0.314749 17:-0.398162 18:0.246013 19:-0.404093 20:0.187662 21:-0.849473 22:0.022084 23:-0.820723 24:-0.0217586 25:-0.635925 26:-0.0586895 27:-0.378912 28:-0.0894794 29:-0.199105 30:-0.116315 31:0.243309 32:-0.110353 33:0.434702 34:-0.112391 35:0.51509 36:-0.128272 37:0.559237 38:-0.131371 39:0.506659 40:-0.125498 
0.1778383488387401 1:0.315835 2:0.31932 3:0.3722 4:0.356027 5:0.380795 6:0.369521 7:0.316338 8:0.389091 9:0.146782 10:0.401279 11:-0.0571924 12:0.381535 13:-0.32657 14:0.351939 15:-0.456753 16:0.302047 17:-0.455249 18:0.24737 19:-0.898144 20:0.0720779 21:-0.886865 22:0.0233281 23:-0.723373 24:-0.0205663 25:-0.441816 26:-0.0575499 27:-0.185364 28:-0.0883948 29:0.267114 30:-0.0844056 31:0.471208 32:-0.0898904 33:0.553829 34:-0.111469 35:0.597152 36:-0.127406 37:0.534855 38:-0.130558 39:0.460915 40:-0.124739 
0.1861644000152271 1:0.347789 2:0.33199 3:0.357472 4:0.357277 5:0.298675 6:0.384356 7:0.141113 8:0.390545 9:-0.044741 10:0.402783 11:-0.285962 12:0.383018 13:-0.369082 14:0.338891 15:-0.501265 16:0.303458 17:-0.942912 18:0.126569 19:-0.92099 20:0.0733766 21:-0.775647 22:0.0245723 23:-0.515181 24:-0.0193741 25:-0.233221 26:-0.0564103 27:0.330766 28:-0.0547722 29:0.531991 30:-0.0627895 31:0.61395 32:-0.088916 33:0.654458 34:-0.110548 35:0.580875 36:-0.126541 37:0.494842 38:-0.129746 39:0.377533 40:-0.116385 
0.1909041933062431 1:0.342653 2:0.332566 3:0.29058 4:0.370394 5:0.14702 6:0.38503 7:-0.0233393 8:0.391273 9:-0.240188 10:0.403535 11:-0.311092 12:0.368928 13:-0.397101 14:0.339616 15:-0.995953 16:0.177135 17:-0.951621 18:0.127248 19:-0.796287 20:0.074026 21:-0.554171 22:0.0251944 23:-0.29253 24:-0.0187779 25:0.298889 26:-0.0216524 27:0.630236 28:-0.032538 29:0.702908 30:-0.0622748 31:0.736415 32:-0.0884287 33:0.647799 34:-0.110088 35:0.547643 36:-0.126109 37:0.414192 38:-0.121218 39:0.244933 40:-0.100816 
0.1945605831662535 1:0.287304 2:0.344083 3:0.15741 4:0.370394 5:0.00331126 6:0.38503 7:-0.193537 8:0.391273 9:-0.253532 10:0.388492 11:-0.325823 12:0.368928 13:-0.857971 14:0.209134 15:-0.992919 16:0.177135 17:-0.813256 18:0.127248 19:-0.564969 20:0.074026 21:-0.321189 22:0.0251944 23:0.25012 24:0.0169896 25:0.610816 26:0.0011396 27:0.82571 28:-0.032538 29:0.84877 30:-0.0622748 31:0.738848 32:-0.0884287 33:0.620422 34:-0.110088 35:0.468294 36:-0.117456 37:0.278525 38:-0.104975 39:0.107701 40:-0.0932219 
0.2028186349443296 1:0.167475 2:0.344083 3:0.0285364 4:0.370394 5:-0.149007 6:0.38503 7:-0.200718 8:0.376727 9:-0.261381 10:0.388492 11:-0.733102 12:0.235447 13:-0.848309 14:0.209134 15:-0.841173 16:0.177135 17:-0.571359 18:0.127248 19:-0.326987 20:0.074026 21:0.225312 22:0.0625194 23:0.568193 24:0.0408346 25:0.813617 26:0.0011396 27:0.989408 28:-0.032538 29:0.857718 30:-0.0622748 31:0.714517 32:-0.0884287 33:0.539031 34:-0.100875 35:0.325873 36:-0.100151 37:0.13473 38:-0.0968528 39:-0.0254777 40:-0.0856275 
0.1573683199011578 1:0.0482168 2:0.344083 3:-0.111998 4:0.370394 5:-0.154967 6:0.371544 7:-0.207181 8:0.376727 9:-0.629513 10:0.253103 11:-0.72357 12:0.235447 13:-0.702415 14:0.209134 15:-0.587253 16:0.177135 17:-0.328495 18:0.127248 19:0.216564 20:0.112987 21:0.542665 22:0.0874028 23:0.771566 24:0.0408346 25:0.978754 26:0.0011396 27:1 28:-0.032538 29:0.831767 30:-0.0622748 31:0.626115 32:-0.0786845 33:0.384388 34:-0.0824505 35:0.170566 36:-0.091499 37:-0.00844014 38:-0.088731 39:-0.158078 40:-0.0856275 
0.1117389159013848 1:-0.081883 2:0.344083 3:-0.116907 4:0.357901 5:-0.160265 6:0.371544 7:-0.543268 8:0.245818 9:-0.620094 10:0.253103 11:-0.591854 12:0.235447 13:-0.458937 14:0.209134 15:-0.332322 16:0.177135 17:0.224964 18:0.167967 19:0.532604 20:0.138961 21:0.745925 22:0.0874028 23:0.937349 24:0.0408346 25:0.990343 26:0.0011396 27:0.973038 28:-0.032538 29:0.735123 30:-0.0519815 31:0.457421 32:-0.0591961 33:0.215686 34:-0.0732381 35:0.0159376 36:-0.0828466 37:-0.150985 38:-0.088731 39:-0.290098 40:-0.0856275 
0.1514088594925795 1:-0.0881598 2:0.332566 3:-0.123658 4:0.357901 5:-0.472185 6:0.250169 7:-0.536804 8:0.245818 9:-0.50314 10:0.253103 11:-0.376083 12:0.235447 13:-0.218357 14:0.209134 15:0.243298 16:0.219478 17:0.543299 18:0.195114 19:0.731556 20:0.138961 21:0.907958 22:0.0874028 23:0.946024 24:0.0408346 25:0.960406 26:0.0011396 27:0.866153 28:-0.021692 29:0.546309 30:-0.0313948 31:0.270073 32:-0.0494519 33:0.0447651 34:-0.0640258 35:-0.140726 36:-0.0828466 37:-0.295405 38:-0.088731 39:-0.389114 40:-0.0856275 
0.1554799992742421 1:-0.0921541 2:0.33199 3:-0.410249 4:0.244847 5:-0.463576 6:0.249494 7:-0.42693 8:0.245091 9:-0.304553 10:0.252351 11:-0.156846 12:0.234705 13:0.335266 14:0.251903 15:0.580172 16:0.247001 17:0.749395 18:0.194435 19:0.89624 20:0.138312 21:0.920422 22:0.0867807 23:0.92 24:0.0402385 25:0.857074 26:0.0119658 27:0.666827 28:-0.000542299 29:0.343177 30:-0.0216161 31:0.0859692 32:-0.0401949 33:-0.123196 34:-0.0644864 35:-0.294676 36:-0.0832793 37:-0.399812 38:-0.0891371 39:-0.43949 40:-0.0860072 
0.1745240717211632 1:-0.359201 2:0.227181 3:-0.402884 4:0.243598 5:-0.362914 6:0.248146 7:-0.245961 8:0.243636 9:-0.10675 10:0.250846 11:0.338821 12:0.277716 13:0.656039 14:0.279449 15:0.794638 16:0.245589 17:0.91582 18:0.193078 19:0.907663 20:0.137013 21:0.893576 22:0.0855365 23:0.815904 24:0.0509687 25:0.656205 26:0.0336182 27:0.44728 28:0.00921909 29:0.13915 30:-0.012352 31:-0.0989457 32:-0.0411693 33:-0.291898 34:-0.0654076 35:-0.408613 36:-0.0841445 37:-0.45483 38:-0.0899492 39:-0.432542 40:-0.0791722 
0.1606552193257259 1:-0.366049 2:0.220847 3:-0.324333 4:0.236727 5:-0.211921 6:0.240728 7:-0.0822262 8:0.235636 9:0.323391 10:0.287702 11:0.605719 12:0.299221 13:0.837681 14:0.271475 15:0.94436 16:0.237826 17:0.904209 18:0.185612 19:0.858163 20:0.12987 21:0.767018 22:0.0911353 23:0.592289 24:0.0682563 25:0.412844 26:0.0387464 27:0.204622 28:0.0140998 29:-0.0863535 30:-0.0180134 31:-0.303325 32:-0.0465286 33:-0.433962 34:-0.0704744 35:-0.484571 36:-0.0889033 37:-0.462332 38:-0.0862944 39:-0.43949 40:-0.0833492 
0.1666421144269966 1:-0.298716 2:0.215664 3:-0.190549 4:0.231106 5:-0.0675497 6:0.234659 7:0.304129 8:0.272727 9:0.5573 10:0.311019 11:0.759965 12:0.292547 13:0.971014 14:0.264951 15:0.922104 16:0.231475 17:0.844219 18:0.179505 19:0.722989 20:0.137013 21:0.534995 22:0.11042 23:0.339759 24:0.0748137 25:0.159826 26:0.0450142 27:-0.0476649 28:0.00921909 29:-0.320805 30:-0.0226454 31:-0.467153 32:-0.0509135 33:-0.524232 34:-0.07462 35:-0.499491 36:-0.0841445 37:-0.476086 38:-0.0899492 39:-0.336422 40:-0.101956 
0.1404486307935582 1:-0.177175 2:0.211633 3:-0.0598343 4:0.226733 5:0.28543 6:0.270398 7:0.514542 8:0.296727 9:0.693093 10:0.305754 11:0.875217 12:0.287356 13:0.944928 14:0.259877 15:0.854325 16:0.226535 17:0.701984 18:0.188327 19:0.487863 20:0.158442 21:0.279003 22:0.118507 23:0.0824096 24:0.0825633 25:-0.0980203 26:0.0410256 27:-0.304766 28:0.00542299 29:-0.50604 30:-0.0262481 31:-0.570154 32:-0.054324 33:-0.54421 34:-0.068632 35:-0.517803 36:-0.0871728 37:-0.367927 38:-0.109036 39:-0.213086 40:-0.119803 
0.09936656136123502 1:-0.0562054 2:0.208177 3:0.266646 4:0.260462 5:0.478808 6:0.293324 7:0.638061 8:0.292364 9:0.796703 10:0.301241 11:0.850953 12:0.282907 13:0.879227 14:0.255527 15:0.704603 16:0.236415 17:0.462022 18:0.211401 19:0.232746 20:0.167532 21:0.0220518 22:0.127216 23:-0.175904 24:0.0789866 25:-0.356832 26:0.0376068 27:-0.505055 28:0.0021692 29:-0.620582 30:-0.0293361 31:-0.592863 32:-0.047503 33:-0.564928 34:-0.0713957 35:-0.401153 36:-0.107073 37:-0.235386 38:-0.127716 39:-0.0787493 40:-0.129675 
0.0465178187223585 1:0.24622 2:0.23985 3:0.444615 4:0.282324 5:0.591391 6:0.289953 7:0.731418 8:0.288727 9:0.773155 10:0.29748 11:0.790295 12:0.279199 13:0.7343 14:0.266401 15:0.451694 16:0.261115 17:0.200774 18:0.221581 19:-0.0242742 20:0.177273 21:-0.236817 22:0.124106 23:-0.436145 24:0.076006 25:-0.559633 26:0.0347578 27:-0.630236 28:-0.000542299 29:-0.647427 30:-0.0216161 31:-0.617194 32:-0.0499391 33:-0.439142 34:-0.0921234 35:-0.258732 36:-0.126541 37:-0.0915911 38:-0.137868 39:0.0660104 40:-0.139168 
0.0925041377974038 1:0.420257 2:0.262309 3:0.558147 4:0.281699 5:0.687417 6:0.289278 7:0.720646 8:0.288 9:0.729984 10:0.296728 11:0.67331 12:0.293289 13:0.507246 14:0.294672 15:0.193728 16:0.274524 17:-0.0459603 18:0.234476 19:-0.267016 20:0.176623 21:-0.481304 22:0.123484 23:-0.624096 24:0.0754098 25:-0.67069 26:0.034188 27:-0.64468 28:0.00976139 29:-0.66085 30:-0.0221307 31:-0.467153 32:-0.0699147 33:-0.27266 34:-0.111009 35:-0.0925738 36:-0.135626 37:0.0740857 38:-0.146396 39:0.207875 40:-0.147143 
0.09652444733597083 1:0.532097 2:0.262309 3:0.653882 4:0.281699 5:0.684768 6:0.289278 7:0.689048 8:0.288 9:0.632653 10:0.311771 11:0.479203 12:0.322951 13:0.271498 14:0.30917 15:-0.0531108 16:0.288638 17:-0.282051 18:0.234476 19:-0.499286 20:0.176623 21:-0.657718 22:0.123484 23:-0.724337 24:0.0754098 25:-0.674553 26:0.045584 27:-0.648532 28:0.00976139 29:-0.485459 30:-0.0427174 31:-0.27575 32:-0.0894032 33:-0.0832408 34:-0.120221 35:0.0946083 36:-0.144279 37:0.234136 38:-0.154518 39:0.263463 40:-0.139548 
0.09167475627719318 1:0.625107 2:0.261733 3:0.655723 4:0.281074 5:0.660265 6:0.288604 7:0.605027 8:0.301818 9:0.462323 10:0.341106 11:0.27383 12:0.337041 13:0.0425121 14:0.322943 15:-0.292868 16:0.287932 17:-0.511369 18:0.233797 19:-0.667777 20:0.175974 21:-0.750719 22:0.122862 23:-0.721446 24:0.0867362 25:-0.671656 26:0.0450142 27:-0.453057 28:-0.0124729 29:-0.268009 30:-0.0638188 31:-0.0624493 32:-0.0996346 33:0.126156 34:-0.129894 35:0.272974 36:-0.153364 37:0.298531 38:-0.146802 39:0.299942 40:-0.132333 
0.06267530898002295 1:0.633096 2:0.261158 3:0.639767 4:0.28045 5:0.590066 6:0.301416 7:0.457092 8:0.330182 9:0.284929 10:0.355397 11:0.0779896 12:0.351131 13:-0.175845 14:0.322218 15:-0.521497 16:0.287227 17:-0.671988 18:0.233118 19:-0.749643 20:0.175325 21:-0.737296 22:0.134681 23:-0.707952 24:0.0861401 25:-0.464993 26:0.0216524 27:-0.208474 28:-0.0347072 29:-0.0228188 30:-0.0746269 31:0.175994 32:-0.109866 33:0.328894 34:-0.139567 35:0.350288 36:-0.145144 37:0.344795 38:-0.139086 39:0.273306 40:-0.132713 
0.04166438911135784 1:0.622825 2:0.260582 3:0.579626 4:0.292317 5:0.45894 6:0.327714 7:0.300539 8:0.344 9:0.113815 10:0.369688 11:-0.110919 12:0.350389 13:-0.386473 14:0.321493 15:-0.681335 16:0.286521 17:-0.74746 18:0.23244 19:-0.728701 20:0.187662 21:-0.716203 22:0.134059 23:-0.493976 24:0.061699 25:-0.211975 26:-0.0017094 27:0.0630717 28:-0.0460954 29:0.247427 30:-0.0854349 31:0.404704 32:-0.120097 33:0.419164 34:-0.130815 35:0.4059 36:-0.136924 37:0.321038 38:-0.139492 39:0.193399 40:-0.133093 
0.03384522972151373 1:0.572611 2:0.270947 3:0.464253 4:0.316052 5:0.321192 6:0.339852 7:0.151167 8:0.357091 9:-0.0494505 10:0.368184 11:-0.291161 12:0.348906 13:-0.529469 14:0.320043 15:-0.750126 16:0.285109 17:-0.716497 18:0.244656 19:-0.698239 20:0.186364 21:-0.493768 22:0.107932 23:-0.231807 24:0.0366617 25:0.0700145 26:-0.014245 27:0.363505 28:-0.058026 29:0.508725 30:-0.0967576 31:0.51176 32:-0.111328 33:0.487236 34:-0.122524 35:0.386911 36:-0.137789 37:0.241013 38:-0.140305 39:0.0729589 40:-0.126258 
0.1609782699783888 1:0.229101 2:0.311258 3:0.0825407 4:0.334791 5:-0.0907285 6:0.346595 7:-0.252424 8:0.349818 9:-0.380691 10:0.360662 11:-0.448873 12:0.356322 13:-0.531401 14:0.327292 15:-0.44866 16:0.263938 17:-0.195936 18:0.183577 19:0.0613993 20:0.114935 21:0.348035 22:0.051944 23:0.633735 24:-0.00506706 25:0.782714 26:-0.031339 27:0.862301 28:-0.052603 29:0.685906 30:-0.0813176 31:0.461476 32:-0.106456 33:0.219386 34:-0.117918 35:0.0193286 36:-0.116158 37:-0.0353235 38:-0.0956345 39:-0.182976 40:-0.0920828 
0.3948229887386134 1:0.108702 2:0.310107 3:-0.0469469 4:0.333542 5:-0.190728 6:0.345246 7:-0.303411 8:0.348364 9:-0.357928 10:0.374201 11:-0.423744 12:0.354839 13:-0.310145 14:0.296847 15:-0.17653 16:0.234298 17:0.0836962 18:0.168646 19:0.355545 20:0.100649 21:0.62512 22:0.0382582 23:0.758072 24:0.00566319 25:0.868662 26:-0.0210826 27:0.832451 28:-0.0536876 29:0.56868 30:-0.0823469 31:0.290349 32:-0.0976857 33:0.063263 34:-0.100415 35:-0.00169549 36:-0.0910664 37:-0.16724 38:-0.0964467 39:-0.293573 40:-0.0928422 
0.00944492481544796 1:-0.164051 2:0.312986 3:-0.193004 4:0.336665 5:-0.0966887 6:0.321645 7:0.0427289 8:0.293818 9:0.22449 10:0.287702 11:0.461872 12:0.254727 13:0.735266 14:0.213483 15:0.776429 16:0.195483 17:0.801645 18:0.158466 19:0.73822 20:0.103896 21:0.607862 22:0.0538103 23:0.413012 24:0.0205663 25:0.233221 26:0.0045584 27:0.198844 28:0.0032538 29:-0.0917226 30:-0.0283067 31:-0.291971 32:-0.0562728 33:-0.36441 34:-0.0704744 35:-0.393693 36:-0.0889033 37:-0.403564 38:-0.0862944 39:-0.385061 40:-0.0757547 
0.03374422345617206 1:0.201712 2:0.244457 3:0.3722 4:0.249844 5:0.55298 6:0.241403 7:0.646679 8:0.250909 9:0.72763 10:0.273411 11:0.722704 12:0.255469 13:0.62029 14:0.228706 15:0.312089 16:0.210303 17:0.0672472 18:0.186291 19:0.0157068 20:0.169481 21:-0.196548 22:0.116641 23:-0.376386 24:0.0688525 25:-0.422501 26:0.0393162 27:-0.454983 28:0.0037961 29:-0.520358 30:-0.0174987 31:-0.502028 32:-0.0362972 33:-0.378468 34:-0.0700138 35:-0.230248 36:-0.0884707 37:-0.0778368 38:-0.0940102 39:0.0671685 40:-0.0829694 
0.03171064125981512 1:0.357489 2:0.227181 3:0.527462 4:0.231106 5:0.61457 6:0.248146 7:0.68474 8:0.258182 9:0.675039 10:0.265889 11:0.57799 12:0.248053 13:0.381643 14:0.235955 15:0.0622155 16:0.231475 17:0.00241896 18:0.220224 19:-0.219419 20:0.162987 21:-0.41419 22:0.11042 23:-0.479518 24:0.0748137 25:-0.487204 26:0.0336182 27:-0.500241 28:0.00921909 29:-0.526622 30:-0.012352 31:-0.394161 32:-0.0509135 33:-0.235664 34:-0.07462 35:-0.0722279 36:-0.0927969 37:0.0803376 38:-0.0899492 39:0.074696 40:-0.0791722 
0.04062254149963874 1:0.504137 2:0.209329 3:0.58699 4:0.236727 5:0.652318 6:0.254214 7:0.639497 8:0.250182 9:0.547096 10:0.257616 11:0.367418 12:0.254727 13:0.14686 14:0.256977 15:-0.00151745 16:0.266055 17:-0.232704 18:0.212759 19:-0.431699 20:0.155844 21:-0.512943 22:0.116019 23:-0.540241 24:0.0682563 25:-0.52873 26:0.0387464 27:-0.50313 28:0.0140998 29:-0.404027 30:-0.0283067 31:-0.234388 32:-0.0562728 33:-0.0603034 34:-0.0796868 35:0.102068 36:-0.0889033 37:0.0909659 38:-0.0862944 39:0.188767 40:-0.0833492 
0.03369868244496652 1:0.561769 2:0.213936 3:0.624425 4:0.241724 5:0.613245 6:0.246123 7:0.525314 8:0.241455 9:0.359498 10:0.263633 11:0.160312 12:0.275491 13:0.0898551 14:0.291772 15:-0.243298 16:0.257586 17:-0.444606 18:0.204615 19:-0.52594 20:0.161039 21:-0.569511 22:0.108554 23:-0.577831 24:0.0730253 25:-0.527764 26:0.0433048 27:-0.367357 28:-0.0032538 29:-0.224161 30:-0.0344828 31:-0.0389294 32:-0.0621194 33:0.132815 34:-0.0760018 35:0.116311 36:-0.0854424 37:0.21663 38:-0.0911675 39:0.293573 40:-0.0879058 
0.0471322180833935 1:0.594864 2:0.218543 3:0.586376 4:0.234229 5:0.50596 6:0.238031 7:0.351526 8:0.247273 9:0.169545 10:0.284693 11:0.106586 12:0.311086 13:-0.143961 14:0.283074 15:-0.467881 16:0.249118 17:-0.543299 18:0.210044 19:-0.58496 20:0.153247 21:-0.609779 22:0.11353 23:-0.579759 24:0.0777943 25:-0.394495 26:0.0250712 27:-0.176697 28:-0.00976139 29:-0.0111857 30:-0.0406588 31:0.170316 32:-0.0582217 33:0.146134 34:-0.0723169 35:0.250593 36:-0.0906338 37:0.327915 38:-0.0960406 39:0.385061 40:-0.084868 
0.08264039744765751 1:0.557775 2:0.211633 3:0.485118 4:0.226733 5:0.343709 6:0.243425 7:0.175583 8:0.267636 9:0.118524 10:0.320797 11:-0.105719 12:0.302188 13:-0.361353 14:0.274375 15:-0.574102 16:0.254764 17:-0.606193 18:0.2019 19:-0.627796 20:0.158442 21:-0.614573 22:0.118507 23:-0.449639 24:0.0587183 25:-0.206181 26:0.0182336 27:0.0495908 28:-0.016269 29:0.217002 30:-0.0365414 31:0.182482 32:-0.054324 33:0.290418 34:-0.0778443 35:0.369278 36:-0.0958252 37:0.42482 38:-0.0927919 39:0.45165 40:-0.0818303 
0.0992354458553775 1:0.46077 2:0.204722 3:0.331697 4:0.23173 5:0.178146 6:0.262306 7:0.125314 8:0.302545 9:-0.077708 10:0.311771 11:-0.305026 12:0.293289 13:-0.467633 14:0.280174 15:-0.644917 16:0.246295 17:-0.654572 18:0.207329 19:-0.637316 20:0.163636 21:-0.489933 22:0.0986003 23:-0.266506 24:0.0515648 25:0.0159343 26:0.011396 27:0.290323 28:-0.0119306 29:0.225951 30:-0.0324241 31:0.336577 32:-0.0601705 33:0.416204 34:-0.0833717 35:0.471007 36:-0.0923643 37:0.493592 38:-0.0895431 39:0.469021 40:-0.0863869 
0.1393518253076475 1:0.313552 2:0.209329 3:0.173366 4:0.249219 5:0.12649 6:0.294673 7:-0.0599641 8:0.293818 9:-0.264521 10:0.302745 11:-0.407279 12:0.299221 13:-0.542995 14:0.271475 15:-0.703591 16:0.251941 17:-0.671988 18:0.212759 19:-0.52118 20:0.142857 21:-0.315436 22:0.0911353 23:-0.0525301 24:0.0444113 25:0.249638 26:0.0159544 27:0.292248 28:-0.00759219 29:0.388814 30:-0.0386001 31:0.467964 32:-0.0660171 33:0.521273 34:-0.0796868 35:0.540183 36:-0.0889033 37:0.507346 38:-0.0944162 39:0.458599 40:-0.0909436 
0.253314658126207 1:0.165193 2:0.226029 3:0.124271 4:0.279825 5:-0.0456954 6:0.287256 7:-0.232316 8:0.285818 9:-0.358713 10:0.309515 11:-0.476603 12:0.291064 13:-0.600966 14:0.277999 15:-0.723824 16:0.258292 17:-0.555878 18:0.19172 19:-0.349833 20:0.135714 21:-0.104506 22:0.0842924 23:0.178795 24:0.0497765 25:0.249638 26:0.0210826 27:0.465575 28:-0.0135575 29:0.531991 30:-0.0442615 31:0.581509 32:-0.0616322 33:0.595265 34:-0.0755412 35:0.553747 36:-0.0936621 37:0.494842 38:-0.0988832 39:0.33121 40:-0.0951206 
0.3876611613374939 1:0.118973 2:0.255399 3:-0.0359006 4:0.274204 5:-0.205298 6:0.281187 7:-0.31921 8:0.293818 9:-0.422292 10:0.302745 11:-0.529463 12:0.299221 13:-0.621256 14:0.285973 15:-0.60344 16:0.237826 17:-0.38268 18:0.185612 19:-0.141361 20:0.12987 21:0.12464 22:0.0911353 23:0.177831 24:0.0563338 25:0.422501 26:0.0159544 27:0.618681 28:-0.0184382 29:0.656376 30:-0.0386001 31:0.6618 32:-0.0562728 33:0.609323 34:-0.0796868 35:0.539505 36:-0.0975557 37:0.356674 38:-0.102538 39:0.191662 40:-0.0985381 
0.7088824260747861 1:-0.0253923 2:0.251944 3:-0.178889 4:0.270456 5:-0.280132 6:0.290627 7:-0.371634 8:0.289455 9:-0.463893 10:0.313276 11:-0.540728 12:0.309603 13:-0.498551 14:0.267126 15:-0.414264 16:0.233592 17:-0.163038 18:0.181541 19:0.0937649 20:0.138961 21:0.131352 22:0.0998445 23:0.358072 24:0.0527571 25:0.583776 26:0.0125356 27:0.760231 28:-0.010846 29:0.752125 30:-0.0313948 31:0.683698 32:-0.0591961 33:0.599704 34:-0.0824505 35:0.395049 36:-0.100151 37:0.211003 38:-0.104975 39:0.0567458 40:-0.100816 
0.7346104525247329 1:-0.158345 2:0.248488 3:-0.248236 4:0.2792 5:-0.328477 6:0.286581 7:-0.409695 8:0.299636 9:-0.474097 10:0.323806 11:-0.430676 12:0.290323 13:-0.317874 14:0.262776 15:-0.184623 16:0.229358 17:0.0759555 18:0.191042 19:0.100428 20:0.148052 21:0.310642 22:0.096112 23:0.519036 24:0.0491803 25:0.725736 26:0.0205128 27:0.863264 28:-0.0032538 29:0.776286 30:-0.0344828 31:0.673155 32:-0.0621194 33:0.442101 34:-0.0852142 35:0.23703 36:-0.102747 37:0.0653329 38:-0.107411 39:-0.089751 40:-0.103095 
0.6069087506291094 1:-0.222825 2:0.257126 3:-0.293035 4:0.276077 5:-0.363576 6:0.296696 7:-0.419031 8:0.310545 9:-0.374411 10:0.305002 11:-0.268631 12:0.286615 13:-0.0985507 14:0.259152 15:0.0652504 16:0.239944 17:0.0827286 18:0.201222 19:0.278439 20:0.144805 21:0.470757 22:0.0930016 23:0.660723 24:0.0581222 25:0.829068 26:0.0290598 27:0.889263 28:-0.00596529 29:0.764653 30:-0.0370561 31:0.500406 32:-0.0645554 33:0.2697 34:-0.0875173 35:0.0790098 36:-0.10491 37:-0.0928415 38:-0.109442 39:-0.224667 40:-0.112588 
0.3592494564219403 1:-0.266762 2:0.254823 3:-0.328015 4:0.286071 5:-0.374834 6:0.307485 7:-0.3307 8:0.293091 9:-0.230769 10:0.301993 11:-0.0753899 12:0.283648 13:0.136232 14:0.27075 15:0.0682853 16:0.251235 17:0.259797 18:0.198507 19:0.433603 20:0.142208 21:0.607862 22:0.102955 23:0.76 24:0.0676602 25:0.85128 26:0.0267806 27:0.872894 28:-0.00813449 29:0.57047 30:-0.0391148 31:0.308191 32:-0.0665043 33:0.0943396 34:-0.0893597 35:-0.0952865 36:-0.106641 37:-0.241013 38:-0.119188 39:-0.246091 40:-0.114107 
0.3912557487544753 1:-0.300428 2:0.264037 3:-0.339675 4:0.296065 5:-0.294702 6:0.291301 7:-0.200718 8:0.290182 9:-0.0572998 10:0.298985 11:0.133449 12:0.295514 13:0.137198 14:0.282349 15:0.251391 16:0.248412 17:0.415578 18:0.195792 19:0.567825 20:0.152597 21:0.704698 22:0.112908 23:0.780241 24:0.0652757 25:0.832931 26:0.0245014 27:0.662013 28:-0.0103037 29:0.3566 30:-0.0411734 31:0.114355 32:-0.0684531 33:-0.0972993 34:-0.0912022 35:-0.257375 36:-0.117024 37:-0.265395 38:-0.120812 39:-0.268674 40:-0.115626 
0.009771668114374438 1:-0.312981 2:0.273827 3:-0.26726 4:0.281699 5:-0.176821 6:0.289278 7:-0.0441652 8:0.288 9:0.129513 10:0.311771 11:0.131716 12:0.30812 13:0.309179 14:0.280174 15:0.411229 16:0.246295 17:0.549105 18:0.207329 19:0.661114 20:0.163636 21:0.721956 22:0.111042 23:0.759036 24:0.0634873 25:0.618542 26:0.022792 27:0.428984 28:-0.0119306 29:0.140045 30:-0.0427174 31:-0.0981346 32:-0.0699147 33:-0.27636 34:-0.101796 35:-0.28586 36:-0.118321 37:-0.291654 38:-0.12203 39:-0.269832 40:-0.116765 
0.06062523506504156 1:0.331241 2:0.317593 3:0.204664 4:0.341661 5:0.0410596 6:0.354012 7:-0.138241 8:0.343273 9:-0.193093 10:0.353892 11:-0.259099 12:0.334816 13:-0.300483 14:0.30627 15:-0.409206 16:0.271701 17:-0.332366 18:0.218188 19:-0.129938 20:0.161039 21:0.11697 22:0.0836703 23:0.150843 24:0.0253353 25:0.395461 26:-0.0136752 27:0.57246 28:-0.0466377 29:0.470246 30:-0.0756562 31:0.395783 32:-0.101096 33:0.263041 34:-0.122064 35:0.15429 36:-0.137357 37:0.0515786 38:-0.139898 39:-0.044586 40:-0.125878 
0.3517413751536406 1:0.217689 2:0.31932 3:0.070267 4:0.343535 5:-0.0907285 6:0.342549 7:-0.137522 8:0.345455 9:-0.192308 10:0.356149 11:-0.22357 12:0.337041 13:-0.280193 14:0.308445 15:-0.327264 16:0.273818 17:-0.118529 18:0.220224 19:0.118515 20:0.137013 21:0.137105 22:0.0730949 23:0.363855 24:0.0271237 25:0.570256 26:-0.0119658 27:0.592682 28:-0.0450108 29:0.489038 30:-0.0741122 31:0.331711 32:-0.0996346 33:0.204587 34:-0.120682 35:0.0871482 36:-0.136059 37:-0.0228196 38:-0.130558 39:-0.101911 40:-0.124739 
0.7495511181262873 1:0.0898716 2:0.320472 3:-0.0549248 4:0.332292 5:-0.0933775 6:0.343898 7:-0.140395 8:0.346909 9:-0.16405 10:0.357653 11:-0.209705 12:0.338524 13:-0.206763 14:0.309895 15:-0.108751 16:0.275229 17:0.129173 18:0.194435 19:0.133746 20:0.125325 21:0.344199 22:0.074339 23:0.533494 24:0.0283159 25:0.585707 26:-0.0108262 27:0.608089 28:-0.0439262 29:0.41387 30:-0.0730829 31:0.263585 32:-0.0986602 33:0.127636 34:-0.11976 35:0.00305188 36:-0.126541 37:-0.0878399 38:-0.129746 39:-0.162131 40:-0.116385 
0.3426614574592339 1:-0.0305278 2:0.310107 3:-0.0616754 4:0.333542 5:-0.100662 6:0.345246 7:-0.119569 8:0.348364 9:-0.156986 10:0.359158 11:-0.149913 12:0.340007 13:-0.00483092 14:0.311345 15:0.143146 16:0.248412 17:0.137881 18:0.182219 19:0.332699 20:0.126623 21:0.506232 22:0.0755832 23:0.542169 24:0.0295082 25:0.594399 26:-0.00968661 27:0.520462 28:-0.0428416 29:0.332438 30:-0.0720535 31:0.17356 32:-0.0976857 33:0.0307066 34:-0.109627 35:-0.0722279 36:-0.125676 37:-0.157237 38:-0.120812 39:-0.214823 40:-0.115626 
1.518842441066679 1:0.342653 2:0.371149 3:0.278306 4:0.39975 5:0.2 6:0.430209 7:0.120287 8:0.44 9:0.0580848 10:0.468973 11:0.0355286 12:0.448276 13:0.00869565 14:0.41718 15:-0.0854831 16:0.379675 17:-0.0807934 18:0.322022 19:-0.0728225 20:0.26039 21:-0.0556088 22:0.203733 23:-0.0226506 24:0.15231 25:0.0284887 26:0.107692 27:0.0524795 28:0.068872 29:0.0407159 30:-0.0174987 31:0.05515 32:-0.143484 33:0.0706622 34:-0.263473 35:0.08647 36:-0.365347 37:0.0640825 38:-0.410761 39:0.0480602 40:-0.394342 
1.671092432589269 1:0.279315 2:0.39476 3:0.210187 4:0.437851 5:0.139735 6:0.457856 7:0.0836625 8:0.484364 9:0.0651491 10:0.499812 11:0.0433276 12:0.47868 13:0.0173913 14:0.446901 15:-0.0763784 16:0.40861 17:-0.0720851 18:0.349847 19:-0.0642551 20:0.287013 21:-0.0469799 22:0.229238 23:-0.0139759 24:0.176751 25:0.0371801 26:0.131054 27:0.118922 28:0.0368764 29:0.102461 30:-0.0993309 31:0.111111 32:-0.230694 33:0.121717 34:-0.345924 35:0.0925738 36:-0.408177 37:0.0697093 38:-0.402234 39:0.0416908 40:-0.363585 
3.952380897228852 1:0.110984 2:0.46444 3:0.102792 4:0.500937 5:0.0900662 6:0.525961 7:0.0728905 8:0.543273 9:0.0533752 10:0.560737 11:0.0303293 12:0.538747 13:0.00289855 14:0.505618 15:-0.0915529 16:0.465773 17:-0.0865989 18:0.404818 19:-0.0214184 20:0.274675 21:0.0536913 22:0.0930016 23:0.14506 24:-0.0849478 25:0.254466 26:-0.244444 27:0.277805 28:-0.342191 29:0.196421 30:-0.366444 31:0.131387 32:-0.356882 33:0.0810211 34:-0.308614 35:0.055273 36:-0.226044 37:0.0353235 38:-0.125685 39:0.0214244 40:-0.0518322 
10.16624941422405 1:0.170899 2:0.376332 3:0.167229 4:0.405372 5:0.159603 6:0.422792 7:0.148294 8:0.432 9:0.135793 10:0.445656 11:0.121317 12:0.425287 13:0.104348 14:0.394708 15:0.0146687 16:0.357798 17:0.0149976 18:0.300984 19:0.0214184 20:0.24026 21:0.0393097 22:0.134681 23:0.130602 24:-0.080775 25:0.239981 26:-0.274644 27:0.205585 28:-0.370933 29:0.0935123 30:-0.373134 31:0.0218978 32:-0.265773 33:-0.0336663 34:-0.130355 35:-0.0634113 36:-0.0326628 37:-0.0740857 38:0.0071066 39:-0.045165 40:-0.00360737 
0.8656310335709365 1:0.171469 2:0.374028 3:0.167843 4:0.402873 5:0.160265 6:0.420094 7:0.149013 8:0.429091 9:0.136578 10:0.442648 11:0.122184 12:0.422321 13:0.105314 14:0.391809 15:0.0156803 16:0.354975 17:0.0159652 18:0.298269 19:0.0223703 20:0.185714 21:0.0977948 22:-0.0419907 23:0.189398 24:-0.250075 25:0.183003 26:-0.356695 27:0.168031 28:-0.362256 29:0.058613 30:-0.251673 31:-0.00973236 32:-0.111815 33:-0.0477248 34:-0.0124367 35:-0.0627331 36:0.0175211 37:-0.0359487 38:-0.00263959 39:-0.044586 40:-0.0355041 
3.577892468450313 1:0.17204 2:0.372876 3:0.168457 4:0.401624 5:0.160927 6:0.418746 7:0.149731 8:0.427636 9:0.137363 10:0.441143 11:0.12305 12:0.420838 13:0.10628 14:0.390359 15:0.016692 16:0.353564 17:0.0169328 18:0.24262 19:0.0804379 20:0.0025974 21:0.15628 22:-0.217418 23:0.13253 24:-0.334724 25:0.14534 26:-0.346439 27:0.130477 28:-0.233189 29:0.0237136 30:-0.0880082 31:-0.0251419 32:0.0138855 33:-0.0469848 34:0.0419162 35:-0.0213632 36:0.00800346 37:-0.0353235 38:-0.0359391 39:-0.0440069 40:-0.0514524 
7.250446465076568 1:0.172611 2:0.372301 3:0.16907 4:0.400999 5:0.161589 6:0.418071 7:0.150449 8:0.426909 9:0.138148 10:0.440391 11:0.123917 12:0.420096 13:0.107246 14:0.389634 15:0.0177036 16:0.296401 17:0.0759555 18:0.0519172 19:0.138505 20:-0.17987 21:0.0997124 22:-0.305132 23:0.0949398 24:-0.323398 25:0.107677 26:-0.210256 27:0.0929225 28:-0.0601952 29:0.00671141 30:0.0452908 31:-0.0243309 32:0.0718636 33:-0.0018498 34:0.0322432 35:-0.020685 36:-0.0270387 37:-0.0346983 38:-0.0525888 39:-0.0434279 40:-0.0594266 
5.014464146708951 1:0.173181 2:0.372876 3:0.169684 4:0.401624 5:0.162252 6:0.418746 7:0.151167 8:0.427636 9:0.138932 10:0.441143 11:0.124783 12:0.420838 13:0.108213 14:0.332367 15:0.0794133 16:0.099506 17:0.134978 18:-0.137428 19:0.0823417 20:-0.27013 21:0.0623202 22:-0.292068 23:0.0573494 24:-0.179732 25:0.0700145 26:-0.0273504 27:0.0746269 28:0.0813449 29:0.00760626 30:0.107566 31:0.0251419 32:0.0626066 33:-0.00110988 34:-0.00414556 35:-0.0200068 36:-0.0439109 37:-0.0340731 38:-0.0603046 39:-0.0428489 40:-0.0742358 
5.025588491467619 1:0.173752 2:0.374604 3:0.170298 4:0.403498 5:0.162914 6:0.420769 7:0.151885 8:0.429818 9:0.139717 10:0.4434 11:0.12565 12:0.363737 13:0.16715 14:0.131569 15:0.141123 16:-0.0959774 17:0.0778907 18:-0.230404 19:0.0452166 20:-0.255195 21:0.0249281 22:-0.140902 23:0.019759 24:0.0128167 25:0.0516659 26:0.122507 27:0.0755898 28:0.148048 29:0.0621924 30:0.0988163 31:0.025953 32:0.0250914 33:-0.000369959 34:-0.0211884 35:-0.0193286 36:-0.0512654 37:-0.033448 38:-0.0753299 39:-0.0422698 40:-0.0882856 
4.168055026739634 1:0.174322 2:0.376332 3:0.170911 4:0.405372 5:0.163576 6:0.422792 7:0.152603 8:0.432 9:0.140502 10:0.385483 11:0.17851 12:0.158324 13:0.226087 14:-0.069228 15:0.0814365 16:-0.192661 17:0.0401548 18:-0.214795 19:0.00809139 20:-0.0974026 21:-0.012464 22:0.0600311 23:0.00144578 24:0.169598 25:0.0526316 26:0.192593 27:0.134328 28:0.138829 29:0.0630872 30:0.0591868 31:0.026764 32:0.00706456 33:0.000369959 34:-0.0290189 35:-0.0186504 36:-0.0672723 37:-0.0328228 38:-0.0903553 39:-0.0416908 40:-0.0871464 
3.847770536007346 1:0.176034 2:0.378059 3:0.172752 4:0.407245 5:0.165563 6:0.424815 7:0.154758 8:0.376 9:0.189953 10:0.177134 11:0.233102 12:-0.0470894 13:0.171014 14:-0.168539 15:0.0440061 16:-0.176429 17:0.00435414 18:-0.0498812 19:-0.0271299 20:0.112338 21:-0.0287632 22:0.223639 23:0.00433735 24:0.242921 25:0.113472 26:0.182906 27:0.137217 28:0.0970716 29:0.0657718 30:0.0401441 31:0.0291971 32:-0.00121803 33:0.00258972 34:-0.0460617 35:-0.0166158 36:-0.0832793 37:-0.0309472 38:-0.0891371 39:-0.0631152 40:-0.0860072 
3.821073982395692 1:0.177746 2:0.379787 3:0.174593 4:0.409119 5:0.16755 6:0.372893 7:0.2 8:0.174545 9:0.239403 10:-0.0312147 11:0.183709 12:-0.148684 13:0.135266 14:-0.151867 15:0.00657562 16:-0.00494001 17:-0.0314465 18:0.169325 19:-0.0433127 20:0.283117 21:-0.0258869 22:0.300156 23:0.0650602 24:0.232787 25:0.116369 26:0.139031 27:0.140106 28:0.0770065 29:0.0684564 30:0.0313948 31:0.0316302 32:-0.0192448 33:0.00480947 34:-0.0631046 35:-0.0145812 36:-0.0819814 37:-0.0540794 38:-0.0879188 39:-0.0613781 40:-0.084868 
3.700364637819245 1:0.180599 2:0.381515 3:0.177662 4:0.361024 5:0.210596 6:0.186109 7:0.246679 8:-0.0269091 9:0.196232 10:-0.134261 11:0.15338 12:-0.131628 13:0.101449 14:0.0242842 15:-0.0288316 16:0.223006 17:-0.0459603 18:0.347811 19:-0.0385531 20:0.362987 21:0.0364334 22:0.28958 23:0.0698795 24:0.186885 25:0.121197 26:0.117949 27:0.144921 28:0.0677874 29:0.0729306 30:0.012352 31:0.0356853 32:-0.0372716 33:0.00850906 34:-0.0617227 35:-0.0383181 36:-0.0806835 37:-0.0509534 38:-0.0867005 39:-0.0816445 40:-0.0837289 
3.73441646473937 1:0.183452 2:0.337172 3:0.217551 4:0.188007 5:0.253642 6:-0.000674309 7:0.207181 8:-0.126545 9:0.16876 10:-0.116961 11:0.12305 12:0.0485725 13:0.0676329 14:0.258427 15:-0.0440061 16:0.40861 17:-0.0411224 18:0.431286 19:0.0233222 20:0.351948 21:0.0412272 22:0.24168 23:0.0746988 24:0.164829 25:0.126026 26:0.108262 27:0.149735 28:0.0477223 29:0.0774049 30:-0.00669068 31:0.0397405 32:-0.03581 33:-0.0173881 34:-0.0603409 35:-0.0349271 36:-0.0793857 37:-0.0728353 38:-0.0854822 39:-0.0787493 40:-0.0825897 
4.282356379347764 1:0.220542 2:0.175353 3:0.257441 4:0.0124922 5:0.217219 6:-0.0957519 7:0.182047 8:-0.112727 9:0.141287 10:0.0628056 11:0.092721 12:0.285132 13:0.0531401 14:0.446176 15:-0.0389479 16:0.49259 17:0.0217707 18:0.417034 19:0.0280819 20:0.299351 21:0.0460211 22:0.216174 23:0.0795181 24:0.15231 25:0.130855 26:0.0849003 27:0.15455 28:0.0254881 29:0.0818792 30:-0.00720535 31:0.0113544 32:-0.0362972 33:-0.0136885 34:-0.0608015 35:-0.058664 36:-0.0798183 37:-0.0697093 38:-0.0858883 39:-0.0758541 40:-0.0829694 
3.781091954895906 1:0.259344 2:0.00547077 3:0.225529 4:-0.0843223 5:0.196026 6:-0.0923803 7:0.159066 8:0.0509091 9:0.11617 10:0.292215 11:0.0823224 12:0.466815 13:0.0608696 14:0.522291 15:0.0298432 16:0.46789 17:0.0295114 18:0.352562 19:0.0356973 20:0.263636 21:0.0536913 22:0.194401 23:0.0872289 24:0.119523 25:0.13858 26:0.0535613 27:0.162253 28:0.0173536 29:0.0532438 30:-0.0149254 31:0.0178427 32:-0.0436054 33:-0.0373659 34:-0.0677107 35:-0.0532384 36:-0.0863076 37:-0.0647077 38:-0.0919797 39:-0.0712218 40:-0.0886653 
4.047149094138097 1:0.231384 2:-0.0918514 3:0.207732 4:-0.0899438 5:0.176821 6:0.0498989 7:0.138241 8:0.262545 9:0.109105 10:0.465965 11:0.0918544 12:0.534297 13:0.129469 14:0.486771 15:0.0409712 16:0.390967 17:0.0401548 18:0.305735 19:0.0461685 20:0.231818 21:0.0642378 22:0.151477 23:0.0978313 24:0.0783905 25:0.149203 26:0.037037 27:0.134328 28:0.0016269 29:0.0630872 30:-0.0298507 31:-0.00567721 32:-0.0577345 33:-0.0292268 34:-0.0810686 35:-0.0457782 36:-0.0988536 37:-0.0578306 38:-0.103756 39:-0.0648523 40:-0.0996772 
8.244444435687273 1:0.213124 2:-0.101065 3:0.188095 4:0.0374766 5:0.155629 6:0.241403 7:0.129623 8:0.425455 9:0.115385 10:0.529146 11:0.15078 12:0.49277 13:0.137198 14:0.402682 15:0.0490642 16:0.337332 17:0.0478955 18:0.26773 19:0.0537839 20:0.182468 21:0.071908 22:0.104199 23:0.105542 24:0.05693 25:0.1183 26:0.0165242 27:0.142032 28:-0.0178959 29:0.0344519 30:-0.0483788 31:0.00081103 32:-0.0752741 33:-0.0233074 34:-0.0976509 35:-0.0403527 36:-0.114428 37:-0.052829 38:-0.118376 39:-0.06022 40:-0.113347 
11.3137 1:0.193723 2:0.0169882 3:0.167229 4:0.21549 5:0.146358 6:0.393122 7:0.133932 8:0.487273 9:0.16719 10:0.487777 11:0.155979 12:0.40749 13:0.142995 14:0.348315 15:0.055134 16:0.298518 17:0.053701 18:0.216831 19:0.0594955 20:0.133766 21:0.0776606 22:0.0824261 23:0.0727711 24:0.0360656 25:0.124095 26:-0.0034188 27:0.109292 28:-0.0368764 29:0.039821 30:-0.0663922 31:0.00567721 32:-0.0923264 33:-0.0188679 34:-0.113772 35:-0.0362835 36:-0.12957 37:-0.0490778 38:-0.132589 39:-0.0567458 40:-0.126638 
7.063916954838726 1:0.173181 2:0.187446 3:0.15741 4:0.362898 5:0.149007 6:0.457856 7:0.179892 8:0.455273 9:0.17033 10:0.409552 11:0.159445 12:0.36003 13:0.14686 14:0.316419 15:0.0591806 16:0.253352 17:0.0575714 18:0.173397 19:0.0633032 20:0.118182 21:0.0431448 22:0.0674961 23:0.0766265 24:0.0217586 25:0.0893288 26:-0.017094 27:0.113144 28:-0.0498915 29:0.0434004 30:-0.0787442 31:0.00892133 32:-0.104019 33:-0.0159083 34:-0.124827 35:-0.0335707 36:-0.139952 37:-0.0465771 38:-0.142335 39:-0.0544296 40:-0.128156 
0.7298954253478539 1:0.0533524 2:0.24273 3:0.0408101 4:0.260462 5:0.0231788 6:0.279838 7:0.000359066 8:0.292364 9:-0.0259027 10:0.316284 11:-0.0571924 12:0.31257 13:-0.11401 14:0.299021 15:-0.234193 16:0.264644 17:-0.24238 18:0.211401 19:-0.250833 20:0.154545 21:-0.215724 22:0.102333 23:-0.14506 24:0.0551416 25:0.0796717 26:0.0148148 27:0.2961 28:-0.0195228 29:0.410291 30:-0.0602162 31:0.536091 32:-0.0864799 33:0.420644 34:-0.0898204 35:0.230926 36:-0.0984209 37:0.209753 38:-0.10335 39:0.182976 40:-0.0992975 
0.5362766261615386 1:0.0305278 2:0.232364 3:0.0162627 4:0.261711 5:-0.00331126 6:0.281187 7:-0.0283662 8:0.293818 9:-0.0572998 10:0.317789 11:-0.109185 12:0.314053 13:-0.171981 14:0.285973 15:-0.294891 16:0.251941 17:-0.300435 18:0.199186 19:-0.269871 20:0.142857 21:-0.215724 22:0.0911353 23:-0.0101205 24:0.0444113 25:0.234186 26:0.0045584 27:0.469427 28:-0.0401302 29:0.589262 30:-0.0694802 31:0.454988 32:-0.0757613 33:0.243063 34:-0.0888991 35:0.217362 36:-0.106208 37:0.184745 38:-0.11066 39:0.287203 40:-0.0225935 
0.2108142706743917 1:0.00370899 2:0.232364 3:-0.0125805 4:0.261711 5:-0.0344371 6:0.281187 7:-0.0621185 8:0.293818 9:-0.10989 10:0.317789 11:-0.167244 12:0.299221 13:-0.236715 14:0.271475 15:-0.362671 16:0.237826 17:-0.32656 18:0.185612 19:-0.276535 20:0.12987 21:-0.0882071 22:0.0786936 23:0.137349 24:0.0324888 25:0.401255 26:-0.0182336 27:0.655272 28:-0.0509761 29:0.493512 30:-0.0591868 31:0.254663 32:-0.0757613 33:0.223085 34:-0.0981115 35:0.185487 36:-0.11486 37:0.292904 38:-0.0294416 39:0.341054 40:-0.0149991 
0.1954789773398402 1:-0.0282454 2:0.232364 3:-0.0469469 4:0.261711 5:-0.0715232 6:0.281187 7:-0.116697 8:0.293818 9:-0.169545 10:0.302745 11:-0.233102 12:0.28439 13:-0.310145 14:0.256977 15:-0.39909 16:0.223712 17:-0.342042 18:0.172039 19:-0.158496 20:0.116883 21:0.0498562 22:0.0662519 23:0.295422 24:0.00864382 25:0.578947 26:-0.0296296 27:0.543572 28:-0.0401302 29:0.26443 30:-0.0591868 31:0.225466 32:-0.0855055 33:0.18165 34:-0.107324 35:0.296711 36:-0.0283366 37:0.34542 38:-0.0213198 39:0.412855 40:-0.0149991 
0.2149699618503767 1:-0.0653352 2:0.23294 3:-0.0868365 4:0.262336 5:-0.127815 6:0.281861 7:-0.177738 8:0.28 9:-0.236264 10:0.288454 11:-0.306759 12:0.2703 13:-0.353623 14:0.243204 15:-0.42438 16:0.210303 17:-0.230769 18:0.159145 19:-0.0299857 20:0.104545 21:0.198466 22:0.0419907 23:0.464096 24:-0.00268256 25:0.458233 26:-0.0176638 27:0.288397 28:-0.0395879 29:0.224161 30:-0.0689655 31:0.172749 32:-0.0947625 33:0.296337 34:-0.0147398 35:0.347575 36:-0.0192516 37:0.417318 38:-0.0209137 39:0.479444 40:-0.0222138 
0.1929172456754893 1:-0.104137 2:0.232364 3:-0.140841 4:0.261711 5:-0.186093 6:0.267701 7:-0.240934 8:0.264727 9:-0.305338 10:0.272659 11:-0.348354 12:0.254727 13:-0.380676 14:0.227981 15:-0.311077 16:0.195483 17:-0.103048 18:0.144893 19:0.114707 20:0.0779221 21:0.363375 22:0.0289269 23:0.340723 24:0.00864382 25:0.199421 26:-0.0182336 27:0.242176 28:-0.0509761 29:0.163311 30:-0.0797735 31:0.296026 32:0.00219245 33:0.349612 34:-0.00598802 35:0.423533 36:-0.0196842 37:0.48734 38:-0.0294416 39:0.474812 40:-0.00740459 
0.2180976586539405 1:-0.151498 2:0.233516 3:-0.191777 4:0.250468 5:-0.24106 6:0.255563 7:-0.300539 8:0.251636 9:-0.339089 10:0.25912 11:-0.368284 12:0.241379 13:-0.267633 14:0.214933 15:-0.172484 16:0.182781 17:0.0488631 18:0.119104 19:0.283198 20:0.0662338 21:0.245446 22:0.0426128 23:0.0872289 24:0.00983607 25:0.157895 26:-0.02849 27:0.181512 28:-0.0607375 29:0.303803 30:0.0241894 31:0.358475 32:0.0129111 33:0.436182 34:-0.00506679 35:0.502882 36:-0.0274713 37:0.485464 38:-0.0123858 39:0.380428 40:-0.0294285 
0.2532343287852717 1:-0.196576 2:0.224878 3:-0.240258 4:0.241099 5:-0.293377 6:0.245448 7:-0.328546 8:0.240727 9:-0.354003 10:0.247838 11:-0.263432 12:0.230256 13:-0.131401 14:0.204059 15:-0.00961052 16:0.15808 17:0.223996 18:0.108924 19:0.169919 20:0.0824675 21:-0.00287632 22:0.0457232 23:0.0496386 24:0.000894188 25:0.100917 26:-0.037037 27:0.336543 28:0.0504338 29:0.376286 30:0.0370561 31:0.45661 32:0.0153471 33:0.525712 34:-0.011976 35:0.503561 36:-0.00800346 37:0.386058 38:-0.0347208 39:0.288361 40:-0.0503133 
0.255243428460422 1:-0.239372 2:0.217391 3:-0.286284 4:0.232979 5:-0.316556 6:0.236682 7:-0.339318 8:0.231273 9:-0.255887 10:0.238059 11:-0.137782 12:0.220615 13:0.0280193 14:0.180138 15:0.177542 16:0.148906 17:0.112724 18:0.127248 19:-0.0728225 20:0.087013 21:-0.0364334 22:0.0376361 23:-0.00337349 24:-0.00685544 25:0.260261 26:0.0809117 27:0.418392 28:0.0650759 29:0.488143 30:0.0406588 31:0.557989 32:0.0090134 33:0.529412 34:0.00967296 35:0.39844 36:-0.0309323 37:0.289153 38:-0.0562437 39:0.19861 40:-0.0704386 
0.3287913547877636 1:-0.279886 2:0.211057 3:-0.305308 4:0.226109 5:-0.323841 6:0.229265 7:-0.246679 8:0.223273 9:-0.138932 10:0.229786 11:0.00866551 12:0.197627 13:0.210628 14:0.172164 15:0.0652504 16:0.169372 17:-0.13014 18:0.133356 19:-0.102332 20:0.0798701 21:-0.0853308 22:0.0307932 23:0.159518 24:0.117735 25:0.34621 26:0.0974359 27:0.54261 28:0.0699566 29:0.603579 30:0.0349974 31:0.565288 32:0.0328867 33:0.417684 34:-0.0138185 35:0.296033 36:-0.0529959 37:0.194748 38:-0.0769543 39:0.111175 40:-0.0898044 
0.4837955416391981 1:-0.298146 2:0.204722 3:-0.312673 4:0.219238 5:-0.239073 6:0.221848 7:-0.140395 8:0.215273 9:-0.00706436 10:0.206469 11:0.171577 12:0.18947 13:0.102415 14:0.193186 15:-0.189681 16:0.175723 17:-0.161103 18:0.125891 19:-0.151832 20:0.0727273 21:0.075743 22:0.160809 23:0.244337 24:0.135022 25:0.469821 26:0.102564 27:0.665864 28:0.0639913 29:0.610738 30:0.0602162 31:0.442011 32:0.00803898 33:0.305216 34:-0.03731 35:0.192947 36:-0.0750595 37:0.0997187 38:-0.097665 39:0.0810654 40:-0.0939814 
0.6734774132751207 1:-0.304422 2:0.198388 3:-0.233507 4:0.212367 5:-0.140397 6:0.21443 7:-0.0190305 8:0.192727 9:0.141287 10:0.198195 11:0.0753899 12:0.210975 13:-0.140097 14:0.19971 15:-0.221042 16:0.16796 17:-0.21045 18:0.118426 19:0.00904331 20:0.208442 21:0.161074 22:0.178849 23:0.368675 24:0.140387 25:0.594399 26:0.0962963 27:0.674531 28:0.090564 29:0.475615 30:0.0339681 31:0.319546 32:-0.0168088 33:0.193489 34:-0.0608015 35:0.0905392 36:-0.0971231 37:0.0678337 38:-0.102132 39:0.0515345 40:-0.0981583 
0.4859020510019333 1:-0.229672 2:0.192053 3:-0.140841 4:0.205497 5:-0.0271523 6:0.193527 7:0.118133 8:0.184727 9:0.05573 10:0.220008 11:-0.140381 12:0.217649 13:-0.168116 14:0.191736 15:-0.270612 16:0.160198 17:-0.0449927 18:0.260265 19:0.0956687 20:0.227273 21:0.286673 22:0.184448 23:0.49494 24:0.13383 25:0.605022 26:0.124217 27:0.531054 28:0.0629067 29:0.342282 30:0.00772002 31:0.198702 32:-0.0416565 33:0.0832408 34:-0.084293 35:0.0573076 36:-0.101882 37:0.0371991 38:-0.106599 39:0.0231616 40:-0.102335 
0.1254133845447643 1:-0.141797 2:0.183991 3:-0.0340595 4:0.18426 5:0.101325 6:0.184086 7:0.0420108 8:0.203636 9:-0.137363 10:0.22452 11:-0.162912 12:0.207267 13:-0.21256 14:0.181588 15:-0.0945878 16:0.305575 17:0.0459603 18:0.27791 19:0.223227 20:0.231169 21:0.415149 22:0.175739 23:0.508434 24:0.161252 25:0.464027 26:0.0934473 27:0.390467 28:0.0336226 29:0.211633 30:-0.0200721 31:0.080292 32:-0.0679659 33:0.0492046 34:-0.0907416 35:0.0261105 36:-0.107939 37:0.00844014 38:-0.112284 39:0.0660104 40:-0.084868 
0.147310728933834 1:-0.0407989 2:0.162684 3:0.0868365 4:0.173641 5:0.0331126 6:0.199595 7:-0.132496 8:0.205818 9:-0.155416 10:0.211734 11:-0.200173 12:0.194661 13:-0.0415459 14:0.328742 15:0.00354072 16:0.321807 17:0.17852 18:0.279946 19:0.353641 20:0.22013 21:0.431448 22:0.202488 23:0.370602 24:0.127273 25:0.32593 26:0.0609687 27:0.252768 28:0.0027115 29:0.0836689 30:-0.0494081 31:0.0454177 32:-0.0762485 33:0.0173881 34:-0.0985721 35:-0.00305188 36:-0.115293 37:0.0565802 38:-0.0948223 39:0.122177 40:-0.06854 
0.2374267973045235 1:0.0738944 2:0.15059 3:0.0260816 4:0.185509 5:-0.125166 6:0.198921 7:-0.14614 8:0.190545 9:-0.186028 10:0.195938 11:-0.0433276 12:0.342232 13:0.0560386 14:0.342515 15:0.146181 16:0.321101 17:0.314949 18:0.265694 19:0.373632 20:0.245455 21:0.298178 22:0.164541 23:0.236627 24:0.0909091 25:0.191695 26:0.0262108 27:0.118922 28:-0.0303688 29:0.0487696 30:-0.0602162 31:0.0137875 32:-0.0864799 33:-0.0114687 34:-0.108245 35:0.051882 36:-0.0984209 37:0.119725 38:-0.0789848 39:0.18066 40:-0.0537308 
0.242404732176816 1:0.021398 2:0.161532 3:-0.116293 4:0.184884 5:-0.133113 6:0.184761 7:-0.16912 8:0.175273 9:-0.0384615 10:0.345619 11:0.05026 12:0.356322 13:0.199034 14:0.341791 15:0.295903 16:0.306281 17:0.342042 18:0.292162 19:0.247977 20:0.205844 21:0.17162 22:0.126594 23:0.109398 24:0.0545455 25:0.0642202 26:-0.00854701 27:0.0881078 28:-0.041757 29:0.0201342 30:-0.0710242 31:-0.0121655 32:-0.0967113 33:0.0536441 34:-0.090281 35:0.125127 36:-0.0815488 37:0.187246 38:-0.0631472 39:0.220035 40:-0.061705 
0.008654600077537482 1:-0.112696 2:0.162108 3:-0.125499 4:0.173017 5:-0.156291 6:0.171949 7:-0.0362657 8:0.321455 9:0.043956 10:0.361414 11:0.17591 12:0.357063 13:0.33913 14:0.328017 15:0.321194 16:0.335215 17:0.211418 18:0.252121 19:0.119467 20:0.167532 21:0.042186 22:0.0898911 23:-0.0207229 24:0.0193741 25:0.0304201 26:-0.0193732 27:0.0544054 28:-0.0520607 29:-0.0111857 30:-0.0808029 31:0.0567721 32:-0.0767357 33:0.131336 34:-0.0713957 35:0.196338 36:-0.0638114 37:0.227884 38:-0.0708629 39:0.199768 40:-0.0689197 
2.285307957629383 1:0.138374 2:0.291679 3:0.0708806 4:0.313554 5:-0.010596 6:0.323668 7:-0.108079 8:0.325091 9:-0.0659341 10:0.335088 11:-0.0147314 12:0.316277 13:-0.047343 14:0.288148 15:-0.0227618 16:0.254058 17:0.0953072 18:0.201222 19:0.138505 20:0.144805 21:0.157239 22:0.0930016 23:0.191325 24:0.0461997 25:0.242878 26:0.00626781 27:0.266249 28:-0.0276573 29:0.185682 30:-0.0576428 31:0.137875 32:-0.0840438 33:0.101739 34:-0.105942 35:0.0742625 36:-0.122215 37:0.052829 38:-0.125685 39:0.0376375 40:-0.120182 
1.466946845101081 1:0.152068 2:0.494385 3:0.146978 4:0.533417 5:0.0980132 6:0.534053 7:0.0384201 8:0.522909 9:0.0156986 10:0.50959 11:-0.0112652 12:0.458658 13:-0.0434783 14:0.398333 15:-0.0794133 16:0.276641 17:-0.0169328 18:0.1415 19:0.0471204 20:0.0616883 21:0.122723 22:-0.0115086 23:0.156627 24:-0.0539493 25:0.208112 26:-0.0894587 27:0.231584 28:-0.118764 29:0.153468 30:-0.144107 31:0.108678 32:-0.165895 33:0.0751017 34:-0.183326 35:0.0498474 36:-0.194895 37:0.030322 38:-0.193909 39:0.0167921 40:-0.183976 
0.4234889745377788 1:0.148645 2:0.509358 3:0.106474 4:0.524672 5:0.0543046 6:0.524612 7:0.0341113 8:0.512727 9:0.010989 10:0.49906 11:-0.0164645 12:0.448276 13:0.00869565 14:0.330192 15:-0.024785 16:0.210303 17:0.0353169 18:0.131999 19:0.0985245 20:0.0525974 21:0.11697 22:0.00466563 23:0.150843 24:-0.0384501 25:0.202318 26:-0.0746439 27:0.225806 28:-0.104664 29:0.148098 30:-0.130726 31:0.103812 32:-0.153228 33:0.0706622 34:-0.17135 35:0.0457782 36:-0.183647 37:0.0265708 38:-0.18335 39:0.0133179 40:-0.174103 
0.6250423341895994 1:0.0807418 2:0.409156 3:0.107088 4:0.366021 5:0.134437 6:0.299393 7:0.164093 8:0.269818 9:0.200157 10:0.247838 11:0.192374 12:0.230256 13:0.183575 14:0.204059 15:0.0976227 16:0.172195 17:0.0943396 18:0.122497 19:0.0994764 20:0.0694805 21:0.117929 22:0.0208398 23:0.151807 24:-0.0229508 25:0.203283 26:-0.0598291 27:0.226769 28:-0.090564 29:0.148993 30:-0.117344 31:0.104623 32:-0.14056 33:0.027007 34:-0.0856748 35:-0.0891828 36:-0.0512654 37:-0.18537 38:0.0383756 39:-0.24088 40:0.10917 
0.9691314467680898 1:0.122967 2:0.321624 3:0.152501 4:0.271081 5:0.183444 6:0.250843 7:0.217235 8:0.217455 9:0.211146 10:0.223768 11:0.204506 12:0.206526 13:0.197101 14:0.180863 15:0.111786 16:0.149612 17:0.107886 18:0.10078 19:0.112803 20:0.0487013 21:0.131352 22:0.000933126 23:0.165301 24:-0.0420268 25:0.216803 26:-0.0780627 27:0.24025 28:-0.107918 29:0.161521 30:-0.133814 31:0.0673155 32:-0.0781973 33:-0.0662227 34:-0.0451405 35:-0.174635 36:0.0387194 37:-0.239137 38:0.106599 39:-0.279097 40:0.188153 
0.03361310715678303 1:0.165763 2:0.221998 3:0.198527 4:0.212992 5:0.233113 6:0.188132 7:0.228007 8:0.178909 9:0.22292 10:0.183904 11:0.217504 12:0.167223 13:0.211594 14:0.142443 15:0.12696 16:0.112209 17:0.1224 18:0.0648117 19:0.127082 20:0.0142857 21:0.145733 22:-0.0320373 23:0.179759 24:-0.0736215 25:0.231289 26:-0.108262 27:0.254694 28:-0.136659 29:0.121253 30:-0.0787442 31:-0.0340633 32:-0.0455542 33:-0.158713 34:0.0409949 35:-0.232282 36:0.102315 37:-0.279775 38:0.182538 39:-0.24725 40:0.281944 
0.2564487449918737 1:0.2097 2:0.154621 3:0.245781 4:0.139913 5:0.244371 6:0.13621 7:0.240215 8:0.122909 9:0.236264 10:0.125987 11:0.232236 12:0.110122 13:0.228019 14:0.0866256 15:0.144158 16:0.0578687 17:0.138849 18:0.0125551 19:0.143265 20:-0.0357143 21:0.162033 22:-0.0799378 23:0.196145 24:-0.119523 25:0.247706 26:-0.152137 27:0.213288 28:-0.0916486 29:0.0111857 30:-0.0566135 31:-0.13382 32:0.0338611 33:-0.220126 34:0.0976509 35:-0.275008 36:0.172831 37:-0.244139 38:0.273096 39:-0.225825 40:0.389406 
0.2872573020436647 1:0.288445 2:0.0429024 3:0.293648 4:0.0437227 5:0.296026 6:0.0323668 7:0.29623 8:0.0109091 9:0.297488 10:0.0101542 11:0.299827 12:-0.00407861 13:0.303382 14:-0.0250091 15:0.223065 16:-0.0508116 17:0.21432 18:-0.0919579 19:0.217515 20:-0.135714 21:0.236817 22:-0.175739 23:0.271325 24:-0.211326 25:0.265089 26:-0.148718 27:0.153587 28:-0.110087 29:-0.0442953 30:-0.012352 31:-0.151663 32:0.0562728 33:-0.221606 34:0.137264 35:-0.194981 36:0.235994 37:-0.18287 38:0.356751 39:-0.852345 40:0.900513 
0.3028827777790368 1:0.333524 2:-0.0596026 3:0.342129 4:-0.0674578 5:0.348344 6:-0.0876601 7:0.352962 8:-0.118545 9:0.359498 10:-0.123731 11:0.368284 12:-0.136077 13:0.37971 14:-0.154041 15:0.302984 16:-0.176429 17:0.29076 18:-0.212759 19:0.292718 20:-0.251299 21:0.31256 22:-0.28647 23:0.289639 24:-0.222057 25:0.206181 26:-0.181766 27:0.0948483 28:-0.0764642 29:-0.0630872 30:-0.00102934 31:-0.152474 32:0.0864799 33:-0.133555 34:0.193459 35:-0.12784 36:0.314731 37:-0.858706 38:0.893604 39:-0.783439 40:1 
0.3114226652755333 1:0.378602 2:-0.162108 3:0.390611 4:-0.178638 5:0.400662 6:-0.207687 7:0.409695 8:-0.248 9:0.421507 10:-0.257616 11:0.436742 12:-0.268076 13:0.456039 14:-0.283074 15:0.382903 16:-0.302047 17:0.367199 18:-0.33356 19:0.36792 20:-0.366883 21:0.330777 22:-0.297667 23:0.230843 24:-0.256632 25:0.147272 26:-0.146439 27:0.0746269 28:-0.0645336 29:-0.0639821 30:0.0308801 31:-0.0559611 32:0.14592 33:-0.0603034 34:0.277292 35:-0.86097 36:0.886654 37:-0.784308 38:1 39:-0.737695 40:0.932409 
0.3188558416086839 1:0.42368 2:-0.264613 3:0.439092 4:-0.289819 5:0.45298 6:-0.327714 7:0.466427 8:-0.377455 9:0.483516 10:-0.391501 11:0.505199 12:-0.400074 13:0.532367 14:-0.412106 15:0.462822 16:-0.427664 17:0.443638 18:-0.45436 19:0.386007 20:-0.378571 21:0.272291 22:-0.333748 23:0.172048 24:-0.219672 25:0.126992 26:-0.133903 27:0.0736639 28:-0.0309111 29:0.0425056 30:0.0936696 31:0.0243309 32:0.234592 33:-0.860155 34:0.886228 35:-0.780264 36:1 37:-0.734917 38:0.927716 39:-0.691951 40:0.864819 
0.3249982445850061 1:0.468759 2:-0.375756 3:0.487573 4:-0.410369 5:0.505298 6:-0.457856 7:0.52316 8:-0.517818 9:0.545526 10:-0.536668 11:0.573657 12:-0.543196 13:0.608696 14:-0.552012 15:0.542742 16:-0.563867 17:0.462022 18:-0.476756 19:0.327939 20:-0.425974 21:0.213806 22:-0.30451 23:0.151807 24:-0.215499 25:0.126026 26:-0.107123 27:0.188252 28:0.027115 29:0.131096 30:0.179619 31:-0.852393 32:0.871376 33:-0.772105 34:1 35:-0.726687 36:0.916504 37:-0.685527 38:0.84934 39:-0.646207 40:0.905449 
0.3289738688416543 1:0.510984 2:-0.477109 3:0.532986 4:-0.5203 5:0.554305 6:-0.576534 7:0.576302 8:-0.645818 9:0.603611 10:-0.669049 11:0.637782 12:-0.673712 13:0.680193 14:-0.679594 15:0.556904 16:-0.575159 17:0.398162 18:-0.514761 19:0.265112 20:-0.384416 21:0.188878 22:-0.28958 23:0.146024 24:-0.177347 25:0.236118 26:-0.0364672 27:0.278767 28:0.126898 29:-0.840716 30:0.86104 31:-0.759935 32:1 33:-0.717351 34:0.918931 35:-0.676501 36:0.840363 37:-0.639262 38:0.899695 39:-0.545455 40:0.709512 
0.3306247993964206 1:0.55321 2:-0.575007 3:0.578398 4:-0.626483 5:0.603311 6:-0.691167 7:0.629443 8:-0.769455 9:0.661695 10:-0.796916 11:0.701906 12:-0.799778 13:0.69372 14:-0.686843 15:0.490137 16:-0.610445 17:0.334301 18:-0.467255 19:0.240362 20:-0.364935 21:0.183126 22:-0.246034 23:0.255904 24:-0.099851 25:0.326895 26:0.0717949 27:-0.766972 28:0.848156 29:-0.738702 30:1 31:-0.699919 32:0.917174 33:-0.662597 34:0.840626 35:-0.626314 36:0.896604 37:-0.530478 38:0.692589 39:-0.502606 40:0.599392 
0.3312100552113211 1:0.596006 2:-0.667147 3:0.624425 4:-0.726421 5:0.65298 6:-0.799056 7:0.683303 8:-0.885818 9:0.720565 10:-0.917262 11:0.714905 12:-0.799778 13:0.630918 14:-0.715839 15:0.42438 16:-0.553987 17:0.310111 18:-0.440109 19:0.235602 20:-0.312987 21:0.293384 22:-0.158942 23:0.34747 24:0.0193741 25:-0.720908 26:0.835328 27:-0.656235 28:1 29:-0.671588 30:0.917653 31:-0.639092 32:0.83922 33:-0.607103 34:0.905113 35:-0.50763 36:0.680294 37:-0.483589 38:0.578883 39:-0.470759 40:0.462692 
0.3315524413534387 1:0.639372 2:-0.754103 3:0.671065 4:-0.820737 5:0.703311 6:-0.900877 7:0.737882 8:-0.995636 9:0.733124 10:-0.910493 11:0.659445 12:-0.822766 13:0.569082 14:-0.651323 15:0.400101 16:-0.519407 17:0.306241 18:-0.379708 19:0.346026 20:-0.216234 21:0.385427 22:-0.0289269 23:-0.697349 24:0.823547 25:-0.608885 26:1 27:-0.583052 28:0.918113 29:-0.603579 30:0.839938 31:-0.577453 32:0.911815 33:-0.476878 34:0.67895 35:-0.456087 36:0.563054 37:-0.448578 38:0.436345 39:-0.438332 40:0.337004 
0.3320048406658121 1:0.68331 2:-0.837029 3:0.718319 4:-0.910681 5:0.754305 6:-0.997977 7:0.75009 8:-0.984 9:0.683673 10:-0.928545 11:0.604853 12:-0.751576 13:0.54686 14:-0.610729 15:0.397066 16:-0.451658 17:0.419448 18:-0.273838 19:0.438363 20:-0.075974 21:-0.652924 22:0.814619 23:-0.584578 24:1 25:-0.534524 26:0.917949 27:-0.508907 28:0.840022 29:-0.534676 30:0.920226 31:-0.433901 32:0.676005 33:-0.419904 34:0.557347 35:-0.41743 36:0.414233 37:-0.412942 38:0.304772 39:-0.405327 40:0.229163 
0.3323440123298892 1:0.727817 2:-0.918802 3:0.766186 4:-0.999375 5:0.766225 6:-0.98584 7:0.705566 8:-1 9:0.635008 10:-0.854833 11:0.585789 12:-0.708565 13:0.544928 14:-0.539688 15:0.516439 16:-0.340155 17:0.514272 18:-0.125891 19:-0.591623 20:0.805844 21:-0.539789 22:1 23:-0.509398 24:0.91535 25:-0.459198 26:0.837037 27:-0.433799 28:0.925705 29:-0.375391 30:0.672156 31:-0.370641 32:0.548356 33:-0.376989 34:0.399816 35:-0.378094 36:0.27493 37:-0.37668 38:0.190254 39:-0.371743 40:0.160053 
0.332992671452203 1:0.772325 2:-1 3:0.777232 4:-0.987508 5:0.725166 6:-1 7:0.661041 8:-0.928 9:0.617739 10:-0.810455 11:0.584055 12:-0.63515 13:0.658937 14:-0.424429 15:0.615579 16:-0.185603 17:-0.532656 18:0.796403 19:-0.479296 20:1 21:-0.465005 22:0.912286 23:-0.434217 24:0.831297 25:-0.383873 26:0.927635 27:-0.262398 28:0.664859 29:-0.305593 30:0.537828 31:-0.323601 32:0.382217 33:-0.334073 34:0.251958 35:-0.338759 36:0.153364 37:-0.340419 38:0.116751 39:-0.326578 40:0.0989178 
0.3330531717403533 1:0.782596 2:-0.988483 3:0.739184 4:-1 5:0.684106 6:-0.932569 7:0.645242 8:-0.884364 9:0.61617 10:-0.735239 11:0.686308 12:-0.5165 13:0.753623 14:-0.264951 15:-0.479009 16:0.774171 17:-0.418481 18:1 19:-0.405045 20:0.909091 21:-0.390221 22:0.825194 23:-0.359036 24:0.926677 25:-0.211975 26:0.654131 27:-0.187289 28:0.523861 29:-0.253691 30:0.362841 31:-0.276561 32:0.226309 33:-0.291158 34:0.122985 35:-0.299424 36:0.0754921 37:-0.291654 38:0.0517766 39:-0.281413 40:0.0381621 
0.3328671880000022 1:0.746077 2:-0.990786 3:0.699908 4:-0.927545 5:0.668212 6:-0.881322 7:0.64237 8:-0.8 9:0.707221 10:-0.602858 11:0.769497 12:-0.341491 13:-0.29372 14:0.732512 15:-0.361659 16:0.997177 17:-0.344944 18:0.915847 19:-0.332699 20:0.828571 21:-0.317354 22:0.934681 23:-0.189398 24:0.650075 25:-0.13858 26:0.5151 27:-0.133365 28:0.348156 29:-0.203579 30:0.206382 31:-0.231144 32:0.0976857 33:-0.249723 34:0.0474436 35:-0.247881 36:0.0131949 37:-0.244139 38:-0.00670051 39:-0.248987 40:-0.0696791 
0.3325489951500054 1:0.706134 2:-0.916499 3:0.681497 4:-0.871955 5:0.661589 6:-0.794336 7:0.721364 8:-0.662545 9:0.777865 10:-0.41557 11:-0.175043 12:0.688543 13:-0.18744 14:0.971004 15:-0.290845 16:0.918843 17:-0.277213 18:0.840516 19:-0.266064 20:0.951299 21:-0.154362 22:0.654121 23:-0.121928 24:0.51237 25:-0.0902945 26:0.337892 27:-0.0852191 28:0.190347 29:-0.158837 30:0.0772002 31:-0.190592 32:0.0241169 33:-0.197928 34:-0.0128973 35:-0.200407 36:-0.0434783 37:-0.212879 38:-0.116751 39:-0.220035 40:-0.16499 
0.3319545332746421 1:0.684451 2:-0.85776 3:0.670451 4:-0.78326 5:0.729139 6:-0.658125 7:0.780251 8:-0.472 9:-0.0839874 10:0.638962 11:-0.0866551 12:0.942158 13:-0.127536 14:0.899964 15:-0.228123 16:0.849682 17:-0.217223 18:0.977604 19:-0.111851 20:0.666883 21:-0.0949185 22:0.518507 23:-0.0814458 24:0.334724 25:-0.0497344 26:0.179487 27:-0.0447761 28:0.0612798 29:-0.121253 30:0.00617602 31:-0.140308 32:-0.0333739 33:-0.152053 34:-0.0672501 35:-0.171923 36:-0.155094 37:-0.186621 38:-0.213401 39:-0.172554 40:-0.209797 
0.3313875678840806 1:0.671327 2:-0.769652 3:0.729979 4:-0.650219 5:0.780132 6:-0.474039 7:-0.0118492 8:0.555636 9:-0.00784929 10:0.904475 11:-0.0372617 12:0.877642 13:-0.0724638 14:0.836897 15:-0.17046 16:1 17:-0.065312 18:0.687818 19:-0.0575916 20:0.532468 21:-0.0594439 22:0.339969 23:-0.0457831 24:0.175559 25:-0.0140029 26:0.0501425 27:-0.00914781 28:-0.00759219 29:-0.0702461 30:-0.0488935 31:-0.0940795 32:-0.0855055 33:-0.124676 34:-0.181023 35:-0.146829 36:-0.253299 37:-0.138481 38:-0.256853 39:-0.139548 40:-0.250427 
0.3271918280721441 1:0.724394 2:-0.640081 3:0.774778 4:-0.472205 5:0.0470199 6:0.486851 7:0.0549372 8:0.821091 9:0.033752 10:0.848063 11:0.00866551 12:0.822024 13:-0.021256 14:1 15:-0.0156803 16:0.707128 17:-0.01403 18:0.55548 19:-0.026178 20:0.353896 21:-0.0278044 22:0.181337 23:-0.0139759 24:0.047392 25:0.0178658 26:-0.0153846 27:0.0418873 28:-0.0591106 29:-0.0228188 30:-0.0977869 31:-0.0673155 32:-0.2 33:-0.100259 34:-0.280055 35:-0.0973211 36:-0.294398 37:-0.105345 38:-0.295431 39:-0.108859 40:-0.278906 
0.3504137131866668 1:0.76719 2:-0.467319 3:0.0966554 4:0.427233 5:0.109934 6:0.743088 7:0.0944345 8:0.777455 9:0.0769231 10:0.802933 11:0.0563258 12:1 13:0.128502 14:0.71004 15:0.0399595 16:0.580099 17:0.0198355 18:0.37903 19:0.00713946 20:0.198052 21:0.00575264 22:0.0569207 23:0.019759 24:-0.0122206 25:0.0709802 26:-0.0609687 27:0.0948483 28:-0.102495 29:0.00850112 30:-0.211014 31:-0.0389294 32:-0.297442 33:-0.0447651 34:-0.316905 35:-0.0600203 36:-0.329007 37:-0.0709597 38:-0.319797 39:-0.0770122 40:-0.30169 
0.6079474446897779 1:0.137803 2:0.374604 3:0.156183 4:0.678326 5:0.147682 6:0.717465 7:0.135368 8:0.749818 9:0.121664 10:1 11:0.192374 12:0.719689 13:0.183575 14:0.595506 15:0.07739 16:0.412138 17:0.0556362 18:0.231082 19:0.0423608 20:0.0824675 21:0.0412272 22:0.00839813 23:0.0746988 24:-0.0467958 25:0.126026 26:-0.0940171 27:0.130477 28:-0.20987 29:0.0416107 30:-0.302625 31:0.0235199 32:-0.3257 33:-0.00258972 34:-0.34362 35:-0.0213632 36:-0.345447 37:-0.0353235 38:-0.335228 39:-0.0555877 40:-0.346497 
0.1717519095157856 1:0.163481 2:1 3:0.22062 4:0.869457 5:0.217219 6:0.842886 7:0.196409 8:0.739636 9:0.172684 10:0.628432 11:0.144714 12:0.501669 13:0.111111 14:0.440377 15:0.0217501 16:0.388144 17:0.0217707 18:0.316593 19:0.00904331 20:0.151299 21:0.00767018 22:0.0121306 23:0.060241 24:-0.0432191 25:0.11154 26:-0.0905983 27:0.135291 28:-0.119848 29:0.0639821 30:-0.145136 31:0.0113544 32:-0.205847 33:-0.0284869 34:-0.285583 35:-0.058664 36:-0.368808 37:-0.0697093 38:-0.527716 39:-0.029531 40:-0.761914 
0.2361432275423535 1:0.217689 2:0.904981 3:0.217551 4:0.90381 5:0.200662 6:0.826028 7:0.178456 8:0.736 9:0.153061 10:0.654757 11:0.12305 12:0.60178 13:0.10628 14:0.552736 15:0.016692 16:0.49753 17:-0.00241896 18:0.326773 19:-0.0147549 20:0.174026 21:0.0220518 22:0.108554 23:0.0554217 24:0.0491803 25:0.106712 26:0.00911681 27:0.130477 28:-0.0249458 29:0.0416107 30:-0.0962429 31:-0.00892133 32:-0.188794 33:-0.0469848 34:-0.287886 35:-0.0620549 36:-0.4748 37:-0.0228196 38:-0.740914 39:0.0138969 40:-0.915702 
0.07111668190541337 1:0.217689 2:0.938382 3:0.205278 4:0.890069 5:0.187417 6:0.82468 7:0.164093 8:0.763636 9:0.137363 10:0.758556 11:0.12305 12:0.718947 13:0.10628 14:0.667271 15:-0.00354072 16:0.510233 17:-0.0217707 18:0.352562 19:0.00428367 20:0.276623 21:0.0220518 22:0.206843 23:0.0554217 24:0.155291 25:0.106712 26:0.110541 27:0.111218 28:0.0281996 29:0.0237136 30:-0.0766855 31:-0.0251419 32:-0.189769 33:-0.0469848 34:-0.399355 35:-0.00779925 36:-0.700627 37:0.027196 38:-0.904162 39:0.0138969 40:-1 
0.1769432845278788 1:0.206277 2:0.91765 3:0.193004 4:0.880075 5:0.174172 6:0.840863 7:0.149731 8:0.853818 9:0.137363 10:0.866867 11:0.12305 12:0.825732 13:0.0869565 14:0.67017 15:-0.0237734 16:0.52717 17:-0.00241896 18:0.450288 19:0.00428367 20:0.37013 21:0.0220518 22:0.308865 23:0.0554217 24:0.253055 25:0.0873974 26:0.158405 27:0.0919596 28:0.0412148 29:0.00581655 30:-0.0849202 31:-0.0251419 32:-0.314495 33:0.0122087 34:-0.646246 35:0.0464564 36:-0.880597 37:0.027196 38:-1 39:0.0138969 40:-0.87697 
0.1747165064642392 1:0.194294 2:0.885402 3:0.180117 4:0.870081 5:0.160265 6:0.897505 7:0.149013 8:0.929455 9:0.136578 10:0.945092 11:0.104853 12:0.799036 13:0.0666667 14:0.658572 15:-0.00455235 16:0.600565 17:-0.00338655 18:0.520869 19:0.00333175 20:0.450649 21:0.021093 22:0.386003 23:0.0351807 24:0.279285 25:0.0671173 26:0.149288 27:0.0717381 28:0.010846 29:0.0049217 30:-0.237262 31:0.0389294 32:-0.595128 33:0.0706622 34:-0.856287 35:0.0457782 36:-1 37:0.0265708 38:-0.88467 39:0.0133179 40:-0.602051 
0.21061051470382 1:0.184023 2:0.855456 3:0.16907 4:0.900062 5:0.161589 6:0.943358 7:0.150449 8:0.978909 9:0.122449 10:0.890936 11:0.0892548 12:0.760475 13:0.0879227 14:0.707865 15:-0.00252908 16:0.648553 17:-0.00145138 18:0.58059 19:0.0052356 20:0.507792 21:0.00383509 22:0.39098 23:0.0178313 24:0.248286 25:0.0497344 26:0.0968661 27:0.0736639 28:-0.169197 29:0.0782998 30:-0.552239 31:0.105434 32:-0.834836 33:0.0721421 34:-1 35:0.0471346 36:-0.89271 37:0.0278212 38:-0.605279 39:-0.0318471 40:-0.363585 
0.2251904256653289 1:0.175464 2:0.86755 3:0.172139 4:0.925671 5:0.164901 6:0.971005 7:0.139677 8:0.906909 9:0.110675 10:0.831516 11:0.110919 12:0.790879 13:0.0927536 14:0.737586 15:0.00252908 16:0.691602 17:0.00338655 18:0.621988 19:-0.00904331 20:0.495455 21:-0.0105465 22:0.341835 23:0.00337349 24:0.177347 25:0.054563 26:-0.107692 27:0.155513 28:-0.515727 29:0.154362 30:-0.819352 31:0.109489 32:-1 33:0.0758417 34:-0.898204 35:0.0505256 36:-0.606749 37:-0.0190685 38:-0.361218 39:-0.075275 40:-0.188532 
0.2390233287463174 1:0.178317 2:0.88425 3:0.175207 4:0.943785 5:0.154967 6:0.896156 7:0.128905 8:0.840727 9:0.130298 10:0.853328 11:0.115251 12:0.812384 13:0.0975845 14:0.773106 15:0.00758725 16:0.726182 17:-0.0111272 18:0.60095 19:-0.0233222 20:0.436364 21:-0.0249281 22:0.260342 23:0.00819277 24:-0.0438152 25:0.136649 26:-0.478632 27:0.237362 28:-0.803688 29:0.158837 30:-1 31:0.113544 32:-0.898173 33:0.0795413 34:-0.599263 35:-0.000339098 36:-0.351936 37:-0.0659581 38:-0.178883 39:-0.0839606 40:-0.0939814 
0.2640351450597698 1:0.18117 2:0.894616 3:0.166002 4:0.867583 5:0.145033 6:0.827377 7:0.146858 8:0.853818 9:0.134223 10:0.866867 11:0.119584 12:0.840564 13:0.102415 14:0.800652 15:-0.00758725 16:0.696542 17:-0.025641 18:0.531727 19:-0.0376011 20:0.344156 21:-0.0201342 22:0.0227061 23:0.0901205 24:-0.43845 25:0.218735 26:-0.787464 27:0.242176 28:-1 29:0.163311 30:-0.898096 31:0.117599 32:-0.587333 33:0.0240474 34:-0.333026 35:-0.0512038 36:-0.162449 37:-0.075336 38:-0.0822335 39:-0.0810654 40:-0.00360737 
0.2868935246309339 1:0.173181 2:0.818025 3:0.15741 4:0.797002 5:0.162252 6:0.832097 7:0.151167 8:0.858909 9:0.138932 10:0.887176 11:0.124783 12:0.860586 13:0.0888889 14:0.762233 15:-0.0217501 16:0.616796 17:-0.0391872 18:0.427893 19:-0.0318896 20:0.088961 21:0.0623202 22:-0.395956 23:0.173012 24:-0.768107 25:0.224529 26:-1 27:0.247954 28:-0.89859 29:0.16868 30:-0.575399 31:0.0575831 32:-0.311084 33:-0.0307066 34:-0.136343 35:-0.0606985 36:-0.064244 37:-0.0715849 38:0.00994924 39:-0.089172 40:0.0825897 
0.2886033583822664 1:0.165193 2:0.743737 3:0.173366 4:0.79138 5:0.166225 6:0.826028 7:0.155476 8:0.866909 9:0.143642 10:0.895449 11:0.112652 12:0.809418 13:0.0753623 14:0.668721 15:-0.035913 16:0.49753 17:-0.0333817 18:0.150322 19:0.0499762 20:-0.358442 21:0.144775 22:-0.749922 23:0.178795 24:-1 25:0.230324 26:-0.902564 27:0.253731 28:-0.567245 29:0.102461 30:-0.291817 31:-0.00243309 32:-0.11084 33:-0.0410655 34:-0.0391525 35:-0.0566294 36:0.0270387 37:-0.0803376 38:0.0956345 39:-0.0972785 40:0.147522 
0.2961108886331665 1:0.180599 2:0.731068 3:0.177662 4:0.777639 5:0.170861 6:0.82468 7:0.160503 8:0.865455 9:0.133438 10:0.833772 11:0.101386 12:0.704116 13:0.0628019 14:0.536789 15:-0.0288316 16:0.199718 17:0.0507983 18:-0.326094 19:0.132794 20:-0.736364 21:0.151486 22:-1 23:0.185542 24:-0.905812 25:0.237084 26:-0.561823 27:0.183438 28:-0.275488 29:0.0371365 30:-0.0869789 31:-0.0129765 32:-0.0143727 33:-0.0358861 34:0.0520497 35:-0.0654459 36:0.112697 37:-0.0884651 38:0.159797 39:-0.116387 40:0.19233 
0.3015520920090052 1:0.186305 2:0.716096 3:0.183799 4:0.773891 5:0.177483 6:0.820634 7:0.153321 8:0.802909 9:0.125589 10:0.723956 11:0.092721 12:0.566185 13:0.0724638 14:0.227981 15:0.0622155 16:-0.298518 17:0.137881 18:-0.723787 19:0.142313 20:-1 21:0.161074 22:-0.904199 23:0.195181 24:-0.551714 25:0.169483 26:-0.25755 27:0.116033 28:-0.0618221 29:0.0281879 30:0.0128667 31:-0.00486618 32:0.0801462 33:-0.0432852 34:0.141409 35:-0.0722279 36:0.179321 37:-0.107221 38:0.206091 39:-0.133758 40:0.212835 
0.3039058465569833 1:0.193153 2:0.712064 3:0.191163 4:0.769519 5:0.172185 6:0.761969 7:0.147576 8:0.696 9:0.119309 10:0.583302 11:0.10312 12:0.249537 13:0.161353 14:-0.284523 15:0.155286 16:-0.712773 17:0.149492 18:-1 19:0.153736 20:-0.900649 21:0.172579 22:-0.535303 23:0.129639 24:-0.233979 25:0.103815 26:-0.0336182 27:0.108329 28:0.0428416 29:0.0389262 30:0.112198 31:-0.0113544 32:0.174178 33:-0.0492046 34:0.211884 35:-0.0912174 36:0.228207 37:-0.124726 38:0.227614 39:-0.149971 40:0.210177 
0.3074432048765483 1:0.201141 2:0.708033 3:0.187481 4:0.715178 5:0.168212 6:0.662846 7:0.143268 8:0.56 9:0.130298 10:0.262129 11:0.184575 12:-0.27475 13:0.252174 14:-0.71004 15:0.169449 16:-1 17:0.163038 18:-0.896166 19:0.167063 20:-0.515584 21:0.1093 22:-0.203733 23:0.0660241 24:0.000298063 25:0.0980203 26:0.0763533 27:0.12181 28:0.147505 29:0.033557 30:0.211529 31:-0.0162206 32:0.248721 33:-0.0684425 34:0.263934 35:-0.10885 36:0.251136 37:-0.140982 38:0.224772 39:-0.165026 40:0.207519 
0.3086400677089744 1:0.196576 2:0.661964 3:0.182571 4:0.627733 5:0.162914 6:0.54147 7:0.151885 8:0.254545 9:0.202512 10:-0.264385 11:0.264298 12:-0.704857 13:0.263768 14:-1 15:0.181588 16:-0.887085 17:0.174649 18:-0.488972 19:0.102332 20:-0.164935 21:0.0441035 22:0.0451011 23:0.0583133 24:0.119523 25:0.109609 26:0.190313 27:0.114107 28:0.255965 29:0.0263982 30:0.293875 31:-0.0389294 32:0.307186 33:-0.0891602 34:0.291571 35:-0.12784 36:0.251136 37:-0.158487 38:0.224772 39:-0.134916 40:0.154357 
0.307557882800458 1:0.19087 2:0.582494 3:0.176434 4:0.516552 5:0.169536 6:0.259609 7:0.216517 8:-0.253091 9:0.273155 10:-0.699135 11:0.272964 12:-1 13:0.27343 14:-0.882566 15:0.191705 16:-0.462244 17:0.106918 18:-0.12114 19:0.0356973 20:0.0961039 21:0.0345158 22:0.170762 23:0.0679518 24:0.23994 25:0.0999517 26:0.305413 27:0.104478 28:0.343818 29:-0.000447427 30:0.356665 31:-0.0632603 32:0.337393 33:-0.111358 34:0.292492 35:-0.148186 36:0.252001 37:-0.127227 38:0.168731 39:-0.117545 40:0.10955 
0.3033867782511069 1:0.184593 2:0.478837 3:0.181958 4:0.254216 5:0.228477 6:-0.212407 7:0.280431 8:-0.674909 9:0.28022 10:-1 11:0.280763 12:-0.88135 13:0.282126 14:-0.447626 15:0.119879 16:-0.0811574 17:0.0382196 18:0.150322 19:0.0252261 20:0.225974 21:0.0431448 22:0.295179 23:0.0573494 24:0.359165 25:0.0893288 26:0.396581 27:0.0746269 28:0.408894 29:-0.0281879 30:0.387545 31:-0.0884023 32:0.337393 33:-0.134295 34:0.292492 35:-0.114954 36:0.191434 37:-0.109097 38:0.12 39:-0.112334 40:0.0715777 
0.2964474652049566 1:0.187447 2:0.234667 3:0.234121 4:-0.185509 5:0.284768 6:-0.606204 7:0.284022 8:-0.968727 9:0.284144 10:-0.882663 11:0.285095 12:-0.439377 13:0.209662 14:-0.0590794 15:0.0440061 16:0.198306 17:0.0237059 18:0.283339 19:0.0299857 20:0.353247 21:0.0287632 22:0.417107 23:0.0428916 24:0.452161 25:0.0555287 26:0.462678 27:0.0409244 28:0.439262 29:-0.0595078 30:0.385486 31:-0.116788 32:0.335445 33:-0.100999 34:0.226163 35:-0.0979993 36:0.137789 37:-0.105971 38:0.0777665 39:-0.074696 40:0.0320866 
0.2748380369023175 1:0.234237 2:-0.181111 3:0.284443 4:-0.561524 5:0.286093 6:-0.890762 7:0.285458 8:-0.868364 9:0.285714 10:-0.447913 11:0.217504 12:-0.0552466 13:0.1343 14:0.214933 15:0.0257967 16:0.323924 17:0.025641 18:0.40414 19:0.012851 20:0.468831 21:0.0115053 22:0.502955 23:0.00626506 24:0.510581 25:0.0188315 26:0.48433 27:0.00433317 28:0.427332 29:-0.0935123 30:0.374164 31:-0.0827251 32:0.256516 33:-0.0847207 34:0.160755 35:-0.0966429 36:0.0850097 37:-0.0672085 38:0.0282234 39:-0.0387956 40:0.000949307 
0.2345781078826296 1:0.281027 2:-0.546214 3:0.28567 4:-0.845097 5:0.287417 6:-0.819285 7:0.286894 8:-0.471273 9:0.22449 10:-0.0823618 11:0.149913 12:0.201335 13:0.116908 14:0.320768 15:0.0278199 16:0.426958 17:0.00822448 18:0.503224 19:-0.00428367 20:0.537662 21:-0.0249281 22:0.544012 23:-0.0303614 24:0.514158 25:-0.0178658 26:0.453561 27:-0.0322581 28:0.398048 29:-0.0559284 30:0.274318 31:-0.0648824 32:0.171742 33:-0.0832408 34:0.0898204 35:-0.0545948 36:0.0183863 37:-0.0284464 38:-0.0180711 39:0.00868558 40:-0.0423391 
0.1996810825931089 1:0.282168 2:-0.824359 3:0.286898 4:-0.797002 5:0.288742 6:-0.470668 7:0.23088 8:-0.138909 9:0.163265 10:0.156074 11:0.134315 12:0.288098 13:0.118841 14:0.405582 15:0.00961052 16:0.509527 17:-0.00919207 18:0.55548 19:-0.0404569 20:0.561688 21:-0.0613615 22:0.529705 23:-0.066988 24:0.46468 25:-0.054563 26:0.406268 27:0.00818488 28:0.277115 29:-0.0362416 30:0.16984 31:-0.0632603 32:0.0825822 33:-0.0373659 34:0.00552741 35:-0.0125466 36:-0.0434783 37:0.0228196 38:-0.0761421 39:0.0561668 40:-0.0738561 
0.1745493860238338 1:0.284451 2:-0.790383 3:0.289353 4:-0.485322 5:0.238411 6:-0.174646 7:0.176302 8:0.0785455 9:0.150706 10:0.230538 11:0.137782 12:0.361513 13:0.103382 14:0.477347 15:-0.00657562 16:0.551164 17:-0.0440252 18:0.568375 19:-0.0747263 20:0.535065 21:-0.0958773 22:0.466874 23:-0.101687 24:0.404471 25:-0.0120715 26:0.268946 27:0.0312951 28:0.157267 29:-0.0326622 30:0.0663922 31:-0.0113544 32:-0.0153471 33:0.0099889 34:-0.068632 35:0.0444218 36:-0.11313 37:0.075336 38:-0.117157 39:0.0353214 40:-0.127397 
1.78601502094158 1:0.248502 2:-0.223726 3:0.201596 4:0.00437227 5:0.183444 6:0.124747 7:0.174147 8:0.256 9:0.148352 10:0.414065 11:0.117851 12:0.512792 13:0.0618357 14:0.567235 15:-0.0703085 16:0.568102 17:-0.104983 18:0.503224 19:-0.134698 20:0.433766 21:-0.0795781 22:0.282737 23:-0.0274699 24:0.156483 25:0.0236601 26:0.0547009 27:0.105441 28:-0.0357918 29:0.0899329 30:-0.0962429 31:0.115977 32:-0.149817 33:0.140954 34:-0.168125 35:0.083079 36:-0.197923 37:0.0234448 38:-0.204873 39:-0.0243196 40:-0.179039 
1.969333262429992 1:0.207989 2:-0.0164123 3:0.194845 4:0.10431 5:0.189404 6:0.232637 7:0.166248 8:0.372364 9:0.139717 10:0.504325 11:0.0909879 12:0.572117 13:0.0318841 14:0.581733 15:-0.101669 16:0.539873 17:-0.134978 18:0.476077 19:-0.0880533 20:0.316883 21:-0.0517737 22:0.183204 23:-0.0187952 24:0.0730253 25:0.0902945 26:-0.0250712 27:0.171883 28:-0.0900217 29:0.169575 30:-0.14771 31:0.188159 32:-0.169306 33:0.118017 34:-0.204975 35:0.048491 36:-0.223881 37:-0.00844014 38:-0.204873 39:-0.0538506 40:-0.171445 
2.062380718860895 1:0.200571 2:0.0855168 3:0.199141 4:0.214866 5:0.180795 6:0.351989 7:0.156912 8:0.472 9:0.113815 10:0.577285 11:0.0623917 12:0.599555 14:0.56506 15:-0.135053 16:0.523641 17:-0.0895017 18:0.365456 19:-0.0623513 20:0.224026 21:-0.0450623 22:0.106687 23:0.0457831 24:-0.000298063 25:0.154998 26:-0.0723647 27:0.255657 28:-0.135033 29:0.247427 30:-0.159547 31:0.161395 32:-0.2 33:0.0788013 34:-0.224781 35:0.0125466 36:-0.216526 37:-0.0415755 38:-0.189848 39:-0.0729589 40:-0.157395 
0.4136809452304333 1:0.204565 2:0.193205 3:0.191163 4:0.331668 5:0.172185 6:0.451113 7:0.133214 8:0.549818 9:0.0879121 10:0.612636 11:0.0337955 12:0.589915 13:-0.0318841 14:0.555636 15:-0.0875063 16:0.415667 17:-0.0633769 18:0.275195 19:-0.0556878 20:0.150649 21:0.0191755 22:0.0363919 23:0.110361 24:-0.0438152 25:0.239015 26:-0.11396 27:0.339432 28:-0.142082 29:0.217897 30:-0.186824 31:0.11841 32:-0.216078 33:0.0395856 34:-0.212345 35:-0.0233978 36:-0.196193 37:-0.0622069 38:-0.170761 39:-0.0804864 40:-0.162331 
2.64276785191091 1:0.279315 2:0.280161 3:0.247008 4:0.28857 5:0.20596 6:0.323668 7:0.155476 8:0.368727 9:0.112245 10:0.425348 11:0.0779896 12:0.405265 13:0.0560386 14:0.375136 15:-0.0561457 16:0.338744 17:-0.0720851 18:0.28266 19:-0.0832937 20:0.222727 21:-0.104506 22:0.267185 23:-0.0139759 24:0.213115 25:0.0758088 26:0.0518519 27:0.157439 28:-0.103579 29:0.120358 30:-0.23263 31:0.0786699 32:-0.269184 33:0.0477248 34:-0.244127 35:0.0111902 36:-0.156825 37:0.00718975 38:-0.150051 39:-0.00463231 40:-0.142966 
1.922599838020829 1:0.24622 2:0.241002 3:0.211415 4:0.283573 5:0.16755 6:0.33176 7:0.128187 8:0.377455 9:0.0981162 10:0.389244 11:0.0797227 12:0.36967 13:0.0386473 14:0.340341 15:-0.0743551 16:0.304869 17:-0.0895017 18:0.250085 19:-0.119467 20:0.295455 21:-0.0450623 22:0.237325 23:0.026506 24:0.0652757 25:0.135683 26:-0.100855 27:0.197882 28:-0.238069 29:0.122148 30:-0.277921 31:0.080292 32:-0.253593 33:0.0344062 34:-0.164901 35:0.0261105 36:-0.168938 37:0.00844014 38:-0.169543 39:0.0544296 40:0.21853 
0.7991556625049255 1:0.211983 2:0.237547 3:0.174593 4:0.292317 5:0.14106 6:0.3412 7:0.113824 8:0.344 9:0.0981162 10:0.354645 11:0.0623917 12:0.335558 13:0.0193237 14:0.306995 15:-0.0945878 16:0.272406 17:-0.128205 18:0.327452 19:-0.0623513 20:0.265584 21:-0.00671141 22:0.0842924 23:0.0843373 24:-0.0932936 25:0.174312 26:-0.241026 27:0.197882 28:-0.284707 29:0.122148 30:-0.260422 31:0.0640714 32:-0.168819 33:0.0492046 34:-0.176877 35:0.0261105 36:-0.188838 37:0.0709597 38:0.217868 39:0.0428489 40:0.17828 
0.05463444399528224 1:0.176034 2:0.253671 3:0.148205 4:0.309806 5:0.125828 6:0.319622 7:0.11167 8:0.320727 9:0.0800628 10:0.330575 11:0.042461 12:0.311828 13:-0.00289855 14:0.283798 15:-0.138088 16:0.362738 17:-0.0730527 18:0.305735 19:-0.0271299 20:0.114935 21:0.0479386 22:-0.0724728 23:0.12 24:-0.231595 25:0.171415 26:-0.282051 27:0.194993 28:-0.258677 29:0.101566 30:-0.163664 31:0.0778589 32:-0.174665 33:0.0469848 34:-0.191617 35:0.0918956 36:0.229937 37:0.0565802 38:0.180508 39:0.0411118 40:0.0749953 
1.278303174359223 1:0.150927 2:0.280161 3:0.133477 4:0.301062 5:0.123179 6:0.310182 7:0.0944345 8:0.310545 9:0.0612245 10:0.320045 11:0.0216638 12:0.301446 13:-0.0454106 14:0.389634 15:-0.0814365 16:0.352858 17:-0.0382196 18:0.160502 19:0.026178 20:-0.037013 21:0.0824545 22:-0.205599 23:0.116145 24:-0.263785 25:0.167552 26:-0.244444 27:0.171883 28:-0.146963 29:0.115884 30:-0.160576 31:0.0746148 32:-0.181486 33:0.118017 34:0.262552 35:0.0756189 36:0.197923 37:0.0540794 38:0.0773604 39:0.015634 40:-0.0442377 
2.284814748507889 1:0.137803 2:0.281313 3:0.131635 4:0.302311 5:0.107947 6:0.311531 7:0.0779174 8:0.312 9:0.0431711 10:0.321549 11:-0.0155979 12:0.42158 13:0.00966184 14:0.391084 15:-0.0440061 16:0.213126 17:0.0169328 18:0.0125551 19:0.0613993 20:-0.165584 21:0.0795781 22:-0.229238 23:0.113253 24:-0.214903 25:0.14534 26:-0.117949 27:0.188252 28:-0.135033 29:0.113199 30:-0.159547 31:0.153285 32:0.306699 33:0.100999 34:0.235836 35:0.0735843 36:0.09496 37:0.027196 38:-0.0436548 39:-0.0208454 40:-0.142206 
1.367526565835195 1:0.137233 2:0.289375 3:0.118748 4:0.311056 5:0.0940397 6:0.320971 7:0.0628366 8:0.322182 9:0.010989 10:0.452426 11:0.0355286 12:0.431961 13:0.047343 14:0.256252 15:0.0156803 16:0.0677488 17:0.0546686 18:-0.113675 19:0.0604474 20:-0.182468 21:0.0786194 22:-0.170762 23:0.093012 24:-0.0754098 25:0.163689 26:-0.0985755 27:0.187289 28:-0.12744 29:0.20179 30:0.362326 31:0.136253 32:0.284287 33:0.100259 34:0.131737 35:0.0457782 36:-0.0287692 37:-0.0109409 38:-0.143553 39:-0.0561668 40:-0.228024 
1.307453059890572 1:0.124679 2:0.303196 3:0.105247 4:0.326046 5:0.0794702 6:0.337154 7:0.032675 8:0.456 9:0.0565149 10:0.470478 11:0.0684575 12:0.301446 13:0.103382 14:0.114172 15:0.0541224 16:-0.0564573 17:0.0527334 18:-0.124533 19:0.0585436 20:-0.114935 21:0.0575264 22:-0.0189736 23:0.110361 24:-0.0491803 25:0.161758 26:-0.0849003 27:0.281656 28:0.427874 29:0.182103 30:0.343798 31:0.134631 32:0.17905 33:0.0691824 34:0.00460617 35:0.00373008 36:-0.130867 37:-0.049703 38:-0.231269 39:-0.0457441 40:-0.294855 
1.222001484232061 1:0.110984 2:0.318169 3:0.0905186 4:0.342286 5:0.0503311 6:0.462576 7:0.0728905 8:0.474909 9:0.0847724 10:0.339601 11:0.116984 12:0.157582 13:0.138164 14:-0.0119609 15:0.0500759 16:-0.0663373 17:0.0488631 18:-0.0525959 19:0.0356973 20:0.0448052 21:0.0728667 22:0.0096423 23:0.106506 24:-0.0336811 25:0.254466 26:0.499715 27:0.258546 28:0.409436 29:0.178523 30:0.233659 31:0.0989457 32:0.0455542 33:0.0218276 34:-0.103178 35:-0.0396745 36:-0.223448 37:-0.0396999 38:-0.301929 39:-0.0364794 40:-0.300171 
1.464803067157564 1:0.0955777 2:0.330262 3:0.0616754 4:0.45534 5:0.0854305 6:0.476736 7:0.0965889 8:0.344727 9:0.126374 10:0.189921 11:0.145581 12:0.0248424 13:0.131401 14:-0.025734 15:0.0429944 16:0.00494001 17:0.0227383 18:0.11096 19:0.0480723 20:0.0714286 21:0.0661553 22:0.0227061 23:0.196145 24:0.574963 25:0.228392 26:0.477493 27:0.251805 28:0.290672 29:0.136465 30:0.0900669 31:0.0446067 32:-0.0708892 33:-0.0277469 34:-0.204053 35:-0.0308579 36:-0.300887 37:-0.0315724 38:-0.309645 39:-0.0173712 40:-0.254224 
0.4081301604365208 1:0.0659058 2:0.413763 3:0.0543111 4:0.433479 5:0.0245033 6:0.426163 7:-0.0125673 8:0.406545 9:-0.0400314 10:0.389244 11:-0.0727903 12:0.340007 13:-0.07343 14:0.296847 15:-0.131007 16:0.248412 17:-0.00822448 18:0.127927 19:0.322228 20:0.0227273 21:0.361457 22:0.000933126 23:0.724337 24:-0.00625931 25:0.91212 26:-0.00968661 27:0.818007 28:-0.0319957 29:0.429978 30:-0.0617602 31:0.0835361 32:-0.0684531 33:0.0669626 34:-0.118839 35:-0.188199 36:-0.142981 37:-0.401688 38:-0.153299 39:-0.557035 40:-0.153598 
0.06465626054805358 1:0.0881598 2:0.410884 3:0.0659712 4:0.417864 5:0.0370861 6:0.409305 7:0.0154399 8:0.388364 9:-0.00941915 10:0.37044 11:-0.00433276 12:0.3363 13:0.00289855 14:0.293222 15:0.0298432 16:0.188426 17:0.358491 18:0.083814 19:0.378391 20:0.0584416 21:0.724832 22:0.0475894 23:0.896867 24:0.0384501 25:0.833897 26:0.0102564 27:0.566683 28:-0.0238612 29:0.160626 30:-0.0334534 31:0.131387 32:-0.0903776 33:-0.155753 34:-0.121142 35:-0.392336 36:-0.145144 37:-0.564864 38:-0.15533 39:-0.569195 40:-0.147902 
0.1406331326815884 1:0.0950071 2:0.39476 3:0.0733354 4:0.400375 5:0.0582781 6:0.390425 7:0.0384201 8:0.368 9:0.0470958 10:0.364423 11:0.0580589 12:0.330367 13:0.149758 14:0.229431 15:0.406171 16:0.140438 17:0.408805 18:0.119104 19:0.732508 20:0.105195 21:0.889741 22:0.0923795 23:0.812048 24:0.0575261 25:0.575085 26:0.017094 27:0.270101 28:0.00433839 29:0.207159 30:-0.0581575 31:-0.11841 32:-0.0942753 33:-0.383648 34:-0.124827 35:-0.574093 36:-0.148605 37:-0.582369 38:-0.150457 39:-0.4696 40:-0.128156 
0.1556739831788291 1:0.0904422 2:0.376332 3:0.0806996 4:0.380387 5:0.0662252 6:0.368847 7:0.075763 8:0.359273 9:0.0879121 10:0.355397 11:0.172444 12:0.262143 13:0.489855 14:0.177238 15:0.438543 16:0.174312 17:0.749395 18:0.165253 19:0.877201 20:0.149351 21:0.786194 22:0.109798 23:0.534458 24:0.0622951 25:0.258329 26:0.0444444 27:0.300915 28:-0.0238612 29:-0.0863535 30:-0.0643335 31:-0.384428 32:-0.100122 33:-0.596744 34:-0.130355 35:-0.606646 36:-0.145144 37:-0.48734 38:-0.130964 39:-0.242617 40:-0.10993 
0.1619004984937896 1:0.0858773 2:0.3556 3:0.0757901 4:0.357901 5:0.0874172 6:0.358058 7:0.0987433 8:0.347636 9:0.175824 10:0.283189 11:0.460139 12:0.205784 13:0.501449 14:0.209134 15:0.774406 16:0.219478 17:0.877117 18:0.208687 19:0.755355 20:0.164935 21:0.490892 22:0.112286 23:0.199036 24:0.0885246 25:0.269918 26:0.0125356 27:-0.0341839 28:-0.032538 29:-0.397763 30:-0.0725682 31:-0.634225 32:-0.107917 33:-0.647059 34:-0.128512 35:-0.517124 36:-0.126109 37:-0.254767 38:-0.113096 39:-0.0272148 40:-0.0932219 
0.1376481802165858 1:0.07903 2:0.331414 3:0.0929733 4:0.34416 5:0.10596 6:0.343223 7:0.176302 8:0.273455 9:0.433281 10:0.221512 11:0.467071 12:0.233964 13:0.818357 14:0.251178 15:0.903895 16:0.260409 17:0.749395 18:0.220903 19:0.458353 20:0.163636 21:0.153404 22:0.135925 23:0.206747 24:0.0515648 25:-0.0700145 27:-0.373134 28:-0.0444685 29:-0.676957 30:-0.0838909 31:-0.69262 32:-0.108892 33:-0.552349 34:-0.111009 35:-0.267548 36:-0.109669 37:-0.0246952 38:-0.097665 39:0.0121598 40:-0.0636036 
0.140430587241439 1:0.0841655 2:0.317017 3:0.0984965 4:0.328545 5:0.164901 6:0.272421 7:0.398205 8:0.211636 9:0.424647 10:0.247838 11:0.734835 12:0.27475 13:0.923671 14:0.291047 15:0.751138 16:0.270995 17:0.429124 18:0.217509 19:0.105188 20:0.186364 21:0.142857 22:0.0954899 23:-0.150843 24:0.0366617 25:-0.428296 26:-0.014245 27:-0.691863 28:-0.058026 29:-0.758389 30:-0.0864642 31:-0.604217 32:-0.0918392 33:-0.294118 34:-0.0948871 35:-0.0308579 36:-0.0945274 37:0.00593936 38:-0.0672081 39:0.214244 40:-0.0579077 
0.147224260576217 1:0.0807418 2:0.301468 3:0.143909 4:0.261711 5:0.359603 6:0.213756 7:0.379533 8:0.235636 9:0.655416 10:0.287702 11:0.816291 12:0.314053 13:0.763285 14:0.300471 15:0.401113 16:0.266055 17:0.0556362 18:0.239905 19:0.0804379 20:0.142857 21:-0.227229 22:0.0786936 23:-0.522892 24:0.0205663 25:-0.762434 26:-0.0296296 27:-0.793934 28:-0.0618221 29:-0.674273 30:-0.0694802 31:-0.333333 32:-0.0757613 33:-0.0469848 34:-0.0796868 35:-0.00779925 36:-0.0629461 37:0.214755 38:-0.0619289 39:0.384482 40:-0.0529713 
0.1415488757022247 1:0.121826 2:0.239274 3:0.323105 4:0.206746 5:0.34106 6:0.235334 7:0.589228 8:0.273455 9:0.72763 10:0.326815 11:0.670711 12:0.322951 13:0.427053 14:0.294672 15:0.00859889 16:0.288638 17:0.0285438 18:0.193756 19:-0.28891 20:0.124675 21:-0.599233 22:0.0612753 23:-0.858313 24:0.00387481 25:-0.866731 26:-0.034188 27:-0.705344 28:-0.0444685 29:-0.377181 30:-0.0530108 31:-0.0640714 32:-0.0601705 33:-0.0233074 34:-0.0465223 35:0.217362 36:-0.0577547 37:0.397312 38:-0.0570558 39:0.403011 40:-0.0560091 
0.1402129192633506 1:0.29301 2:0.186294 3:0.310832 4:0.224235 5:0.539735 6:0.267701 7:0.661041 8:0.308364 9:0.602041 10:0.332832 11:0.376083 12:0.314053 13:0.0599034 14:0.314969 15:-0.0116338 16:0.237826 17:-0.339139 18:0.172039 19:-0.650643 20:0.103896 21:-0.925216 22:0.0413686 23:-0.954699 24:-0.00327869 25:-0.770159 26:-0.0182336 27:-0.377949 28:-0.0292842 29:-0.0729306 30:-0.0386001 31:-0.0316302 32:-0.0270402 33:0.228265 34:-0.0428374 35:0.420821 36:-0.0542937 37:0.422319 38:-0.0619289 39:0.356688 40:-0.0681602 
0.1339959912475452 1:0.298146 2:0.200115 3:0.512734 4:0.251718 5:0.625166 6:0.29737 7:0.566966 8:0.311273 9:0.357928 10:0.320797 11:0.0719237 12:0.33185 13:0.068599 14:0.259877 15:-0.366717 16:0.212421 17:-0.678761 18:0.147608 19:-0.946692 20:0.0805195 21:-0.993289 22:0.0314152 23:-0.830361 24:0.0110283 25:-0.41381 26:-0.0045584 27:-0.0226288 28:-0.016269 29:-0.0111857 30:-0.00566135 31:0.26764 32:-0.0250914 33:0.471698 34:-0.0409949 35:0.467616 36:-0.0612157 37:0.390435 38:-0.0765482 39:0.211349 40:-0.0742358 
0.121284370736864 1:0.495578 2:0.226605 3:0.602332 4:0.28045 5:0.549669 6:0.301416 7:0.355835 8:0.301091 9:0.0957614 10:0.340354 11:0.0944541 12:0.276974 13:-0.254106 14:0.23523 15:-0.704603 16:0.188426 17:-0.963232 18:0.124533 19:-0.998096 20:0.0714286 21:-0.853308 22:0.0475894 23:-0.458313 24:0.0265276 25:-0.041043 26:0.0102564 27:0.060183 28:0.0195228 29:0.334228 30:-0.00257334 31:0.548256 32:-0.0221681 33:0.535331 34:-0.0474436 35:0.444557 36:-0.0759247 37:0.244139 38:-0.0822335 39:0.029531 40:-0.0795519 
0.1258151944399911 1:0.588017 2:0.255399 3:0.542191 4:0.286696 5:0.365563 6:0.294673 7:0.127469 8:0.322909 9:0.128728 10:0.287702 11:-0.181109 12:0.254727 13:-0.561353 14:0.213483 15:-0.985837 16:0.167255 17:-1 18:0.117747 19:-0.843884 20:0.0909091 21:-0.467881 22:0.0662519 23:-0.0708434 24:0.0444113 25:0.0574602 26:0.0501425 27:0.44728 28:0.0249458 29:0.658166 30:0.00257334 31:0.630981 32:-0.0270402 33:0.522013 34:-0.0612621 35:0.296711 36:-0.0802509 37:0.0578306 38:-0.0862944 39:0.0538506 40:-0.0909436 
0.1166813596942684 1:0.545792 2:0.262885 3:0.386315 4:0.282324 5:0.170861 6:0.316925 7:0.174865 8:0.274182 9:-0.102041 10:0.267394 11:-0.435875 12:0.234705 13:-0.806763 14:0.193911 15:-1 16:0.162315 17:-0.820029 18:0.140143 19:-0.438363 20:0.112338 21:-0.0594439 22:0.0867807 23:0.0506024 24:0.0879285 25:0.468856 26:0.0575499 27:0.81897 28:0.0319957 29:0.770917 30:-0.00102934 31:0.635848 32:-0.0401949 33:0.378468 34:-0.0644864 35:0.110885 36:-0.0832793 37:0.0990935 38:-0.0972589 39:-0.116387 40:-0.0936017 
0.1008836722090314 1:0.407133 2:0.260006 3:0.212642 4:0.304185 5:0.221854 6:0.273095 7:-0.0283662 8:0.256 9:-0.324176 10:0.24859 11:-0.646447 12:0.216166 13:-0.809662 14:0.190286 15:-0.800708 16:0.187015 17:-0.397194 18:0.163895 19:-0.0223703 20:0.135065 21:0.071908 22:0.133437 23:0.471807 24:0.0968703 25:0.852245 26:0.0660969 27:0.950891 28:0.0292842 29:0.78613 30:-0.013896 31:0.487429 32:-0.0426309 33:0.18387 34:-0.0667895 35:0.163106 36:-0.0940947 37:-0.0778368 38:-0.0992893 39:-0.280255 40:-0.103095 
0.09376006806422127 1:0.24679 2:0.280737 3:0.261123 4:0.26421 5:0.0357616 6:0.256912 7:-0.230162 8:0.238545 9:-0.513344 10:0.230538 11:-0.647314 12:0.2132 13:-0.617391 14:0.216383 15:-0.356601 16:0.212421 17:0.0275762 18:0.188327 19:0.109948 20:0.184416 21:0.492809 22:0.14339 23:0.856386 24:0.106408 25:0.98648 26:0.0638177 27:0.969186 28:0.016269 29:0.624161 30:-0.0159547 31:0.27575 32:-0.0445798 33:0.242323 34:-0.0778443 35:-0.0274669 36:-0.0958252 37:-0.253517 38:-0.109036 39:-0.442965 40:-0.112208 
0.1414235434140213 1:0.289016 2:0.246185 3:0.0856091 4:0.251718 5:-0.153642 6:0.243425 7:-0.406822 8:0.224 9:-0.518053 10:0.230538 11:-0.479203 12:0.242862 13:-0.198068 14:0.245379 15:0.0824482 16:0.240649 17:0.157233 18:0.24262 19:0.523084 20:0.197403 21:0.870566 22:0.155832 23:0.985542 24:0.106408 25:1 26:0.0524217 27:0.790082 28:0.016269 29:0.38613 30:-0.0159547 31:0.335766 32:-0.054324 33:0.0307066 34:-0.0778443 35:-0.221431 36:-0.104478 37:-0.432323 38:-0.117157 39:-0.550666 40:-0.127397 
0.1661983291658949 1:0.126391 2:0.232364 3:-0.0892912 4:0.236727 5:-0.315894 6:0.227242 7:-0.410413 8:0.221091 9:-0.364992 10:0.257616 11:-0.102253 12:0.269559 13:0.222222 14:0.271475 15:0.219019 16:0.294284 17:0.578133 18:0.253478 19:0.899096 20:0.207792 21:1 22:0.153344 23:1 24:0.0921013 25:0.821342 26:0.0501425 27:0.534906 28:0.0140998 29:0.453244 30:-0.0283067 31:0.104623 32:-0.0562728 33:-0.18017 34:-0.0888991 35:-0.414717 36:-0.11486 37:-0.547984 38:-0.135025 39:-0.518819 40:-0.121321 
0.1723862537950817 1:-0.0527817 2:0.216815 3:-0.257441 4:0.219863 5:-0.338411 6:0.222522 7:-0.291203 8:0.245091 9:-0.0463108 10:0.282437 11:0.249567 12:0.29403 13:0.324638 14:0.324393 15:0.629742 16:0.303458 17:0.932269 18:0.262301 19:1 20:0.203247 21:0.986577 22:0.136547 23:0.793735 24:0.0879285 25:0.537422 26:0.0461538 27:0.579201 28:-0.000542299 29:0.17226 30:-0.0319094 31:-0.150041 32:-0.0694275 33:-0.412505 34:-0.101336 35:-0.559851 36:-0.135194 37:-0.531729 38:-0.129746 39:-0.364794 40:-0.108791 
0.1772088412388329 1:-0.229672 2:0.198388 3:-0.300399 4:0.212367 5:-0.252318 6:0.241403 7:-0.0254937 8:0.265455 9:0.244113 10:0.303498 11:0.310225 12:0.344457 13:0.682126 14:0.330192 15:0.963581 16:0.309104 17:1 18:0.254157 19:0.952404 20:0.182468 21:0.746884 22:0.129082 23:0.475663 24:0.080775 25:0.547079 26:0.0279202 27:0.242176 28:-0.00704989 29:-0.14094 30:-0.0483788 31:-0.433901 32:-0.0850183 33:-0.597484 34:-0.125288 35:-0.566633 36:-0.131733 37:-0.387934 38:-0.118376 39:-0.15055 40:-0.0829694 
0.1883695175207615 1:-0.289016 2:0.189749 3:-0.241485 4:0.227983 5:-0.0298013 6:0.25826 7:0.215799 8:0.283636 9:0.27237 10:0.352388 11:0.601386 12:0.348165 13:0.968116 14:0.333817 15:1 16:0.298518 17:0.918723 18:0.230404 19:0.682056 20:0.172727 21:0.397891 22:0.119751 23:0.45253 24:0.0599106 25:0.176243 26:0.0193732 27:-0.127588 28:-0.0260304 29:-0.484564 30:-0.0663922 31:-0.664234 32:-0.111815 33:-0.630041 34:-0.122985 35:-0.433706 36:-0.120917 37:-0.177868 38:-0.0919797 39:0.0440069 40:-0.0734764 
0.1769659562982986 1:-0.236519 2:0.201843 3:-0.0377416 4:0.241099 5:0.190066 6:0.272421 7:0.238779 8:0.328 9:0.532967 10:0.35314 11:0.854419 12:0.348906 13:0.999034 14:0.320043 15:0.910976 16:0.270995 17:0.640058 18:0.217509 19:0.331747 20:0.16039 21:0.371045 22:0.0954899 23:0.0785542 24:0.0485842 25:-0.198455 26:-0.002849 27:-0.501204 28:-0.04718 29:-0.742282 30:-0.0967576 31:-0.703163 32:-0.111328 33:-0.487976 34:-0.113312 35:-0.208545 36:-0.0945274 37:0.0296968 38:-0.0834518 39:0.0277939 40:-0.0503133 
0.1633968018914418 1:-0.053923 2:0.215088 3:0.158638 4:0.255465 5:0.203311 6:0.314902 7:0.468582 8:0.330182 9:0.752747 10:0.355397 11:0.87175 12:0.3363 13:0.902415 14:0.293222 15:0.607486 16:0.258998 17:0.272375 18:0.205972 19:0.29367 20:0.136364 21:-0.012464 22:0.0849145 23:-0.306988 24:0.0265276 25:-0.584742 26:-0.0239316 27:-0.790082 28:-0.0780911 29:-0.795973 30:-0.0952136 31:-0.557178 32:-0.100122 33:-0.251202 34:-0.084293 35:0.00847745 36:-0.0845771 37:0.00468897 38:-0.057868 39:0.213086 40:-0.0567686 
0.1634786909962798 1:0.132668 2:0.228909 3:0.175207 4:0.29544 5:0.419868 6:0.317599 7:0.674686 8:0.333091 9:0.77394 10:0.343362 11:0.791161 12:0.309603 13:0.619324 14:0.281624 15:0.230147 16:0.247706 17:0.240445 18:0.181541 19:-0.0804379 20:0.125974 21:-0.389262 22:0.0625194 23:-0.685783 24:0.00506706 25:-0.867697 26:-0.0558405 27:-0.841117 28:-0.0759219 29:-0.628635 30:-0.0828616 31:-0.291971 32:-0.0689403 33:-0.00924898 34:-0.0732381 35:-0.013903 36:-0.0568895 37:0.209128 38:-0.0643655 39:0.321367 40:-0.0552497 
0.165698420660226 1:0.158916 2:0.26634 3:0.387542 4:0.298563 5:0.622517 6:0.320971 7:0.70772 8:0.322182 9:0.715856 10:0.317036 11:0.553726 12:0.29848 13:0.277295 14:0.27075 15:0.215984 16:0.223006 17:-0.121432 18:0.171361 19:-0.436459 20:0.103247 21:-0.747843 22:0.0407465 23:-0.94988 24:-0.0277198 25:-0.900531 26:-0.0529915 27:-0.642754 28:-0.0623644 29:-0.319016 30:-0.0494081 31:-0.0113544 32:-0.05676 33:-0.0196078 34:-0.043298 35:0.220753 36:-0.0633788 37:0.337918 38:-0.062335 39:0.301679 40:-0.0533511 
