svm_type c_svc
kernel_type rbf
gamma 4
nr_class 2
total_sv 828
rho -0.171769
label -1 1
nr_sv 450 378
SV
0.1468560510585748 1:0.156633 2:0.355198 3:0.151887 4:0.462196 5:0.129801 6:0.498634 7:0.101616 8:0.528587 9:0.0847724 10:0.522377 11:0.0649913 12:0.438402 13:0.0796964 14:0.259286 15:0.0703085 16:0.0981767 17:0.0101597 18:-0.0438005 19:0.0166587 20:-0.127179 21:0.0345158 22:-0.167594 23:0.0679518 24:-0.168 25:0.134745 26:-0.130558 27:0.152113 28:-0.0824798 29:0.106935 30:-0.109747 31:0.0665045 32:-0.133446 33:0.036626 34:0.0212961 35:0.0145812 36:-0.0027963 37:-0.00218818 38:-0.046042 39:-0.0133179 40:-0.0761095 
0.09176875281506811 1:0.154922 2:0.427818 3:0.137772 4:0.477381 5:0.11457 6:0.515027 7:0.0994614 8:0.502029 9:0.0824176 10:0.465212 11:0.114385 12:0.293378 13:0.133776 14:0.132348 15:0.00657562 16:0.00280505 17:0.00725689 18:-0.0815364 19:0.013803 20:-0.124597 21:0.0316395 22:-0.128015 23:0.0843373 24:-0.0945185 25:0.151107 26:-0.0489946 27:0.149296 28:-0.0803235 29:0.104251 30:-0.1077 31:0.0640714 32:0.0525551 33:0.0344062 34:0.023128 35:0.0125466 36:-0.0354915 37:-0.00406377 38:-0.0767367 39:-0.015055 40:-0.104816 
0.1231133778735607 1:0.189729 2:0.547877 3:0.175207 4:0.594432 5:0.207947 6:0.504781 7:0.15763 8:0.299152 9:0.145997 10:0.107935 11:0.132582 12:-0.0284869 13:0.0967742 14:-0.0659935 15:0.0278199 16:-0.0918654 17:0.0275762 18:-0.0916442 19:0.0337934 20:-0.082634 21:0.0517737 22:-0.124923 23:0.0853012 24:-0.162667 25:0.0365736 26:0.0218069 27:0.0751174 28:0.0625337 29:0.033557 30:0.0790483 32:0.0743521 33:-0.0240474 34:0.0437371 35:-0.0410309 36:0.0096795 37:-0.0159425 38:-0.0181745 39:0.00868558 40:-0.0349386 
0.2739512185705771 1:0.174322 2:0.55549 3:0.207732 4:0.488769 5:0.163576 6:0.308743 7:0.152603 8:0.102176 9:0.140502 10:-0.00263257 11:0.126516 12:-0.0336663 13:0.0901328 14:-0.0566174 15:0.0207385 16:-0.0406732 17:0.0208031 18:-0.0289757 19:0.0271299 20:-0.0742414 21:0.0450623 22:-0.116883 23:-0.0178313 24:0.0702222 25:0.0683349 26:0.108468 27:0.0685446 28:0.12345 29:0.0272931 30:0.116398 31:-0.00567721 32:0.0806491 33:-0.0292268 34:0.0405313 35:-0.00508647 36:-0.0019359 37:0.0171929 38:-0.0290792 39:0.0625362 40:-0.0451369 
0.01497103409298149 1:0.142939 2:0.118009 3:0.137159 4:0.0287884 5:0.127152 6:0.0034153 7:0.113106 8:-0.0210255 9:0.0973312 10:0.037232 11:0.0788562 12:0.0795413 13:0.0379507 14:0.0537324 15:-0.0349014 16:0.0245442 17:-0.129173 18:0.235849 19:-0.0823417 20:0.269852 21:-0.0651965 22:0.274583 23:-0.0322892 24:0.255704 25:0.0153994 26:0.206457 27:0.0169014 28:0.152022 29:0.0317673 30:0.092351 31:0.0470397 32:0.0385081 33:0.0928598 34:-0.00847264 35:0.133944 36:-0.0393633 37:0.157862 38:-0.0561389 39:0.262305 40:-0.0704438 
0.2579279134918162 1:0.12582 2:0.00732064 3:0.118748 4:-0.00221449 5:0.107285 6:-0.0163934 7:0.0915619 8:0.00184434 9:0.0737834 10:0.0755923 11:0.0528596 12:0.0580836 13:0.00948767 14:0.0328164 15:-0.166414 16:0.270687 17:-0.119497 18:0.310647 19:-0.1109 20:0.315688 21:-0.0939597 22:0.293754 23:-0.0612048 24:0.238519 25:-0.0134745 26:0.178703 27:0.0450704 28:0.114825 29:0.058613 30:0.0570478 31:0.103812 32:0.00508598 33:0.144654 34:-0.0309137 35:0.167854 36:-0.0604431 37:0.276649 38:-0.0840065 39:0.268095 40:-0.0209632 
0.1946896124777624 1:0.101854 2:-0.0272328 3:0.0929733 4:-0.0268902 5:0.0794702 6:-0.00204918 7:0.0614004 8:0.0320915 9:0.0408163 10:0.046258 11:0.0164645 12:0.0292268 13:-0.125237 14:0.278759 15:-0.168437 16:0.341515 17:-0.160135 18:0.351752 19:-0.150881 20:0.329245 21:-0.134228 22:0.269635 23:-0.101687 24:0.203556 25:0.00384986 26:0.133956 27:0.0619718 28:0.0722372 29:0.110515 30:0.0166283 31:0.150852 32:-0.0234924 33:0.172771 34:-0.0579345 35:0.288572 36:-0.0944289 37:0.275399 38:-0.0351373 39:0.382745 40:-0.0205855 
0.1811004168606647 1:0.0721826 2:-0.0512445 3:0.0610617 4:-0.0148687 5:0.0450331 6:0.0245902 7:0.0240575 8:0.00184434 10:0.0154193 11:-0.115251 12:0.280059 13:-0.136622 14:0.350162 15:-0.221042 16:0.382889 17:-0.21045 18:0.364555 19:-0.200381 20:0.302776 21:-0.184084 22:0.231911 23:-0.0939759 24:0.155556 25:0.0115496 26:0.088077 27:0.107042 28:0.0285714 29:0.153468 30:-0.0145817 31:0.17356 32:-0.0530395 33:0.297077 34:-0.0950309 35:0.280434 36:-0.0432351 37:0.392935 38:-0.0355412 39:0.468442 40:-0.0285175 
0.1457650450249177 1:0.0425107 2:-0.0407028 3:0.02915 4:0.00917431 5:0.010596 6:-0.00409836 7:-0.0132855 8:-0.0291405 9:-0.119309 10:0.26965 11:-0.12565 12:0.352571 13:-0.185958 14:0.391994 15:-0.273647 16:0.395512 17:-0.260764 18:0.336253 19:-0.249881 20:0.26275 21:-0.176414 22:0.1812 23:-0.0862651 24:0.106963 25:0.0577478 26:0.0416313 27:0.152113 28:-0.00485175 29:0.178523 30:-0.0463034 31:0.309813 32:-0.0927585 33:0.288198 34:-0.0409892 35:0.407935 36:-0.0440955 37:0.485464 38:-0.0444265 39:0.438332 40:-0.0368272 
0.2191445518411064 1:0.0122682 2:-0.0166911 3:-0.00337527 4:-0.0155014 5:-0.0245033 6:-0.0307377 7:-0.12316 8:0.222427 9:-0.129513 10:0.345619 11:-0.171577 12:0.397706 13:-0.236243 14:0.40714 15:-0.327264 16:0.368163 17:-0.312046 18:0.296496 19:-0.243218 20:0.21175 21:-0.169703 22:0.132344 23:-0.0409639 24:0.0601481 25:0.102984 26:0.00821297 27:0.177465 28:-0.0366577 29:0.327964 30:-0.0867229 31:0.29927 32:-0.0341487 33:0.426563 34:-0.0405313 35:0.50763 36:-0.0522693 37:0.452329 38:-0.0521002 39:0.419224 40:-0.0515581 
0.2553629063370858 1:-0.0179743 2:-0.0371889 3:-0.0359006 4:-0.0376463 5:-0.125828 6:0.204918 7:-0.132496 8:0.299889 9:-0.171115 10:0.394509 11:-0.217504 12:0.416204 13:-0.286528 14:0.381897 15:-0.38088 16:0.329593 17:-0.305273 18:0.245957 19:-0.236554 20:0.163331 21:-0.12464 22:0.0859617 23:0.00433735 24:0.0275556 25:0.12897 26:-0.0229397 27:0.334272 28:-0.0770889 29:0.316331 30:-0.022768 31:0.450933 32:-0.0317268 33:0.535331 34:-0.047401 35:0.471685 36:-0.0587223 37:0.431697 38:-0.0662359 39:0.388535 40:-0.0647781 
0.3753352332350257 1:-0.0487874 2:-0.0612006 3:-0.130408 4:0.176843 5:-0.135099 6:0.272541 7:-0.171275 8:0.343416 9:-0.213501 10:0.4088 11:-0.264298 12:0.385868 13:-0.337761 14:0.337901 15:-0.37481 16:0.272791 17:-0.299468 18:0.191375 19:-0.192765 20:0.111039 21:-0.0805369 22:0.0482375 23:0.0293976 24:-0.00859259 25:0.288739 26:-0.068819 27:0.321127 28:-0.012938 29:0.482774 30:-0.0232796 31:0.569343 32:-0.0418988 33:0.495376 34:-0.0570185 35:0.448627 36:-0.0763605 37:0.397937 38:-0.0827948 39:0.368848 40:-0.0349386 
0.5759368035355996 1:-0.130385 2:0.135578 3:-0.132249 4:0.237583 5:-0.163576 6:0.310792 7:-0.202154 8:0.355219 9:-0.247253 10:0.375705 11:-0.30156 12:0.338513 13:-0.321632 14:0.277317 15:-0.357613 16:0.213885 17:-0.244315 18:0.134771 19:-0.138505 20:0.0697224 21:-0.0450623 22:0.00865801 23:0.2 24:-0.0583704 25:0.285852 26:-0.00311526 27:0.506103 28:-0.0150943 29:0.623266 30:-0.035559 31:0.534469 32:-0.0535239 33:0.478357 34:-0.0771697 35:0.419464 36:-0.0952893 37:0.383557 38:-0.0521002 39:0.216561 40:-0.0288952 
0.1008812968781463 1:-0.134379 2:0.208199 3:-0.161092 4:0.290731 5:-0.194702 6:0.340847 7:-0.235907 8:0.343416 9:-0.284144 10:0.348627 11:-0.290295 12:0.297077 13:-0.309298 14:0.236928 15:-0.303996 16:0.174614 17:-0.193033 18:0.110512 19:-0.107092 20:0.0464816 21:0.120805 22:-0.025974 23:0.193253 24:0.026963 25:0.471607 26:0.0104786 27:0.649765 28:-0.012938 29:0.581208 30:-0.0335124 31:0.512571 32:-0.0612739 33:0.443581 34:-0.0844974 35:0.401153 36:-0.0505485 37:0.21663 38:-0.0343296 39:0.177765 40:-0.102927 
1.852864491758005 1:-0.157204 2:0.263836 3:-0.18564 4:0.32553 5:-0.221192 6:0.337432 7:-0.264632 8:0.324972 9:-0.268446 10:0.31478 11:-0.272964 12:0.263781 13:-0.252372 14:0.204472 15:-0.243298 16:0.157083 17:-0.15433 18:0.0936658 19:0.0642551 20:0.0174306 21:0.120805 22:0.0698825 23:0.386024 24:0.0477037 25:0.625602 26:0.0189748 27:0.612207 28:-0.00485175 29:0.563311 30:-0.0360706 31:0.48013 32:-0.0636958 33:0.428783 34:-0.0318296 35:0.224822 36:-0.0268875 37:0.179118 38:-0.109047 39:0.0966995 40:-0.135033 
5.350626584664861 1:0.155492 2:0.438946 3:0.113839 4:0.476748 5:0.101987 6:0.500683 7:0.0858169 8:0.516046 9:0.0675039 10:0.539677 11:0.0459272 12:0.514613 13:0.00189753 14:0.477822 15:-0.0733434 16:0.436886 17:-0.0691824 18:0.376011 19:-0.0613993 20:0.313751 21:-0.0441035 22:0.254793 23:0.046747 24:0.153778 25:0.152069 26:-0.00424809 27:0.206573 28:-0.156334 29:0.212528 30:-0.292402 31:0.162206 32:-0.374183 33:0.123936 34:-0.398672 35:0.0810444 36:-0.380082 37:0.0465771 38:-0.311389 39:0.0202664 40:-0.218508 
0.3465480596809381 1:0.113267 2:0.450659 3:0.105247 4:0.489402 5:0.0927152 6:0.514344 7:0.075763 8:0.5308 9:0.0565149 10:0.55472 11:0.0337955 12:0.529412 13:-0.0113852 14:0.492247 15:-0.0875063 16:0.450912 17:-0.0827286 18:0.389488 19:-0.0176107 20:0.275016 21:0.0575264 22:0.0940012 23:0.148916 24:-0.0832593 25:0.25409 26:-0.242141 27:0.249765 28:-0.339623 29:0.2 30:-0.374265 31:0.134631 32:-0.364495 33:0.0839808 34:-0.307076 35:0.0444218 36:-0.22521 37:0.0253204 38:-0.125606 39:0.000579039 40:-0.0598678 
0.9649748031096843 1:0.109272 2:0.451245 3:0.100951 4:0.490035 5:0.0880795 6:0.515027 7:0.0707361 8:0.531538 9:0.0510204 10:0.555472 11:0.0277296 12:0.530152 13:-0.0180266 14:0.492968 15:-0.0945878 16:0.451613 17:-0.0314465 18:0.336253 19:0.0328415 20:0.146546 21:0.108341 22:-0.0414348 23:0.2 24:-0.213037 25:0.247353 26:-0.320872 27:0.243192 28:-0.360647 29:0.175839 30:-0.353287 31:0.112733 32:-0.296198 33:0.064003 34:-0.215022 35:0.0396745 36:-0.121532 37:0.00844014 38:-0.0605816 39:-0.015055 40:-0.0217186 
0.3099793337175864 1:0.105278 2:0.45183 3:0.0966554 4:0.490668 5:0.0834437 6:0.51571 7:0.0657092 8:0.532276 9:0.0455259 10:0.556224 11:0.0216638 12:0.530892 13:-0.0246679 14:0.493689 15:-0.0409712 16:0.396213 17:0.0198355 18:0.202156 19:0.0832937 20:0.00516462 21:0.159156 22:-0.176871 23:0.193253 24:-0.295407 25:0.240616 26:-0.342962 27:0.21784 28:-0.338544 29:0.151678 30:-0.281146 31:0.0908354 32:-0.198837 33:0.0588235 34:-0.104649 35:0.0213632 36:-0.0522693 37:-0.00844014 38:-0.01979 39:-0.0191083 40:-0.0213409 
0.203669032049724 1:0.101284 2:0.452416 3:0.0923596 4:0.4913 5:0.0788079 6:0.516393 7:0.0606822 8:0.533014 9:0.0400314 10:0.556976 11:0.0155979 12:0.531632 13:0.0256167 14:0.436711 15:0.0126454 16:0.256662 17:0.0711176 18:0.0545822 19:0.133746 20:-0.136217 21:0.152445 22:-0.262832 23:0.186506 24:-0.318519 25:0.214629 26:-0.319739 27:0.192488 28:-0.262534 29:0.127517 30:-0.178306 31:0.0851582 32:-0.0821022 33:0.0388457 34:-0.0309137 35:0.00305188 36:-0.0088191 37:-0.0128165 38:-0.0193861 39:-0.0231616 40:-0.0209632 
0.01302861595012595 1:0.154922 2:0.305417 3:0.137772 4:0.421069 5:0.11457 6:0.495219 7:0.0994614 8:0.510144 9:0.0824176 10:0.533659 11:0.0623917 12:0.508694 13:0.0958254 14:0.25568 15:0.0875063 16:0.0946704 17:0.142719 18:-0.0606469 19:0.0899572 20:-0.15623 21:0.108341 22:-0.195424 23:0.142169 24:-0.230222 25:0.170356 26:-0.190031 27:0.149296 28:-0.149865 29:0.0863535 30:-0.102072 31:0.0316302 32:-0.0486801 33:-0.0099889 34:-0.00847264 35:-0.0417091 36:0.0208647 37:-0.0540794 38:0.00848142 39:-0.0613781 40:0.00509915 
1.228702514552467 1:0.156633 2:0.29429 3:0.139613 4:0.409048 5:0.116556 6:0.509563 7:0.101616 8:0.525636 9:0.0847724 10:0.549455 11:0.0649913 12:0.465039 13:0.0796964 14:0.3141 15:0.0703085 16:0.165498 17:0.12627 18:0.0208895 19:0.0737744 20:-0.0781149 21:0.0728667 22:-0.132962 23:0.106506 24:-0.158519 25:0.153994 26:-0.121495 27:0.152113 28:-0.0738544 29:0.106935 30:-0.0299309 31:0.0502839 32:-0.00944539 33:0.00702923 34:-0.0446531 35:-0.0261105 36:-0.0733491 37:-0.0522038 38:-0.120355 39:-0.0364794 40:-0.175826 
0.8846522799491414 1:0.136091 2:0.284919 3:0.129794 4:0.373616 5:0.119205 6:0.430328 7:0.0901257 8:0.440059 9:0.0879121 10:0.402031 11:0.0857886 12:0.290418 13:0.0645161 14:0.172737 15:0.0136571 16:0.0701262 17:0.0333817 18:-0.0168464 19:0.039505 20:-0.062621 21:0.0575264 22:-0.0562771 23:0.0910843 24:-0.0494815 25:0.119346 26:-0.0172756 27:0.11831 28:0.0145553 29:0.0926174 30:0.0232796 31:0.053528 32:0.0215549 33:0.0395856 34:-0.00618273 35:0.0308579 36:-0.0544203 37:0.0253204 38:-0.102585 39:0.0237406 40:-0.136544 
0.03422398550488658 1:0.173752 2:0.367496 3:0.170298 4:0.43752 5:0.176159 6:0.458333 7:0.18061 8:0.426042 9:0.186813 10:0.372697 11:0.194974 12:0.27636 13:0.127135 14:0.159034 15:0.0197269 16:0.042777 17:-0.0188679 18:-0.0296496 19:-0.0118991 20:-0.074887 21:0.00575264 22:-0.0803958 23:0.0390361 24:-0.12 25:0.0866218 26:-0.152648 27:0.105164 28:0.0366577 29:0.0621924 30:0.034024 31:0.025953 32:0.00266408 33:-0.000369959 34:-0.024044 35:-0.0193286 36:-0.0453861 37:-0.033448 38:-0.0537157 39:-0.0422698 40:-0.0757318 
0.0741546851680986 1:0.174322 2:0.404978 3:0.183185 4:0.440051 5:0.190066 6:0.420082 7:0.195691 8:0.355219 9:0.203297 10:0.300489 11:0.161179 12:0.190529 13:0.0901328 14:0.0753696 15:-0.0197269 16:0.0175316 17:-0.0179003 18:-0.0269542 19:-0.0109472 20:-0.03357 21:0.00671141 22:-0.0779221 23:0.04 24:-0.11763 25:0.106833 26:0.0761824 27:0.106103 28:0.071159 29:0.0630872 30:0.0360706 31:0.026764 32:0.0046016 33:0.000369959 34:-0.022212 35:-0.0186504 36:-0.0436653 37:-0.0328228 38:-0.0763328 39:-0.0416908 40:-0.0968839 
0.007725524138126036 1:0.186305 2:0.409078 3:0.196072 4:0.406517 5:0.203974 6:0.356557 7:0.210772 8:0.28661 9:0.172684 10:0.215495 11:0.127383 12:0.106918 13:0.0531309 14:0.0515687 15:-0.0187152 16:0.0224404 17:-0.0169328 18:0.0181941 19:-0.00999524 20:-0.029051 21:0.00767018 22:-0.0735931 23:0.060241 24:0.123556 25:0.107796 26:0.114132 27:0.107042 28:0.0749326 29:0.0639821 30:0.0396521 31:0.027575 32:0.00799225 33:0.00110988 34:-0.0190062 35:-0.0179722 36:-0.0664659 37:-0.0321976 38:-0.0977383 39:-0.0411118 40:-0.0942398 
0.5939544599146597 1:0.160628 2:0.106296 3:0.156183 4:0.117368 5:0.160927 6:0.385929 7:0.149731 8:0.43637 9:0.137363 10:0.458443 11:0.12305 12:0.434702 13:0.0863378 14:0.399928 15:0.016692 16:0.36115 17:0.0169328 18:0.262803 19:0.0233222 20:0.166559 21:0.0412272 22:0.113791 23:0.0746988 24:0.0660741 25:0.122233 26:0.0252053 27:0.121127 28:0.0549865 29:0.0774049 30:0.0207214 31:0.0397405 32:-0.00992977 33:0.0122087 34:-0.127548 35:-0.00779925 36:-0.228651 37:-0.0228196 38:-0.306543 39:-0.0324262 40:-0.27441 
0.1568217941251261 1:0.177175 2:0.366911 3:0.17398 4:0.398924 5:0.166887 6:0.375683 7:0.156194 8:0.336776 9:0.144427 10:0.356901 11:0.130849 12:0.334813 13:0.0948767 14:0.30256 15:0.0257967 16:0.350631 17:0.025641 18:0.293127 19:0.0318896 20:0.234345 21:0.0498562 22:0.0550402 23:0.0833735 24:-0.108741 25:0.130895 26:-0.255169 27:0.129577 28:-0.254987 29:0.0675615 30:-0.191609 31:0.0145985 32:-0.114071 33:-0.0107288 34:-0.0519808 35:-0.0288233 36:-0.0458163 37:-0.0422007 38:-0.0783522 39:-0.0503764 40:-0.0987724 
0.5490781247444467 1:0.178317 2:0.368668 3:0.175207 4:0.36286 5:0.168212 6:0.336749 7:0.15763 8:0.338989 9:0.145997 10:0.359158 11:0.132582 12:0.337033 13:0.0967742 14:0.391273 15:0.0278199 16:0.352735 17:0.0275762 18:0.295148 19:0.0337934 20:0.107166 21:0.0517737 22:-0.0667904 23:0.0853012 24:-0.225481 25:0.13282 26:-0.230813 27:0.112676 28:-0.167116 29:0.0514541 30:-0.0877462 31:0.0162206 32:-0.0254299 33:-0.00924898 34:-0.023128 35:-0.0274669 36:-0.0703377 37:-0.0409503 38:-0.101373 39:-0.0492183 40:-0.090085 
0.4391553759572291 1:0.185735 2:0.379209 3:0.183185 4:0.412211 5:0.176821 6:0.431011 7:0.166966 8:0.440797 9:0.156201 10:0.462956 11:0.143847 12:0.439142 13:0.109108 14:0.404255 15:0.0409712 16:0.365358 17:0.0401548 18:0.307278 19:0.0461685 20:0.247902 21:0.0642378 22:0.142239 23:0.155663 24:-0.0844444 25:0.20308 26:-0.288587 27:0.143662 28:-0.383827 29:0.0630872 30:-0.385521 31:-0.00567721 32:-0.278276 33:-0.0588235 34:-0.152278 35:-0.0729061 36:-0.0625941 37:-0.0953423 38:-0.0214055 39:-0.0995947 40:-0.0228517 
0.2243957245930734 1:0.189729 2:0.378624 3:0.187481 4:0.411579 5:0.181457 6:0.430328 7:0.171993 8:0.440059 9:0.161695 10:0.462204 11:0.149913 12:0.438402 13:0.11575 14:0.403534 15:0.0480526 16:0.364656 17:0.0469279 18:0.306604 19:0.052832 20:0.19561 21:0.128476 22:-0.0439085 23:0.16241 24:-0.262815 25:0.152069 26:-0.368451 27:0.112676 28:-0.373585 29:0.033557 30:-0.263239 31:-0.0324412 32:-0.133446 33:-0.0536441 34:-0.0428212 35:-0.0817226 36:-0.0114003 37:-0.0909659 38:-0.0218094 39:-0.0955414 40:-0.0534466 
0.04230628321800089 1:0.193723 2:0.380381 3:0.191777 4:0.413477 5:0.186093 6:0.432377 7:0.17702 8:0.442272 9:0.16719 10:0.46446 11:0.155979 12:0.440622 13:0.122391 14:0.405698 15:0.055134 16:0.36676 17:0.053701 18:0.254717 19:0.116611 20:0.00387347 21:0.135187 22:-0.227582 23:0.111325 24:-0.344 25:0.120308 26:-0.355423 27:0.0816901 28:-0.242588 29:0.00402685 30:-0.108212 31:-0.026764 32:-0.0157423 33:-0.063263 34:0.0135104 35:-0.0769752 36:-0.0101097 37:-0.0865896 38:-0.0529079 39:-0.0914881 40:-0.0825307 
0.03879386614184838 1:0.217689 2:0.396193 3:0.217551 4:0.43056 5:0.213907 6:0.396175 7:0.250269 8:0.181852 9:0.247253 10:-0.0267018 11:0.192374 12:-0.146134 13:0.124288 14:-0.151821 15:0.016692 16:-0.00701262 17:-0.0217707 18:0.151617 19:-0.0147549 20:0.253712 21:-0.0162991 22:0.27149 23:0.0168675 24:0.217185 25:0.0644851 26:0.124327 27:0.0647887 28:0.0415094 29:0.0237136 30:0.00793042 31:-0.00892133 32:-0.0220392 33:-0.0321865 34:-0.0565606 35:-0.048491 36:-0.0845343 37:-0.0603314 38:-0.098546 39:-0.0671685 40:-0.0949953 
0.07689281182098257 1:0.221683 2:0.399707 3:0.221847 4:0.383739 5:0.258278 6:0.195355 7:0.255296 8:-0.0350424 9:0.205651 10:-0.127492 11:0.163778 12:-0.126896 13:0.0929791 14:0.025604 15:-0.016692 16:0.207574 17:-0.0149976 18:0.317385 19:-0.0271299 20:0.335055 21:-0.00958773 22:0.275201 23:0.0236145 24:0.173333 25:0.0712223 26:0.0824129 27:0.0713615 28:0.0447439 29:0.0299776 30:0.0110003 31:-0.00324412 32:-0.0288205 33:-0.027007 34:-0.0629723 35:-0.0437436 36:-0.0905571 37:-0.055955 38:-0.0961228 39:-0.0631152 40:-0.092729 
1.574693435430268 1:0.18174 2:0.310688 3:0.166616 4:0.414109 5:0.15894 6:0.43306 7:0.147576 8:0.383991 9:0.135008 10:0.344866 11:0.120451 12:0.322974 13:0.0834915 14:0.291021 15:0.0136571 16:0.241234 17:0.01403 18:0.174528 19:0.0204664 20:0.107811 21:0.0383509 22:0.0575139 23:0.0718072 24:0.0121481 25:0.119346 26:-0.0263381 27:0.11831 28:-0.0587601 29:0.0747204 30:-0.0872346 31:0.0373074 32:-0.112134 33:0.0099889 34:-0.132585 35:-0.00983384 36:-0.147344 37:-0.0246952 38:-0.149435 39:-0.0341633 40:-0.135033 
13.9282542357309 1:0.170899 2:0.382723 3:0.167229 4:0.416008 5:0.159603 6:0.380464 7:0.148294 8:0.327186 9:0.135793 10:0.347123 11:0.121317 12:0.325194 13:0.0844402 14:0.278759 15:0.0146687 16:0.229313 17:0.0149976 18:0.163073 19:0.0214184 20:0.109748 21:0.0393097 22:0.0593692 23:0.0727711 24:0.0139259 25:0.120308 26:-0.0246389 27:0.119249 28:-0.0571429 29:0.0756152 30:-0.0856997 31:0.0381184 32:-0.110681 33:0.0107288 34:-0.131211 35:-0.00915565 36:-0.146053 37:-0.02407 38:-0.140145 39:-0.0335843 40:-0.126346 
22.6274 1:0.170899 2:0.387408 3:0.167229 4:0.370452 5:0.159603 6:0.331284 7:0.148294 8:0.333087 9:0.135793 10:0.35314 11:0.121317 12:0.316315 13:0.0844402 14:0.270105 15:0.0146687 16:0.220898 17:0.0149976 18:0.168464 19:0.0214184 20:0.114913 21:0.0393097 22:0.0643166 23:0.0727711 24:0.0186667 25:0.120308 26:-0.0201076 27:0.119249 28:-0.0528302 29:0.0756152 30:-0.0816065 31:0.0381184 32:-0.106806 33:0.0107288 34:-0.127548 35:-0.00915565 36:-0.134007 37:-0.02407 38:-0.128837 39:-0.0335843 40:-0.11577 
6.393309568850966 1:0.170899 2:0.344656 3:0.167229 4:0.324264 5:0.159603 6:0.336066 7:0.148294 8:0.338252 9:0.135793 10:0.343362 11:0.121317 12:0.306696 13:0.0844402 14:0.260728 15:0.0146687 16:0.225806 17:0.0149976 18:0.173181 19:0.0214184 20:0.119432 21:0.0393097 22:0.0686456 23:0.0727711 24:0.0228148 25:0.120308 26:-0.0161427 27:0.119249 28:-0.0490566 29:0.0756152 30:-0.0780251 31:0.0381184 32:-0.103415 33:0.0107288 34:-0.115182 35:-0.00915565 36:-0.122392 37:-0.02407 38:-0.117932 39:-0.0335843 40:-0.105571 
0.3988958604594406 1:0.12582 2:0.249195 3:0.118748 4:0.271749 5:0.107285 6:0.279372 7:0.0915619 8:0.27702 9:0.0737834 10:0.295976 11:0.0528596 12:0.27488 13:0.00948767 14:0.24414 15:-0.0652504 16:0.223703 17:-0.0614417 18:0.184636 19:-0.0537839 20:0.143318 21:-0.0364334 22:0.103896 23:-0.00337349 24:0.0684444 25:0.0442733 26:0.027471 27:0.0450704 28:-0.00754717 29:0.0049217 30:-0.0386288 31:0.00648824 32:-0.0661177 33:0.0558639 34:-0.0890772 35:0.100034 36:-0.106475 37:0.214129 38:-0.119144 39:0.325999 40:-0.121813 
0.3826130413726555 1:0.0373752 2:0.22284 3:0.0236269 4:0.243277 5:0.00463576 6:0.262295 7:-0.0197487 8:0.273331 9:-0.0478807 10:0.307258 11:-0.0814558 12:0.300777 13:-0.137571 14:0.283808 15:-0.222054 16:0.248247 17:-0.211418 18:0.194744 19:-0.201333 20:0.14009 21:-0.146692 22:0.0884354 23:-0.0178313 24:0.0417778 25:0.126083 26:0.00198244 27:0.331455 28:-0.0425876 29:0.492617 30:-0.0821182 31:0.432279 32:-0.0976023 33:0.237144 34:-0.0913671 35:0.198372 36:-0.108626 37:0.16724 38:-0.113086 39:0.27099 40:-0.0103872 
1.863881811037025 1:-0.0191155 2:0.209956 3:-0.037128 4:0.242012 5:-0.0609272 6:0.260929 7:-0.0908438 8:0.271855 9:-0.125589 10:0.305754 11:-0.167244 12:0.284499 13:-0.231499 14:0.253516 15:-0.322205 16:0.218794 17:-0.268505 18:0.166442 19:-0.162304 20:0.112976 21:-0.0498562 22:0.0624613 23:0.195181 24:0.00503704 25:0.473532 26:-0.0444633 27:0.482629 28:-0.0652291 29:0.26085 30:-0.0626759 31:0.206002 32:-0.0888835 33:0.163892 34:-0.110602 35:0.280434 36:-0.0148419 37:0.330416 38:-0.0169628 39:0.398958 40:-0.0186969 
0.174463224973826 1:0.177746 2:0.379209 3:0.174593 4:0.412211 5:0.16755 6:0.431011 7:0.156912 8:0.440797 9:0.145212 10:0.462956 11:0.131716 12:0.439142 13:0.0958254 14:0.404255 15:0.0268083 16:0.365358 17:0.0266086 18:0.307278 19:0.0328415 20:0.247902 21:-0.00671141 22:0.166976 23:-0.0313253 24:0.0933333 25:0.0163619 26:-0.0280374 27:0.0178404 28:-0.114286 29:0.0326622 30:-0.170632 31:0.0478508 32:-0.22015 33:0.064003 34:-0.253034 35:0.0396745 36:-0.260486 37:0.020944 38:-0.255654 39:0.00810654 40:-0.241926 
1.996452367138701 1:0.176034 2:0.393265 3:0.172752 4:0.427396 5:0.165563 6:0.447404 7:0.154758 8:0.458502 9:0.142857 10:0.481008 11:0.129116 12:0.4569 13:0.0929791 14:0.421565 15:0.0237734 16:0.382188 17:0.0237059 18:0.32345 19:-0.0271299 20:0.237573 21:-0.0671141 22:0.157081 23:-0.0342169 24:0.0245926 25:0.0134745 26:-0.0710847 27:0.0713615 28:-0.133693 29:0.0836689 30:-0.189051 31:0.0940795 32:-0.2279 33:0.0617832 34:-0.242043 35:0.0376399 36:-0.250161 37:0.0190685 38:-0.245961 39:0.00636943 40:-0.232861 
1.491665571922179 1:0.174322 2:0.407321 3:0.170911 4:0.442581 5:0.163576 6:0.463798 7:0.152603 8:0.476208 9:0.140502 10:0.49906 11:0.126516 12:0.474658 13:0.0901328 14:0.438875 15:0.0207385 16:0.399018 17:-0.0372521 18:0.312668 19:-0.0871014 20:0.227243 21:-0.0699904 22:0.0853432 23:-0.0371084 24:-0.0204444 25:0.0683349 26:-0.0914755 27:0.124883 28:-0.1531 29:0.134676 30:-0.197237 31:0.0916464 32:-0.216275 33:0.0595634 34:-0.231051 35:0.0356053 36:-0.239837 37:0.0171929 38:-0.236268 39:0.00463231 40:-0.223796 
2.549819339749428 1:0.172611 2:0.421376 3:0.16907 4:0.457767 5:0.161589 6:0.480191 7:0.150449 8:0.493914 9:0.138148 10:0.517112 11:0.123917 12:0.492416 13:0.0872865 14:0.456185 15:-0.0429944 16:0.387798 17:-0.09821 18:0.301887 19:-0.0899572 20:0.152356 21:-0.0728667 22:0.0383426 23:0.0178313 24:-0.0417778 25:0.123195 26:-0.111866 27:0.178404 28:-0.161725 29:0.131991 30:-0.184958 31:0.0892133 32:-0.20465 33:0.0573437 34:-0.22006 35:0.0335707 36:-0.229512 37:0.0153173 38:-0.226575 39:0.00289519 40:-0.214731 
3.864736391590005 1:0.170899 2:0.435432 3:0.167229 4:0.472952 5:0.159603 6:0.496585 7:0.148294 8:0.511619 9:0.135793 10:0.535164 11:0.121317 12:0.510174 13:0.0275142 14:0.444645 15:-0.106727 16:0.376578 17:-0.101113 18:0.22372 19:-0.0928129 20:0.103292 21:-0.0182167 22:0.0160792 23:0.0727711 24:-0.0631111 25:0.178056 26:-0.120929 27:0.175587 28:-0.148787 29:0.129306 30:-0.172678 31:0.0867802 32:-0.193025 33:0.0551239 34:-0.209068 35:0.0315361 36:-0.219187 37:0.0134417 38:-0.216882 39:0.00115808 40:-0.205666 
3.635581632666746 1:0.169187 2:0.449488 3:0.165388 4:0.488137 5:0.157616 6:0.512978 7:0.14614 8:0.529325 9:0.133438 10:0.553215 11:0.0667244 12:0.498335 13:-0.0322581 14:0.433105 15:-0.109762 16:0.295231 17:-0.104015 18:0.172507 19:-0.0385531 20:0.0800516 21:0.0364334 22:-0.00618429 23:0.127711 24:-0.0725926 25:0.175168 26:-0.107335 27:0.17277 28:-0.135849 29:0.126622 30:-0.160399 31:0.0843471 32:-0.1814 33:0.0529042 34:-0.198076 35:0.0295015 36:-0.208862 37:0.0115661 38:-0.207189 39:-0.000579039 40:-0.196601 
4.757652261662283 1:0.167475 2:0.463543 3:0.163547 4:0.503322 5:0.155629 6:0.529372 7:0.143986 8:0.547031 9:0.0839874 10:0.541181 11:0.0121317 12:0.486496 13:-0.0351044 14:0.349441 15:-0.112797 16:0.241935 17:-0.0488631 18:0.148248 19:0.0157068 20:0.0568108 21:0.0910834 22:-0.0160792 23:0.124819 24:-0.0583704 25:0.172281 26:-0.0937411 27:0.169953 28:-0.122911 29:0.123937 30:-0.14812 31:0.081914 32:-0.169775 33:0.0506844 34:-0.187085 35:0.0274669 36:-0.198537 37:0.00969053 38:-0.197496 39:-0.00231616 40:-0.187535 
4.688069541370605 1:0.165763 2:0.477599 3:0.161706 4:0.518507 5:0.153642 6:0.545765 7:0.0987433 8:0.535227 9:0.0345369 10:0.529146 11:0.00953206 12:0.400666 13:-0.0379507 14:0.294627 15:-0.055134 16:0.21669 17:0.00628931 18:0.123989 19:0.0699667 20:0.0464816 21:0.0882071 22:-0.00123686 23:0.121928 24:-0.0441481 25:0.169394 26:-0.0801473 27:0.167136 28:-0.109973 29:0.121253 30:-0.13584 31:0.0794809 32:-0.15815 33:0.0484647 34:-0.176093 35:0.0254323 36:-0.188213 37:0.00781494 38:-0.187803 39:-0.00405327 40:-0.17847 
3.955794393794684 1:0.164051 2:0.491654 3:0.159865 4:0.533692 5:0.111921 6:0.534836 7:0.0535009 8:0.523423 9:0.0321821 10:0.441895 11:0.00693241 12:0.344432 13:0.016129 14:0.268662 15:0.00252908 16:0.191445 17:0.0614417 18:0.113208 19:0.0671109 20:0.0619755 21:0.0853308 22:0.0136054 23:0.119036 24:-0.0299259 25:0.166506 26:-0.0665534 27:0.164319 28:-0.097035 29:0.118568 30:-0.123561 31:0.0770479 32:-0.146525 33:0.0462449 34:-0.165102 35:0.0233978 36:-0.177888 37:0.00593936 38:-0.17811 39:-0.00579039 40:-0.169405 
8.124841432814144 1:0.164622 2:0.503367 3:0.123658 4:0.521038 5:0.0728477 6:0.521175 7:0.054219 8:0.434895 9:0.032967 10:0.381722 11:0.059792 12:0.314835 13:0.0740038 14:0.239812 15:0.0642387 16:0.177419 17:0.0624093 18:0.126685 19:0.0680628 20:0.074887 21:0.0862895 22:0.025974 23:0.12 24:-0.0180741 25:0.167469 26:-0.0552251 27:0.165258 28:-0.0862534 29:0.119463 30:-0.113328 31:0.0778589 32:-0.136837 33:0.0469848 34:-0.155942 35:0.024076 36:-0.169284 37:0.00656455 38:-0.170032 39:-0.0515345 40:-0.131634 
2.897942188718329 1:0.132668 2:0.488141 3:0.0892912 4:0.504587 5:0.0754967 6:0.435109 7:0.0570916 8:0.37145 9:0.0832025 10:0.347123 11:0.115251 12:0.280799 13:0.134725 14:0.22106 15:0.0682853 16:0.187237 17:0.0662796 18:0.136119 19:0.0718705 20:0.0839251 21:0.0901246 22:0.034632 23:0.123855 24:-0.00977778 25:0.171319 26:-0.0472954 27:0.169014 28:-0.0787062 29:0.123043 30:-0.106165 31:0.081103 32:-0.130056 33:0.0499445 34:-0.149531 35:0.0267887 36:-0.163261 37:-0.0409503 38:-0.132068 39:-0.0839606 40:-0.0810198 
11.16617986856581 1:0.101284 2:0.468228 3:0.0923596 4:0.419804 5:0.0788079 6:0.370902 7:0.10377 8:0.331612 9:0.134223 10:0.306506 11:0.171577 12:0.255642 13:0.139469 14:0.225388 15:0.0733434 16:0.191445 17:0.0711176 18:0.140162 19:0.0766302 20:0.0877986 21:0.0949185 22:0.0383426 23:0.128675 24:-0.00622222 25:0.176131 26:-0.0438969 27:0.173709 28:-0.0754717 29:0.127517 30:-0.103095 31:0.0851582 32:-0.127149 33:0.0536441 34:-0.146783 35:-0.024076 36:-0.126264 37:-0.075336 38:-0.0811793 39:-0.127389 40:-0.0334278 
2.235692028379571 1:0.105278 2:0.383309 3:0.0966554 4:0.353369 5:0.123179 6:0.326503 7:0.151885 8:0.283659 9:0.186813 10:0.272659 11:0.177643 12:0.251942 13:0.14611 14:0.221781 15:0.0804249 16:0.187938 17:0.0778907 18:0.136792 19:0.0832937 20:0.0845707 21:0.10163 22:0.0352505 23:0.135422 24:-0.00918519 25:0.182868 26:-0.046729 27:0.180282 28:-0.0781671 29:0.133781 30:-0.105654 31:0.0908354 32:-0.129571 33:-0.000369959 34:-0.112434 35:-0.0600203 36:-0.0767907 37:-0.120975 38:-0.0347334 39:-0.181239 40:0.0326723 
0.6210928610557573 1:0.230243 2:0.19063 3:0.267874 4:0.18317 5:0.268212 6:0.183743 7:0.266068 8:0.173737 9:0.264521 10:0.190673 11:0.263432 12:0.171291 13:0.240038 14:0.143166 15:0.180577 16:0.111501 17:0.173682 18:0.0633423 19:0.177535 20:0.0142027 21:0.196548 22:-0.0321583 23:0.230843 24:-0.0737778 25:0.278152 26:-0.108468 27:0.198122 28:-0.0938005 29:0.0970917 30:-0.0590944 31:-0.00729927 32:-0.0273674 33:-0.104698 34:0.0299977 35:-0.182774 36:0.0828135 37:-0.234136 38:0.155493 39:-0.830342 40:0.225685 
0.7041599240622811 1:0.307275 2:0.123865 3:0.3139 4:0.136349 5:0.317881 6:0.133197 7:0.319928 8:0.119144 9:0.323391 10:0.135013 11:0.328423 12:0.116537 13:0.311195 14:0.0897944 15:0.256449 16:0.0596073 17:0.246251 18:0.0134771 19:0.248929 20:-0.03357 21:0.268456 22:-0.0779221 23:0.303133 24:-0.11763 25:0.27334 26:-0.105069 27:0.212207 28:-0.0690027 29:0.0926174 30:-0.035559 31:-0.027575 32:0.0239767 33:-0.123196 34:0.0785436 35:-0.186165 36:0.145623 37:-0.837449 38:0.214459 39:-0.798494 40:0.34882 
0.7990920272557409 1:0.351783 2:0.031918 3:0.361767 4:0.0370136 5:0.369536 6:0.0259563 7:0.375943 8:0.00331981 9:0.384615 10:0.0169237 11:0.396014 12:0.000369959 13:0.385199 14:-0.0234403 15:0.335357 16:-0.0504909 17:0.321722 18:-0.0923181 19:0.323179 20:-0.134926 21:0.343241 22:-0.175015 23:0.301205 24:-0.163259 25:0.290664 26:-0.126027 27:0.210329 28:-0.0889488 29:0.0729306 30:-0.0237913 31:-0.0454177 32:0.0351175 33:-0.124676 34:0.107396 35:-0.838589 36:0.172725 37:-0.801188 38:0.312601 39:-0.753329 40:0.901416 
0.8108253676844869 1:0.39515 2:-0.0729136 3:0.408407 4:-0.0762417 5:0.419868 6:-0.0963115 7:0.430521 8:-0.128735 9:0.44427 10:-0.117713 11:0.461872 12:-0.132075 13:0.457306 14:-0.152542 15:0.412241 16:-0.176017 17:0.395259 18:-0.212938 19:0.395526 20:-0.250484 21:0.339406 22:-0.23624 23:0.316627 24:-0.198222 25:0.286814 26:-0.159445 27:0.187793 28:-0.0884097 29:0.0514541 30:-0.0232796 31:-0.0486618 32:0.054977 33:-0.837958 34:0.126174 35:-0.80061 36:0.2678 37:-0.753673 38:0.894588 39:-0.686161 40:1 
0.8184916723873568 1:0.438516 2:-0.177745 3:0.455048 4:-0.189497 5:0.470199 6:-0.218579 7:0.485099 8:-0.260789 9:0.503925 10:-0.252351 11:0.52773 12:-0.264521 13:0.529412 14:-0.281644 15:0.489125 16:-0.301543 17:0.468795 18:-0.333558 19:0.391718 20:-0.314396 21:0.354746 22:-0.272727 23:0.312771 24:-0.233185 25:0.263715 26:-0.158879 27:0.165258 28:-0.0878706 29:0.0478747 30:-0.00230238 31:-0.830495 32:0.0748365 33:-0.796522 34:0.227387 35:-0.749067 36:0.887718 37:-0.68115 38:1 39:-0.642154 40:0.932389 
0.8229842850809793 1:0.481883 2:-0.282577 3:0.501688 4:-0.302752 5:0.52053 6:-0.340847 7:0.539677 8:-0.392844 9:0.563579 10:-0.386988 11:0.593588 12:-0.396966 13:0.601518 14:-0.410746 15:0.566009 16:-0.427069 17:0.464925 18:-0.40027 19:0.406949 20:-0.352485 21:0.350911 22:-0.309215 23:0.289639 24:-0.232593 25:0.240616 26:-0.158312 27:0.161502 28:-0.0657682 29:-0.814765 30:0.0186749 31:-0.785077 32:0.181884 33:-0.740289 34:0.887337 35:-0.670397 36:1 37:-0.633636 38:0.927706 39:-0.598147 40:0.864778 
0.8250895693722213 1:0.52525 2:-0.396193 3:0.548328 4:-0.425498 5:0.570861 6:-0.473361 7:0.594255 8:-0.535965 9:0.623234 10:-0.532907 11:0.659445 12:-0.540511 13:0.673624 14:-0.550667 15:0.561963 16:-0.507013 17:0.480406 18:-0.450135 19:0.403141 20:-0.400258 21:0.3279 22:-0.317873 23:0.266506 24:-0.240889 25:0.236766 26:-0.143585 27:-0.743662 28:-0.051752 29:-0.764653 30:0.124073 31:-0.723439 32:0.872608 33:-0.654458 34:1 35:-0.618854 36:0.916541 37:-0.586121 38:0.849354 39:-0.55414 40:0.904816 
0.8262597877631245 1:0.565763 2:-0.499854 3:0.591899 4:-0.537488 5:0.617881 6:-0.594262 7:0.645242 8:-0.666544 9:0.678964 10:-0.66604 11:0.720971 12:-0.671476 13:0.665085 14:-0.620627 15:0.573091 16:-0.546985 17:0.471698 18:-0.488544 19:0.375535 20:-0.398321 21:0.300096 22:-0.316017 23:0.257831 24:-0.215407 25:-0.695861 26:-0.11923 27:-0.695775 28:0.0684636 29:-0.701119 30:0.862369 31:-0.633414 32:1 33:-0.601924 34:0.918937 35:-0.570702 36:0.840396 37:-0.541732 38:0.899031 39:-0.455124 40:0.709537 
0.8265451850902348 1:0.606277 2:-0.6 3:0.635471 4:-0.645682 5:0.664901 6:-0.711066 7:0.69623 8:-0.792696 9:0.734694 10:-0.79466 11:0.713172 12:-0.738809 13:0.675522 14:-0.657411 15:0.563986 16:-0.582749 17:0.443638 18:-0.48248 19:0.34793 20:-0.392511 21:0.291467 22:-0.285714 23:-0.676145 24:-0.18637 25:-0.646776 26:0.0104786 27:-0.629108 28:0.849596 29:-0.60179 30:1 31:-0.575831 32:0.917171 33:-0.54939 34:0.840623 35:-0.52255 36:0.895892 37:-0.434823 38:0.692649 39:-0.414013 40:0.599622 
0.8271583060091554 1:0.647361 2:-0.69429 3:0.679656 4:-0.747548 5:0.712583 6:-0.821038 7:0.747935 8:-0.911472 9:0.728414 10:-0.855585 11:0.72357 12:-0.769145 13:0.667932 14:-0.686982 15:0.53566 16:-0.569425 17:0.416546 18:-0.469677 19:0.340314 20:-0.354422 21:-0.636625 22:-0.249227 23:-0.626024 24:-0.0447407 25:-0.577478 26:0.836873 27:-0.523944 28:1 29:-0.53736 30:0.917626 31:-0.517437 32:0.839186 33:-0.496115 34:0.904282 35:-0.4059 36:0.680361 37:-0.389809 38:0.57916 39:-0.383903 40:0.463267 
0.8275269967202467 1:0.689016 2:-0.783309 3:0.724455 4:-0.84372 5:0.760927 6:-0.924863 7:0.742908 8:-0.964589 9:0.738619 10:-0.879654 11:0.717504 12:-0.792823 13:0.642315 14:-0.666787 15:0.508346 16:-0.54979 17:0.409773 18:-0.423854 19:-0.5802 20:-0.310523 21:-0.58581 22:-0.0958565 23:-0.555663 24:0.825185 25:-0.46872 26:1 27:-0.455399 28:0.918059 29:-0.472036 30:0.839857 31:-0.458232 32:0.910874 33:-0.36811 34:0.678956 35:-0.356392 36:0.563347 37:-0.356674 38:0.436995 39:-0.353214 40:0.337866 
0.8278281420555238 1:0.731241 2:-0.868228 3:0.769868 4:-0.935463 5:0.756954 6:-0.969262 7:0.752962 8:-0.983032 9:0.733909 10:-0.898458 11:0.694974 12:-0.766926 13:0.617647 14:-0.641543 15:0.502276 16:-0.497195 17:-0.524915 18:-0.373315 19:-0.528796 20:-0.145901 21:-0.514861 22:0.816327 23:-0.445783 24:1 25:-0.397498 26:0.91787 27:-0.385915 28:0.839892 29:-0.405817 30:0.919161 31:-0.317113 32:0.675951 33:-0.313356 34:0.557591 35:-0.319769 36:0.414928 37:-0.322913 38:0.305735 39:-0.321946 40:0.230217 
0.827745533063723 1:0.774037 2:-0.951977 3:0.7668 4:-0.975324 5:0.766887 6:-0.984973 7:0.749372 8:-1 9:0.714286 10:-0.870628 11:0.67331 12:-0.739549 13:0.612903 14:-0.586008 15:-0.47395 16:-0.443198 17:-0.471698 18:-0.200135 19:-0.457401 20:0.807618 21:-0.404602 22:1 23:-0.373494 24:0.915259 25:-0.325313 26:0.836873 27:-0.315493 28:0.924528 29:-0.249217 30:0.672039 31:-0.256285 32:0.548559 33:-0.27266 34:0.400504 35:-0.282469 36:0.275973 37:-0.288528 38:0.191438 39:-0.290098 40:0.161095 
0.8279446500172509 1:0.771184 2:-0.988287 3:0.776005 4:-0.989244 5:0.763576 6:-1 7:0.731418 8:-0.971966 9:0.694662 10:-0.842046 11:0.668977 12:-0.681835 13:-0.302657 14:-0.529751 15:-0.418311 16:-0.262272 17:-0.399129 18:0.795822 19:-0.34793 20:1 21:-0.332694 22:0.912183 23:-0.301205 24:0.831111 25:-0.253128 26:0.926366 27:-0.151174 28:0.66469 29:-0.182103 30:0.537989 31:-0.211679 32:0.382901 33:-0.231964 34:0.253034 35:-0.245168 36:0.154657 37:-0.254142 38:0.117932 39:-0.246671 40:0.0999056 
0.827744703413283 1:0.777461 2:-0.998243 3:0.770482 4:-1 5:0.744371 6:-0.970628 7:0.710592 8:-0.940243 9:0.687598 10:-0.779616 11:-0.170711 12:-0.620422 13:-0.254269 14:-0.340065 15:-0.346485 16:0.7777 17:-0.291727 18:1 19:-0.280343 20:0.911556 21:-0.264621 22:0.827458 23:-0.232771 24:0.927704 25:-0.0885467 26:0.656188 27:-0.084507 28:0.526146 29:-0.136465 30:0.365567 31:-0.170316 32:0.229353 33:-0.194229 34:0.126174 35:-0.21058 36:0.0785115 37:-0.209753 38:0.0545234 39:-0.205559 40:0.0406043 
0.8279130750224377 1:0.771184 2:-1 3:0.751458 4:-0.963935 5:0.723841 6:-0.931694 7:0.702693 8:-0.868683 9:-0.0745683 10:-0.706657 11:-0.12825 12:-0.415464 13:-0.188805 14:0.739632 15:-0.236216 16:1 17:-0.224964 18:0.917116 19:-0.21466 20:0.83215 21:-0.198466 22:0.93692 23:-0.0698795 24:0.653333 25:-0.0221367 26:0.51855 27:-0.0384977 28:0.352022 29:-0.0926174 30:0.21054 31:-0.130576 32:0.101962 33:-0.157973 34:0.0515228 35:-0.163784 36:0.0169929 37:-0.166615 38:-0.00323102 39:-0.177186 40:-0.066289 
0.8278070970317294 1:0.751783 2:-0.959004 3:0.730592 4:-0.919646 5:0.71457 6:-0.856557 7:0.0032316 8:-0.787532 9:-0.0384615 10:-0.48853 11:-0.0710572 12:0.701813 13:-0.0882353 14:0.977642 15:-0.169449 16:0.922861 17:-0.161103 18:0.842992 19:-0.151832 20:0.95481 21:-0.0393097 22:0.658627 23:-0.00626506 24:0.517037 25:0.0221367 26:0.342962 27:0.00469484 28:0.195687 29:-0.0514541 30:0.0826298 31:-0.0932685 32:0.0293049 33:-0.109138 34:-0.00801466 35:-0.119023 36:-0.0389331 37:-0.137856 38:-0.112278 39:-0.15055 40:-0.160718 
0.8276222277699263 1:0.728959 2:-0.912152 3:0.718319 4:-0.84372 5:0.0655629 6:-0.77459 7:0.0319569 8:-0.566212 9:0.00863422 10:0.654757 11:0.0155979 12:0.953385 13:-0.0313093 14:0.905517 15:-0.108751 16:0.852735 17:-0.103048 18:0.977763 19:0.000475964 20:0.670755 21:0.0182167 22:0.522573 23:0.0322892 24:0.339259 25:0.0606352 26:0.184367 27:0.0422535 28:0.0663073 29:-0.01566 30:0.0110003 31:-0.0446067 32:-0.0288205 33:-0.0647429 34:-0.0629723 35:-0.0918956 36:-0.150785 37:-0.112848 38:-0.209208 39:-0.104227 40:-0.206043 
0.8267649860048792 1:0.714693 2:-0.836018 3:0.113839 4:-0.761468 5:0.0887417 6:-0.562842 7:0.0714542 8:0.562523 9:0.0832025 10:0.918014 11:0.0632582 12:0.886792 13:0.0208729 14:0.840606 15:-0.0531108 16:1 17:0.0469279 18:0.688005 19:0.052832 20:0.535184 21:0.0517737 22:0.343228 23:0.0660241 24:0.179259 25:0.0943215 26:0.0540923 27:0.0751174 28:-0.00377358 29:0.033557 30:-0.0452801 32:-0.0821022 33:-0.0388457 34:-0.177467 35:-0.0681587 36:-0.249731 37:-0.0659581 38:-0.253635 39:-0.0723798 40:-0.247592 
0.8179656369219508 1:0.150357 2:-0.753441 3:0.132863 4:-0.558368 5:0.122517 6:0.489754 7:0.136804 8:0.828845 9:0.123234 10:0.858593 11:0.107452 12:0.828339 13:0.06926 14:1 15:0.0996459 16:0.706171 17:0.0962748 18:0.553908 19:0.0823417 20:0.355068 21:0.0814957 22:0.183055 23:0.0959036 24:0.0494815 25:0.124158 26:-0.0133107 27:0.123005 28:-0.0571429 29:0.0791946 30:-0.0959325 31:0.0251419 32:-0.197869 33:-0.0159083 34:-0.277765 35:-0.0200068 36:-0.292321 37:-0.0340731 38:-0.293619 39:-0.0428489 40:-0.277432 
0.7980901293305798 1:0.138374 2:-0.559004 3:0.132249 4:0.4236 5:0.148344 6:0.743852 7:0.136086 8:0.778679 9:0.122449 10:0.807446 11:0.106586 12:1 13:0.163188 14:0.705734 15:0.0986343 16:0.574334 17:0.0759555 18:0.373315 19:0.0623513 20:0.194964 21:0.0613615 22:0.0544218 23:0.0756627 24:-0.0145185 25:0.123195 26:-0.0631549 27:0.122066 28:-0.104582 29:0.0604027 30:-0.212586 31:0.0081103 32:-0.29862 33:-0.0018498 34:-0.318067 35:-0.020685 36:-0.330179 37:-0.0346983 38:-0.321082 39:-0.0434279 40:-0.303116 
0.3208994222553798 1:0.137803 2:0.363982 3:0.156183 4:0.674154 5:0.147682 6:0.713798 7:0.135368 8:0.746219 9:0.121664 10:1 11:0.192374 12:0.715871 13:0.162239 14:0.58745 15:0.07739 16:0.403226 17:0.0556362 18:0.222372 19:0.0423608 20:0.0761782 21:0.0412272 22:0.00247372 23:0.0746988 24:-0.0524444 25:0.122233 26:-0.0994053 27:0.102347 28:-0.214555 29:0.0416107 30:-0.306728 31:0.0235199 32:-0.32962 33:-0.00258972 34:-0.347378 35:-0.0213632 36:-0.349107 37:-0.0353235 38:-0.338853 39:-0.0555877 40:-0.349953 
0.262139196017597 1:0.160628 2:0.647438 3:0.156183 4:0.701993 5:0.147682 6:0.743852 7:0.135368 8:1 9:0.200157 10:0.77736 11:0.192374 12:0.659637 13:0.143264 14:0.474937 15:0.0571573 16:0.307854 17:0.0362845 18:0.157682 19:0.0233222 20:0.0787605 21:0.0412272 22:0.017316 23:0.0746988 24:-0.0382222 25:0.102984 26:-0.165109 27:0.0835681 28:-0.266307 29:0.0595078 30:-0.294449 31:0.0235199 32:-0.317995 33:-0.00258972 34:-0.327227 35:-0.0213632 36:-0.330179 37:-0.0478274 38:-0.353393 39:-0.0671685 40:-0.386213 
0.1941607875064314 1:0.16234 2:0.691362 3:0.158024 4:0.749446 5:0.149669 6:1 7:0.209336 8:0.8045 9:0.202512 10:0.743513 11:0.177643 12:0.567148 13:0.127135 14:0.399207 15:0.0399595 16:0.262272 17:0.0198355 18:0.181267 19:0.026178 20:0.114267 21:0.0441035 22:0.0513296 23:0.0583133 24:-0.0885926 25:0.0866218 26:-0.201926 27:0.105164 28:-0.236658 29:0.0621924 30:-0.266309 31:0.025953 32:-0.281666 33:-0.000369959 34:-0.292878 35:-0.0328925 36:-0.33233 37:-0.0584558 38:-0.379645 39:-0.0770122 40:-0.425873 
0.3005038689215003 1:0.164051 2:0.747584 3:0.159865 4:1 5:0.217881 6:0.833333 7:0.21149 8:0.786795 9:0.189168 10:0.665288 11:0.162912 12:0.504994 13:0.111006 14:0.367472 15:0.0227618 16:0.301543 17:0.0227383 18:0.23248 19:0.0290338 20:0.163331 21:0.0278044 22:0.0117502 23:0.0419277 24:-0.114667 25:0.108758 26:-0.158879 27:0.107981 28:-0.195687 29:0.064877 30:-0.217191 31:0.0283861 32:-0.235166 33:-0.0129486 34:-0.285551 35:-0.0444218 36:-0.351258 37:-0.0690841 38:-0.41357 39:-0.075275 40:-0.548253 
0.4003456165371065 1:0.163481 2:1 3:0.22062 4:0.867763 5:0.217219 6:0.840847 7:0.196409 8:0.735891 9:0.172684 10:0.628432 11:0.144714 12:0.498335 13:0.0910816 14:0.433105 15:0.0217501 16:0.379383 17:0.0217707 18:0.307278 19:0.00904331 20:0.144609 21:0.00767018 22:0.00618429 23:0.060241 24:-0.0488889 25:0.107796 26:-0.0960068 27:0.107042 28:-0.125067 29:0.0639821 30:-0.150166 31:0.0113544 32:-0.210463 33:-0.0284869 34:-0.289673 35:-0.058664 36:-0.372338 37:-0.0697093 38:-0.530291 39:-0.029531 40:-0.763173 
0.3523032559831715 1:0.217689 2:0.903367 3:0.217551 4:0.902562 5:0.200662 6:0.82377 7:0.178456 8:0.732202 9:0.153061 10:0.654757 11:0.12305 12:0.598224 13:0.0863378 14:0.544897 15:0.016692 16:0.488079 17:-0.00241896 18:0.317385 19:-0.0147549 20:0.167205 21:0.0220518 22:0.102041 23:0.0554217 24:0.042963 25:0.102984 26:0.00311526 27:0.102347 28:-0.0307278 29:0.0416107 30:-0.101561 31:-0.00892133 32:-0.193509 33:-0.0469848 34:-0.291962 35:-0.0620549 36:-0.477737 37:-0.0228196 38:-0.742326 39:0.0138969 40:-0.916147 
0.4187181080669747 1:0.217689 2:0.937335 3:0.205278 4:0.888643 5:0.187417 6:0.822404 7:0.164093 8:0.760236 9:0.137363 10:0.758556 11:0.12305 12:0.715131 13:0.0863378 14:0.658853 15:-0.00354072 16:0.500701 17:-0.0217707 18:0.342992 19:0.00428367 20:0.269206 21:0.0220518 22:0.199753 23:0.0554217 24:0.148444 25:0.102984 26:0.103937 27:0.0835681 28:0.0221024 29:0.0237136 30:-0.0821182 31:-0.0251419 32:-0.194478 33:-0.0469848 34:-0.402794 35:-0.00779925 36:-0.702302 37:0.027196 38:-0.904685 39:0.0138969 40:-1 
0.4533645099822518 1:0.206277 2:0.916252 3:0.193004 4:0.878519 5:0.174172 6:0.838798 7:0.149731 8:0.851715 9:0.137363 10:0.866867 11:0.12305 12:0.82168 13:0.0673624 14:0.661738 15:-0.0237734 16:0.517532 17:-0.00241896 18:0.440027 19:0.00428367 20:0.362169 21:0.0220518 22:0.301175 23:0.0554217 24:0.24563 25:0.0837344 26:0.151515 27:0.0647887 28:0.0350404 29:0.00581655 30:-0.0903044 31:-0.0251419 32:-0.318479 33:0.0122087 34:-0.648271 35:0.0464564 36:-0.881265 37:0.027196 38:-1 39:0.0138969 40:-0.87762 
0.5469913791916785 1:0.194294 2:0.883455 3:0.180117 4:0.868396 5:0.160265 6:0.896175 7:0.149013 8:0.92844 9:0.136578 10:0.945092 11:0.104853 12:0.795043 13:0.0474383 14:0.650198 15:-0.00455235 16:0.590463 17:-0.00338655 18:0.510108 19:0.00333175 20:0.442221 21:0.021093 22:0.37786 23:0.0351807 24:0.271704 25:0.0635226 26:0.142453 27:0.0450704 28:0.00485175 29:0.0049217 30:-0.24175 31:0.0389294 32:-0.597481 33:0.0706622 34:-0.85711 35:0.0457782 36:-1 37:0.0265708 38:-0.885299 39:0.0133179 40:-0.604155 
0.6121109406995517 1:0.184023 2:0.853001 3:0.16907 4:0.898766 5:0.161589 6:0.942623 7:0.150449 8:0.978606 9:0.122449 10:0.890936 11:0.0892548 12:0.756567 13:0.0683112 14:0.699243 15:-0.00252908 16:0.638149 17:-0.00145138 18:0.569407 19:0.0052356 20:0.499032 21:0.00383509 22:0.382808 23:0.0178313 24:0.240889 25:0.0461983 26:0.0903427 27:0.0469484 28:-0.174124 29:0.0782998 30:-0.554873 31:0.105434 32:-0.835796 33:0.0721421 34:-1 35:0.0471346 36:-0.89331 37:0.0278212 38:-0.607431 39:-0.0318471 40:-0.36695 
0.6586345895376983 1:0.175464 2:0.8653 3:0.172139 4:0.924707 5:0.164901 6:0.970628 7:0.139677 8:0.90557 9:0.110675 10:0.831516 11:0.110919 12:0.786903 13:0.073055 14:0.728814 15:0.00252908 16:0.680926 17:0.00338655 18:0.610512 19:-0.00904331 20:0.486766 21:-0.0105465 22:0.333952 23:0.00337349 24:0.17037 25:0.0510106 26:-0.112999 27:0.126761 28:-0.518598 29:0.154362 30:-0.820414 31:0.109489 32:-1 33:0.0758417 34:-0.898786 35:0.0505256 36:-0.608948 37:-0.0190685 38:-0.364701 39:-0.075275 40:-0.192823 
0.692413817499417 1:0.178317 2:0.882284 3:0.175207 4:0.943056 5:0.154967 6:0.894809 7:0.128905 8:0.838436 9:0.130298 10:0.853328 11:0.115251 12:0.808361 13:0.0777989 14:0.764154 15:0.00758725 16:0.715288 17:-0.0111272 18:0.589623 19:-0.0233222 20:0.428018 21:-0.0249281 22:0.252938 23:0.00819277 24:-0.0494815 25:0.13282 26:-0.481733 27:0.206573 28:-0.804852 29:0.158837 30:-1 31:0.113544 32:-0.898765 33:0.0795413 34:-0.601557 35:-0.000339098 36:-0.35556 37:-0.0659581 38:-0.18336 39:-0.0839606 40:-0.0987724 
0.722582598069792 1:0.18117 2:0.892826 3:0.166002 4:0.865865 5:0.145033 6:0.825137 7:0.146858 8:0.851715 9:0.134223 10:0.866867 11:0.119584 12:0.836478 13:0.0825427 14:0.791561 15:-0.00758725 16:0.685835 17:-0.025641 18:0.520889 19:-0.0376011 20:0.336346 21:-0.0201342 22:0.0166976 23:0.0901205 24:-0.441778 25:0.214629 26:-0.788728 27:0.211268 28:-1 29:0.163311 30:-0.898695 31:0.117599 32:-0.589731 33:0.0240474 34:-0.336845 35:-0.0512038 36:-0.167133 37:-0.075336 38:-0.0872375 39:-0.0810654 40:-0.0088763 
0.7474954081291703 1:0.173181 2:0.814934 3:0.15741 4:0.794369 5:0.162252 6:0.829918 7:0.151167 8:0.856879 9:0.138932 10:0.887176 11:0.124783 12:0.856456 13:0.06926 14:0.753336 15:-0.0217501 16:0.606592 17:-0.0391872 18:0.41779 19:-0.0318896 20:0.082634 21:0.0623202 22:-0.399505 23:0.173012 24:-0.769481 25:0.220404 26:-1 27:0.216901 28:-0.899191 29:0.16868 30:-0.577897 31:0.0575831 32:-0.315088 33:-0.0307066 34:-0.141287 35:-0.0606985 36:-0.0694773 37:-0.0715849 38:0.00444265 39:-0.089172 40:0.076865 
0.7679595406514725 1:0.165193 2:0.739385 3:0.173366 4:0.788674 5:0.166225 6:0.82377 7:0.155476 8:0.864994 9:0.143642 10:0.895449 11:0.112652 12:0.805401 13:0.0559772 14:0.660296 15:-0.035913 16:0.488079 17:-0.0333817 18:0.142183 19:0.0499762 20:-0.362169 21:0.144775 22:-0.751391 23:0.178795 24:-1 25:0.226179 26:-0.903144 27:0.222535 28:-0.569811 29:0.102461 30:-0.295984 31:-0.00243309 32:-0.116009 33:-0.0410655 34:-0.0446531 35:-0.0566294 36:0.0212949 37:-0.0803376 38:0.0896607 39:-0.0972785 40:0.141454 
0.7831054575489711 1:0.180599 2:0.726501 3:0.177662 4:0.774755 5:0.170861 6:0.822404 7:0.160503 8:0.863519 9:0.133438 10:0.833772 11:0.101386 12:0.700333 13:0.0436433 14:0.52903 15:-0.0288316 16:0.192146 17:0.0507983 18:-0.330863 19:0.132794 20:-0.737895 21:0.151486 22:-1 23:0.185542 24:-0.90637 25:0.232916 26:-0.564429 27:0.153991 28:-0.279784 29:0.0371365 30:-0.092351 31:-0.0129765 32:-0.0201017 33:-0.0358861 34:0.046027 35:-0.0654459 36:0.106475 37:-0.0884651 38:0.153473 39:-0.116387 40:0.186025 
0.7940356576998432 1:0.186305 2:0.711274 3:0.183799 4:0.770959 5:0.177483 6:0.818306 7:0.153321 8:0.800074 9:0.125589 10:0.723956 11:0.092721 12:0.562708 13:0.0531309 14:0.221781 15:0.0622155 16:-0.302945 17:0.137881 18:-0.725741 19:0.142313 20:-1 21:0.161074 22:-0.904762 23:0.195181 24:-0.55437 25:0.165544 26:-0.261965 27:0.0882629 28:-0.0673854 29:0.0281879 30:0.00690714 31:-0.00486618 32:0.0738678 33:-0.0432852 34:0.134875 35:-0.0722279 36:0.172725 37:-0.107221 38:0.199515 39:-0.133758 40:0.206421 
0.8019952447233597 1:0.193153 2:0.707174 3:0.191163 4:0.76653 5:0.172185 6:0.75888 7:0.147576 8:0.691627 9:0.119309 10:0.583302 11:0.10312 12:0.246763 13:0.140417 14:-0.288136 15:0.155286 16:-0.714586 17:0.149492 18:-1 19:0.153736 20:-0.901227 21:0.172579 22:-0.538033 23:0.129639 24:-0.238519 25:0.100096 26:-0.0393656 27:0.0807512 28:0.0366577 29:0.0389262 30:0.105654 31:-0.0113544 32:0.167353 33:-0.0492046 34:0.204946 35:-0.0912174 36:0.221338 37:-0.124726 38:0.220921 39:-0.149971 40:0.203777 
0.806443391343181 1:0.201141 2:0.703075 3:0.187481 4:0.711484 5:0.168212 6:0.65847 7:0.143268 8:0.55367 9:0.130298 10:0.262129 11:0.184575 12:-0.27636 13:0.229602 14:-0.711504 15:0.169449 16:-1 17:0.163038 18:-0.8969 19:0.167063 20:-0.518399 21:0.1093 22:-0.208411 23:0.0660241 24:-0.00562963 25:0.0943215 26:0.0699519 27:0.0938967 28:0.140701 29:0.033557 30:0.2044 31:-0.0162206 32:0.241463 33:-0.0684425 34:0.256698 35:-0.10885 36:0.244139 37:-0.140982 38:0.218094 39:-0.165026 40:0.201133 
0.8090937124412634 1:0.196576 2:0.656223 3:0.182571 4:0.622904 5:0.162914 6:0.535519 7:0.151885 8:0.243821 9:0.202512 10:-0.264385 11:0.264298 12:-0.705512 13:0.240987 14:-1 15:0.181588 16:-0.887798 17:0.174649 18:-0.492588 19:0.102332 20:-0.169787 21:0.0441035 22:0.038961 23:0.0583133 24:0.112889 25:0.105871 26:0.183234 27:0.086385 28:0.248518 29:0.0263982 30:0.286262 31:-0.0389294 32:0.299588 33:-0.0891602 34:0.284177 35:-0.12784 36:0.244139 37:-0.158487 38:0.218094 39:-0.134916 40:0.148253 
0.8085568114711359 1:0.19087 2:0.575403 3:0.176434 4:0.510282 5:0.169536 6:0.25 7:0.216517 8:-0.271118 9:0.273155 10:-0.699135 11:0.272964 12:-1 13:0.250474 14:-0.883159 15:0.191705 16:-0.465638 17:0.106918 18:-0.127358 19:0.0356973 20:0.0897353 21:0.0345158 22:0.163884 23:0.0679518 24:0.232593 25:0.0962464 26:0.297649 27:0.0769953 28:0.335849 29:-0.000447427 30:0.348683 31:-0.0632603 32:0.32962 33:-0.111358 34:0.285093 35:-0.148186 36:0.244999 37:-0.127227 38:0.162359 39:-0.117545 40:0.103683 
0.8054521213043159 1:0.184593 2:0.469985 3:0.181958 4:0.244543 5:0.228477 6:-0.228142 7:0.280431 8:-0.699004 9:0.28022 10:-1 11:0.280763 12:-0.881613 13:0.259013 14:-0.450415 15:0.119879 16:-0.0869565 17:0.0382196 18:0.142183 19:0.0252261 20:0.218851 21:0.0431448 22:0.28757 23:0.0573494 24:0.351111 25:0.0856593 26:0.388275 27:0.0478873 28:0.400539 29:-0.0281879 30:0.379381 31:-0.0884023 32:0.32962 33:-0.134295 34:0.285093 35:-0.114954 36:0.184771 37:-0.109097 38:0.113893 39:-0.112334 40:0.0659112 
0.7967034918578351 1:0.187447 2:0.221669 3:0.234121 4:-0.200886 5:0.284768 6:-0.627049 7:0.284022 8:-0.997049 9:0.284144 10:-0.882663 11:0.285095 12:-0.440622 13:0.187856 14:-0.0638298 15:0.0440061 16:0.190743 17:0.0237059 18:0.274259 19:0.0299857 20:0.345384 21:0.0287632 22:0.408782 23:0.0428916 24:0.443556 25:0.0519731 26:0.453979 27:0.0150235 28:0.430728 29:-0.0595078 30:0.377334 31:-0.116788 32:0.327682 33:-0.100999 34:0.219144 35:-0.0979993 36:0.131426 37:-0.105971 38:0.0718901 39:-0.074696 40:0.0266289 
0.7629825416724503 1:0.234237 2:-0.201171 3:0.284443 4:-0.581778 5:0.286093 6:-0.915301 7:0.285458 8:-0.895242 9:0.285714 10:-0.447913 11:0.217504 12:-0.0573437 13:0.113852 14:0.208799 15:0.0257967 16:0.315568 17:0.025641 18:0.394205 19:0.012851 20:0.460297 21:0.0115053 22:0.494125 23:0.00626506 24:0.50163 25:0.0153994 26:0.475503 27:-0.0206573 28:0.418868 29:-0.0935123 30:0.366078 31:-0.0827251 32:0.249213 33:-0.0847207 34:0.15411 35:-0.0966429 36:0.0789417 37:-0.0672085 38:0.0226171 39:-0.0387956 40:-0.00434372 
0.6888418889134068 1:0.281027 2:-0.572474 3:0.28567 4:-0.869029 5:0.287417 6:-0.842896 7:0.286894 8:-0.492438 9:0.22449 10:-0.0823618 11:0.149913 12:0.198668 13:0.0967742 14:0.3141 15:0.0278199 16:0.417952 17:0.00822448 18:0.492588 19:-0.00428367 20:0.528728 21:-0.0249281 22:0.534941 23:-0.0303614 24:0.505185 25:-0.0211742 26:0.444916 27:-0.056338 28:0.389757 29:-0.0559284 30:0.26682 31:-0.0648824 32:0.164931 33:-0.0832408 34:0.0835814 35:-0.0545948 36:0.0126909 37:-0.0284464 38:-0.0234249 39:0.00868558 40:-0.0474032 
0.5925560063274084 1:0.282168 2:-0.855344 3:0.286898 4:-0.82031 5:0.288742 6:-0.489754 7:0.23088 8:-0.155293 9:0.163265 10:0.156074 11:0.134315 12:0.285239 13:0.0986717 14:0.398485 15:0.00961052 16:0.5 17:-0.00919207 18:0.544474 19:-0.0404569 20:0.552615 21:-0.0613615 22:0.520717 23:-0.066988 24:0.456 25:-0.0577478 26:0.397904 27:-0.0169014 28:0.269542 29:-0.0362416 30:0.162957 31:-0.0632603 32:0.0762897 33:-0.0373659 34:-0.00022899 35:-0.0125466 36:-0.0488277 37:0.0228196 38:-0.0811793 39:0.0561668 40:-0.0787535 
0.5445032731432811 1:0.284451 2:-0.820791 3:0.289353 4:-0.504587 5:0.238411 6:-0.189891 7:0.176302 8:0.0652896 9:0.150706 10:0.230538 11:0.137782 12:0.358491 13:0.0834915 14:0.469888 15:-0.00657562 16:0.541374 17:-0.0440252 18:0.557278 19:-0.0747263 20:0.526146 21:-0.0958773 22:0.458256 23:-0.101687 24:0.396148 25:-0.0153994 26:0.261399 27:0.0056338 28:0.150404 29:-0.0326622 30:0.0601177 31:-0.0113544 32:-0.0210705 33:0.0099889 34:-0.0739638 35:0.0444218 36:-0.11809 37:0.075336 38:-0.121971 39:0.0353214 40:-0.132011 
0.5080640005077207 1:0.288445 2:-0.52328 3:0.244554 4:-0.221133 5:0.190066 6:0.0204918 7:0.166966 8:0.144965 9:0.156201 10:0.311771 11:0.126516 12:0.438402 13:0.0711575 14:0.518933 15:-0.0399595 16:0.56101 17:-0.0759555 18:0.535714 19:-0.10614 20:0.466753 21:-0.127517 22:0.401361 23:-0.0563855 24:0.258667 25:0.0105871 26:0.14132 27:0.0122066 28:0.0469003 29:0.0272931 30:-0.0381172 31:0.0429846 32:-0.0946961 33:0.0743618 34:-0.143577 35:0.103425 36:-0.157668 37:0.0547046 38:-0.175283 39:0.00463231 40:-0.174315 
1.645418792320566 1:0.197147 2:0.294876 3:0.183185 4:0.422335 5:0.150331 6:0.523907 7:0.109515 8:0.585393 9:0.0620094 10:0.61038 11:0.00519931 12:0.584166 13:-0.00474383 14:0.444645 15:-0.0601922 16:0.320477 17:-0.0566038 18:0.196765 19:0.00809139 20:0.0774693 21:0.0834132 22:-0.00865801 23:0.194217 24:-0.0868148 25:0.318576 26:-0.120929 27:0.275117 28:-0.17035 29:0.17047 30:-0.203377 31:0.0754258 32:-0.202713 33:0.000369959 34:-0.190749 35:-0.0457782 36:-0.176167 37:-0.0703345 38:-0.176494 39:-0.0764331 40:-0.167894 
1.745028932608994 1:0.189729 2:0.392679 3:0.162933 4:0.502689 5:0.128477 6:0.569672 7:0.0858169 8:0.590557 9:0.0361068 10:0.615645 11:0.0459272 12:0.485757 13:0.0208729 14:0.363145 15:-0.0531108 16:0.255259 17:0.00822448 18:0.134097 19:0.0718705 20:0.0432537 21:0.166826 22:-0.0414348 23:0.278072 24:-0.0826667 25:0.286814 26:-0.139621 27:0.225352 28:-0.177358 29:0.123043 30:-0.17933 31:0.0324412 32:-0.170259 33:-0.0240474 34:-0.160064 35:-0.0545948 36:-0.173156 37:-0.0659581 38:-0.173667 39:-0.0839606 40:-0.16525 
2.13937968929982 1:0.170899 2:0.471742 3:0.142682 4:0.550142 5:0.106623 6:0.579918 7:0.0621185 8:0.601623 9:0.0729984 10:0.521625 11:0.0693241 12:0.408065 13:0.0275142 14:0.301839 15:0.0146687 16:0.195652 17:0.0730527 18:0.103774 19:0.154688 20:0.0142027 21:0.25024 22:-0.0321583 23:0.246265 24:-0.0974815 25:0.235804 26:-0.142453 27:0.175587 28:-0.147709 29:0.0756152 30:-0.140957 31:0.00567721 32:-0.133931 33:-0.0336663 34:-0.153194 35:-0.0498474 36:-0.166703 37:-0.0740857 38:-0.167609 39:-0.0914881 40:-0.159585 
2.941310928884701 1:0.151498 2:0.51918 3:0.121817 4:0.563429 5:0.084106 6:0.594262 7:0.0951526 8:0.513833 9:0.0934066 10:0.447161 11:0.0745234 12:0.349612 13:0.0901328 14:0.244861 15:0.0814365 16:0.168303 17:0.156265 18:0.0774933 19:0.236554 20:0.0277598 21:0.217641 22:-0.0439085 23:0.194217 24:-0.0968889 25:0.183831 26:-0.107901 27:0.124883 28:-0.104043 29:0.0451902 30:-0.0995139 31:-0.00567721 32:-0.123759 33:-0.0292268 34:-0.143577 35:-0.0593421 36:-0.157668 37:-0.0828384 38:-0.159128 39:-0.0995947 40:-0.151653 
2.018444751181945 1:0.132097 2:0.528551 3:0.100951 4:0.573553 5:0.11457 6:0.509563 7:0.113824 8:0.437108 9:0.0981162 10:0.383979 11:0.131716 12:0.287458 13:0.152751 14:0.213127 15:0.168437 16:0.137447 17:0.239478 18:0.0882749 19:0.204188 20:0.012266 21:0.165868 22:-0.0463822 23:0.142169 24:-0.0637037 25:0.131858 26:-0.0648541 27:0.0929577 28:-0.0630728 29:0.0326622 30:-0.0913277 31:-0.00081103 32:-0.116009 33:-0.0395856 34:-0.136249 35:-0.0688369 36:-0.150785 37:-0.0915911 38:-0.152666 39:-0.119282 40:-0.0851747 
0.03844932930007365 1:0.109843 2:0.537921 3:0.126112 4:0.495096 5:0.128477 6:0.438525 7:0.114542 8:0.375138 9:0.145997 10:0.320797 11:0.184575 12:0.254902 13:0.229602 14:0.181392 15:0.250379 16:0.148668 17:0.201742 18:0.0721024 19:0.148025 20:0.00968367 21:0.1093 22:-0.0117502 23:0.0853012 24:-0.0186667 25:0.0943215 26:-0.0218069 27:0.0751174 28:-0.0544474 29:0.033557 30:-0.0831415 31:-0.0162206 32:-0.108259 33:-0.0536441 34:-0.128921 35:-0.0817226 36:-0.143902 37:-0.115974 38:-0.0815832 39:-0.0839606 40:-0.0791313 
1.729809435436677 1:0.130956 2:0.471157 3:0.136545 4:0.435622 5:0.12649 6:0.387978 7:0.155476 8:0.320546 9:0.190738 10:0.295224 11:0.2513 12:0.229745 13:0.302657 14:0.200144 15:0.206879 16:0.13885 17:0.140784 18:0.0761456 19:0.0880533 20:0.0522918 21:0.0488974 22:0.0414348 23:0.0438554 24:0.0322963 25:0.0721848 26:-0.00708015 27:0.0723005 28:-0.0404313 29:0.0129754 30:-0.0698388 31:-0.0348743 32:-0.0956648 33:-0.0706622 34:-0.117014 35:-0.110885 36:-0.0638847 37:-0.0803376 38:-0.0710824 39:-0.0625362 40:-0.144854 
1.992948078170722 1:0.140086 2:0.418448 3:0.13409 4:0.391332 5:0.163576 6:0.340164 7:0.195691 8:0.298414 9:0.250392 10:0.272659 11:0.317158 12:0.251942 13:0.260911 14:0.192932 15:0.142135 16:0.145863 17:0.0788582 18:0.123315 19:0.0271299 20:0.110394 21:0.00671141 22:0.0970934 23:0.0207229 24:0.0500741 25:0.0683349 26:0.00991221 27:0.0497653 28:-0.0242588 29:-0.00850112 30:-0.0544896 31:-0.054339 32:-0.0811334 33:-0.103219 34:-0.0299977 35:-0.0729061 36:-0.0509787 37:-0.0578306 38:-0.139742 39:-0.03011 40:-0.216619 
1.469069113805107 1:0.137233 2:0.379795 3:0.167843 4:0.349573 5:0.2 6:0.322404 7:0.249551 8:0.279233 9:0.309262 10:0.298232 11:0.278163 12:0.247503 13:0.199241 14:0.203029 15:0.0763784 16:0.197756 17:0.0159652 18:0.186658 19:-0.0157068 20:0.171078 21:-0.0172579 22:0.11812 23:0.0159036 24:0.0702222 25:0.0442733 26:0.0291702 27:0.0262911 28:-0.00592992 29:-0.0308725 30:-0.0370939 31:-0.0908354 32:0.012836 33:-0.0625231 34:-0.0144264 35:-0.0491692 36:-0.122392 37:-0.0234448 38:-0.214863 39:-0.00984366 40:-0.27932 
2.939847177393114 1:0.168616 2:0.339385 3:0.201596 4:0.331224 5:0.249669 6:0.302596 7:0.303411 8:0.302103 9:0.27394 10:0.291463 11:0.221837 12:0.255642 13:0.137571 14:0.254237 15:0.0106222 16:0.261571 17:-0.0275762 18:0.247978 19:-0.039505 20:0.191091 21:-0.0220518 22:0.137291 23:-0.00819277 24:0.0885926 25:0.0202117 26:0.046729 27:0.0028169 28:0.0107817 29:-0.0711409 30:0.0606293 31:-0.0462287 32:0.0278518 33:-0.036626 34:-0.0918251 35:-0.0118684 36:-0.2037 37:-0.00156299 38:-0.283118 39:-0.0127389 40:-0.28272 
6.013455971963674 1:0.201712 2:0.31713 3:0.249463 4:0.307181 5:0.301325 6:0.317623 7:0.27325 8:0.288823 9:0.225275 10:0.292967 11:0.168111 12:0.301517 13:0.0787476 14:0.313379 15:-0.0318665 16:0.319074 17:-0.0488631 18:0.262803 19:-0.0414089 20:0.205294 21:-0.0431448 22:0.150897 23:-0.0293976 24:0.10163 25:-0.000962464 26:0.05919 27:-0.0366197 28:0.108895 29:-0.0192394 30:0.0718854 31:-0.0154096 32:-0.0583676 33:0.00628931 34:-0.182505 35:0.013903 36:-0.280275 37:-0.00281338 38:-0.290388 39:-0.0138969 40:-0.244193 
2.704099118848473 1:0.248502 2:0.286676 3:0.299785 4:0.312243 5:0.276159 6:0.295765 7:0.231598 8:0.27997 9:0.179749 10:0.329071 11:0.117851 12:0.351831 13:0.0426945 14:0.362423 15:-0.0500759 16:0.324684 17:-0.0469279 18:0.268194 19:-0.0585436 20:0.210458 21:-0.0604027 22:0.155844 23:-0.046747 24:0.10637 25:-0.0375361 26:0.154347 27:0.0215962 28:0.113208 29:0.0183445 30:-0.0263494 31:0.0348743 32:-0.161056 33:0.0373659 34:-0.270437 35:0.0152594 36:-0.294042 37:-0.00156299 38:-0.254847 39:-0.0243196 40:-0.158074 
2.344640442274396 1:0.297004 2:0.289019 3:0.278306 4:0.289465 5:0.239735 6:0.284836 7:0.192101 8:0.312431 9:0.136578 10:0.377209 11:0.0875217 12:0.399186 13:0.028463 14:0.365308 15:-0.0450177 16:0.327489 17:-0.0614417 18:0.270889 19:-0.0728225 20:0.213041 21:-0.0747843 22:0.158318 23:-0.0804819 24:0.203556 25:0.0250241 26:0.156613 27:0.0638498 28:0.00754717 29:0.0765101 30:-0.136864 31:0.0713706 32:-0.255994 33:0.0410655 34:-0.286925 35:0.0186504 36:-0.257905 37:-0.0109409 38:-0.164378 39:-0.00984366 40:-0.149008 
0.8331427412059964 1:0.279315 2:0.267936 3:0.247008 4:0.279342 5:0.20596 6:0.314891 7:0.155476 8:0.359646 9:0.112245 10:0.425348 11:0.0779896 12:0.402146 13:0.0370019 14:0.368193 15:-0.0561457 16:0.330295 17:-0.0720851 18:0.273585 19:-0.0832937 20:0.215623 21:-0.104506 22:0.25974 23:-0.0139759 24:0.205926 25:0.0721848 26:0.0455961 27:0.128638 28:-0.108895 29:0.120358 30:-0.237145 31:0.0786699 32:-0.273432 33:0.0477248 34:-0.248454 35:0.0111902 36:-0.16154 37:0.00718975 38:-0.154685 39:-0.00463231 40:-0.147498 
0.1022624976311096 1:0.150927 2:0.267936 3:0.133477 4:0.291996 5:0.123179 6:0.30123 7:0.0944345 8:0.300627 9:0.0612245 10:0.320045 11:0.0216638 12:0.298557 13:-0.0626186 14:0.382618 15:-0.0814365 16:0.34432 17:-0.0382196 18:0.152291 19:0.026178 20:-0.0426081 21:0.0824545 22:-0.210266 23:0.116145 24:-0.268148 25:0.163619 26:-0.248938 27:0.142723 28:-0.152022 29:0.115884 30:-0.165515 31:0.0746148 32:-0.186244 33:0.118017 34:0.255324 35:0.0756189 36:0.191224 37:0.0540794 38:0.0714863 39:0.015634 40:-0.0492918 
0.2948885202458513 1:0.137803 2:0.269107 3:0.131635 4:0.293262 5:0.107947 6:0.302596 7:0.0779174 8:0.302103 9:0.0431711 10:0.321549 11:-0.0155979 12:0.418424 13:-0.0085389 14:0.384061 15:-0.0440061 16:0.20547 17:0.0169328 18:0.00539084 19:0.0613993 20:-0.170433 21:0.0795781 22:-0.233766 23:0.113253 24:-0.219556 25:0.141482 26:-0.123195 27:0.158685 28:-0.140162 29:0.113199 30:-0.164492 31:0.153285 32:0.299104 33:0.100999 34:0.228761 35:0.0735843 36:0.0888363 37:0.027196 38:-0.0488691 39:-0.0208454 40:-0.146742 
0.333399878857629 1:0.137233 2:0.277306 3:0.118748 4:0.30212 5:0.0940397 6:0.312158 7:0.0628366 8:0.312431 9:0.010989 10:0.452426 11:0.0355286 12:0.428783 13:0.028463 14:0.24991 15:0.0156803 16:0.0610098 17:0.0546686 18:-0.119946 19:0.0604474 20:-0.187218 21:0.0786194 22:-0.175634 23:0.093012 24:-0.0808889 25:0.159769 26:-0.103937 27:0.157746 28:-0.132615 29:0.20179 30:0.354311 31:0.136253 32:0.276822 33:0.100259 34:0.125258 35:0.0457782 36:-0.0342009 37:-0.0109409 38:-0.148223 39:-0.0561668 40:-0.232106 
0.3405749085612173 1:0.124679 2:0.291362 3:0.105247 4:0.317305 5:0.0794702 6:0.328552 7:0.032675 8:0.448174 9:0.0565149 10:0.470478 11:0.0684575 12:0.298557 13:0.0834915 14:0.108547 15:0.0541224 16:-0.0624123 17:0.0527334 18:-0.130728 19:0.0585436 20:-0.120077 21:0.0575264 22:-0.0247372 23:0.110361 24:-0.0548148 25:0.157844 26:-0.0903427 27:0.249765 28:0.419407 29:0.182103 30:0.335892 31:0.134631 32:0.172197 33:0.0691824 34:-0.00114495 35:0.00373008 36:-0.135728 37:-0.049703 38:-0.23546 39:-0.0457441 40:-0.298584 
0.3581823783765088 1:0.110984 2:0.306589 3:0.0905186 4:0.333755 5:0.0503311 6:0.455601 7:0.0728905 8:0.467355 9:0.0847724 10:0.339601 11:0.116984 12:0.155013 13:0.117647 14:-0.0169492 15:0.0500759 16:-0.07223 17:0.0488631 18:-0.0592992 19:0.0356973 20:0.0387347 21:0.0728667 22:0.00371058 23:0.106506 24:-0.0394074 25:0.250241 26:0.490796 27:0.22723 28:0.401078 29:0.178523 30:0.226401 31:0.0989457 32:0.0394769 33:0.0218276 34:-0.108312 35:-0.0396745 36:-0.227791 37:-0.0396999 38:-0.305735 39:-0.0364794 40:-0.303872 
0.4047237702511081 1:0.0955777 2:0.318887 3:0.0616754 4:0.448276 5:0.0854305 6:0.469945 7:0.0965889 8:0.335301 9:0.126374 10:0.189921 11:0.145581 12:0.0225675 13:0.111006 14:-0.0306527 15:0.0429944 16:-0.00140252 17:0.0227383 18:0.1031 19:0.0480723 20:0.0652034 21:0.0661553 22:0.0166976 23:0.196145 24:0.56563 25:0.224254 26:0.468706 27:0.220657 28:0.283019 29:0.136465 30:0.0836531 31:0.0446067 32:-0.0762897 33:-0.0277469 34:-0.20861 35:-0.0308579 36:-0.304797 37:-0.0315724 38:-0.313409 39:-0.0173712 40:-0.258168 
0.4270576113628078 1:0.0676177 2:0.41552 3:0.0929733 4:0.451439 5:0.10596 6:0.336749 7:0.133214 8:0.176688 9:0.150706 10:0.0432493 11:0.137782 12:-0.00332963 13:0.102467 14:0.0306527 15:0.0136571 16:0.156381 17:0.0333817 18:0.119946 19:0.039505 20:0.0684312 21:0.153404 22:0.638219 23:0.168193 24:0.533037 25:0.215592 26:0.335599 27:0.174648 28:0.123989 29:0.0747204 30:-0.046815 31:-0.0113544 32:-0.190119 33:-0.0196078 34:-0.297916 35:-0.0233978 36:-0.319854 37:-0.0121913 38:-0.271002 39:-0.0110017 40:-0.135411 
0.464842176696771 1:0.0944365 2:0.412592 3:0.109543 4:0.321734 5:0.137086 6:0.18306 7:0.152603 8:0.0254519 9:0.140502 10:0.00940203 11:0.126516 12:0.0521643 13:0.0711575 14:0.185719 15:0.0207385 16:0.1669 17:0.0208031 18:0.116577 19:0.122323 20:0.710781 21:0.121764 22:0.598021 23:0.155663 24:0.387852 25:0.164581 26:0.162843 27:0.106103 28:-0.0188679 29:0.00939597 30:-0.172167 31:-0.00567721 32:-0.289416 33:-0.0144284 34:-0.318525 35:-0.00508647 36:-0.278985 37:-0.00781494 38:-0.14378 39:0.00463231 40:-0.001322 
0.5469245510912619 1:0.110984 2:0.284334 3:0.139613 4:0.170516 5:0.156291 6:0.0334699 7:0.144704 8:-0.0180745 9:0.131868 10:0.0552839 11:0.0996534 12:0.200888 13:0.0796964 14:0.186441 15:0.00961052 16:0.153576 17:0.106918 18:0.777628 19:0.0928129 20:0.659781 21:0.111218 22:0.437848 23:0.106506 24:0.198815 25:0.0962464 26:0.0048145 27:0.0394366 28:-0.158491 29:0.0174497 30:-0.284216 31:0.00162206 32:-0.317995 33:0.00702923 34:-0.281429 35:0.00101729 36:-0.149495 37:0.0103157 38:-0.00605816 39:0.00984366 40:0.0972616 
0.6007628507333401 1:0.139515 2:0.133821 3:0.158024 4:0.0205631 5:0.149669 6:-0.0191257 7:0.137522 8:0.0136481 9:0.10832 10:0.19293 11:0.108319 12:0.188309 13:0.0702087 14:0.159755 15:0.100658 16:0.828892 17:0.0778907 18:0.712264 19:0.0832937 20:0.480955 21:0.063279 22:0.229437 23:0.0390361 24:0.0228148 25:0.0288739 26:-0.152082 27:0.0488263 28:-0.286253 29:0.0263982 30:-0.323612 31:0.025953 32:-0.287479 33:0.0144284 34:-0.15182 35:0.0213632 36:-0.0105399 37:0.0165677 38:0.092084 39:0.015634 40:0.14372 
0.6209410602742393 1:0.158916 2:-0.0108346 3:0.154342 4:-0.0344828 5:0.145695 6:0.0034153 7:0.118851 8:0.141276 9:0.119309 10:0.172621 11:0.10312 12:0.153533 13:0.159393 14:0.847097 15:0.0743551 16:0.753857 17:0.0720851 18:0.518868 19:0.039505 20:0.25694 22:0.0395795 23:-0.0245783 24:-0.147259 25:0.0423484 26:-0.291985 27:0.0619718 28:-0.333154 29:0.0568233 30:-0.296495 31:0.0373074 32:-0.155243 33:0.0395856 34:-0.00847264 35:0.0308579 36:0.0896967 37:0.0253204 38:0.137722 39:0.000579039 40:0.118414 
0.6338253638698207 1:0.156633 2:-0.0676428 3:0.151887 4:-0.0199304 5:0.129801 6:0.114754 7:0.130341 8:0.11398 9:0.11617 10:0.129748 11:0.186308 12:0.851276 13:0.136622 14:0.762712 15:0.0703085 16:0.545582 17:0.0295114 18:0.278302 19:-0.0214184 20:0.0522918 21:-0.0613615 22:-0.144094 23:-0.00915663 24:-0.299556 25:0.0577478 26:-0.346927 27:0.0957746 28:-0.309973 29:0.0711409 30:-0.161934 31:0.0665045 32:-0.00847663 33:0.0514243 34:0.093657 35:0.0417091 36:0.134007 37:0.0103157 38:0.106624 39:-0.00173712 40:0.0968839 
0.6358857124002965 1:0.154351 2:-0.0500732 3:0.137159 4:0.0876305 5:0.140397 6:0.0942623 7:0.127469 8:0.0770933 9:0.191523 10:0.844302 11:0.165511 12:0.769885 13:0.132827 14:0.553552 15:0.0257967 16:0.30014 17:-0.0324141 18:0.069407 19:-0.0823417 20:-0.134926 21:-0.0460211 22:-0.298701 23:0.00626506 24:-0.352889 25:0.0923965 26:-0.318607 27:0.110798 28:-0.16442 29:0.103356 30:-0.00332566 31:0.0794809 32:0.10293 33:0.063263 34:0.144035 35:0.0254323 36:0.103893 37:0.00781494 38:0.0864297 39:-0.00405327 40:0.0100094 
0.625190653640252 1:0.141227 2:0.0512445 3:0.147591 4:0.0705473 5:0.138411 6:0.0621585 7:0.197127 8:0.780155 9:0.173469 10:0.763821 11:0.162912 12:0.557529 13:0.0920304 14:0.303282 15:-0.0379363 16:0.0848527 17:-0.093372 18:-0.123989 19:-0.066159 20:-0.294383 21:-0.029722 22:-0.352505 23:0.0419277 24:-0.321481 25:0.108758 26:-0.163976 27:0.14554 28:0.00431267 29:0.118568 30:0.115886 31:0.0932685 32:0.157665 33:0.0462449 34:0.11335 35:0.0233978 36:0.0836739 37:0.00593936 38:-0.0052504 39:-0.0173712 40:-0.000188857 
0.5885832928226755 1:0.150357 2:0.0418741 3:0.145137 4:0.0477697 5:0.201987 6:0.720628 7:0.179892 8:0.709332 9:0.17033 10:0.556224 11:0.124783 12:0.308916 13:0.0313093 14:0.0897944 15:-0.102681 16:-0.108696 17:-0.0778907 18:-0.283019 19:-0.0509281 20:-0.343447 21:0.00479386 22:-0.312925 23:0.0573494 24:-0.153185 25:0.143407 26:0.0195412 27:0.160563 28:0.135849 29:0.132886 30:0.17933 31:0.0738037 32:0.13054 33:0.0432852 34:0.0968628 35:0.020685 36:-0.0092493 37:-0.00906533 38:-0.0117124 39:-0.0196873 40:-0.0137866 
0.5039974920937527 1:0.150357 2:0.0371889 3:0.206505 4:0.675419 5:0.188742 6:0.67418 7:0.179892 8:0.526374 9:0.138932 10:0.324558 11:0.0727903 12:0.110618 13:-0.0256167 14:-0.0890732 15:-0.0824482 16:-0.254558 17:-0.0585389 18:-0.315364 19:-0.012851 20:-0.284054 21:0.0239693 22:-0.119975 23:0.0959036 24:0.0554074 25:0.162656 26:0.173605 27:0.179343 28:0.21779 29:0.114989 30:0.165004 31:0.0738037 32:0.126665 33:0.0432852 34:0.0107625 35:0.00712106 36:-0.0040869 37:-0.00906533 38:-0.0149435 39:-0.0544296 40:-0.220774 
0.3748812016571106 1:0.207989 2:0.614641 3:0.194845 4:0.628599 5:0.189404 6:0.500683 7:0.151885 8:0.294725 9:0.0926217 10:0.118466 11:0.0216638 12:-0.0773215 13:-0.0056926 14:-0.243419 15:-0.0612038 16:-0.292426 17:-0.0188679 18:-0.257412 19:0.00713946 20:-0.0865074 21:0.063279 22:0.0940012 23:0.116145 24:0.213037 25:0.182868 26:0.256301 27:0.161502 28:0.199461 29:0.115884 30:0.157841 31:0.0746148 32:0.0326956 33:0.0292268 34:0.0135104 35:0.00779925 36:-0.0101097 37:-0.0459519 38:-0.238691 39:-0.0654314 40:-0.180737 
0.2961744020823415 1:0.199429 2:0.592387 3:0.197913 4:0.490668 5:0.166225 6:0.310792 7:0.112388 8:0.119144 9:0.0494505 10:-0.0455058 11:0.0433276 12:-0.209027 13:0.0180266 14:-0.256401 15:-0.0156803 16:-0.206872 17:0.00532172 18:-0.0269542 19:0.0499762 20:0.160103 21:0.0872483 22:0.280767 23:0.140241 24:0.320889 25:0.168431 26:0.257434 27:0.166197 28:0.211321 29:0.120358 30:0.0770018 31:0.0624493 32:0.0530395 33:0.0329264 34:0.023586 35:-0.0295015 36:-0.232953 37:-0.0553298 38:-0.181341 39:-0.0509554 40:-0.0666667 
0.2820990863521684 1:0.2 2:0.453001 3:0.17398 4:0.30212 5:0.127152 6:0.134563 7:0.070018 8:-0.0564367 9:0.0659341 10:-0.194434 11:0.0615251 12:-0.237144 13:0.056926 14:-0.182834 15:0.00556399 16:0.0189341 17:0.0449927 18:0.216981 19:0.0699667 20:0.342156 21:0.107383 22:0.380952 23:0.121928 24:0.310222 25:0.169394 26:0.258567 27:0.167136 28:0.115364 29:0.103356 30:0.0882579 31:0.0632603 32:0.0540082 33:-0.0107288 34:-0.222807 35:-0.0423872 36:-0.180469 37:-0.0422007 38:-0.0674475 39:-0.015634 40:0.0625118 
0.3122734228219752 1:0.176034 2:0.265593 3:0.135931 4:0.12496 5:0.0860927 6:-0.0430328 7:0.0829443 8:-0.218738 9:0.0800628 10:-0.239564 11:0.0944541 12:-0.17795 13:0.0740038 14:0.0335377 15:0.0440061 16:0.257363 17:0.0624093 18:0.392183 19:0.0871014 20:0.432537 21:0.0862895 22:0.356215 23:0.12 24:0.29837 25:0.167469 26:0.145285 27:0.146479 28:0.115364 29:0.101566 30:0.0780251 31:0.0129765 32:-0.217244 33:-0.027007 34:-0.177009 35:-0.0301797 36:-0.0686169 37:-0.00593936 38:0.0617932 39:0.0179502 40:0.1305 
0.3704666236784017 1:0.139515 2:0.0904832 3:0.0966554 4:-0.051566 5:0.0966887 6:-0.206284 7:0.0944345 8:-0.27702 9:0.10832 10:-0.193682 11:0.108319 12:0.0299667 13:0.108159 14:0.265056 15:0.0601922 16:0.426367 17:0.0778907 18:0.47372 19:0.0642551 20:0.394448 21:0.0824545 22:0.332096 23:0.116145 24:0.168593 25:0.14437 26:0.134523 27:0.142723 28:0.0943396 29:0.0442953 30:-0.218214 31:-0.00648824 32:-0.178009 33:-0.0151683 34:-0.0666361 35:0.00779925 36:0.0608733 37:0.0290716 38:0.126817 39:0.015634 40:0.145987 
0.4016094900225045 1:0.102996 2:-0.0781845 3:0.106474 4:-0.208478 5:0.107285 6:-0.266393 7:0.120287 8:-0.238657 9:0.120879 10:0.0109064 11:0.139515 12:0.260821 13:0.12334 14:0.432384 15:0.0763784 16:0.504909 17:0.0546686 18:0.427898 19:0.0604474 20:0.36346 21:0.0786194 22:0.191095 23:0.093012 24:0.152 25:0.14052 26:0.107335 27:0.0826291 28:-0.222642 29:0.0228188 30:-0.181376 31:0.00648824 32:-0.0656333 33:0.0262671 34:0.0670941 35:0.0457782 36:0.126264 37:0.0265708 38:0.139742 39:-0.0214244 40:0.0976393 
0.4133965770078741 1:0.111555 2:-0.228697 3:0.11568 4:-0.269851 5:0.130464 6:-0.237022 7:0.131059 8:-0.044633 9:0.148352 10:0.238812 11:0.152513 12:0.425823 13:0.137571 14:0.506671 15:0.0510875 16:0.450912 17:0.0498307 18:0.389488 19:0.0556878 20:0.210458 21:0.05465 22:0.168213 23:0.0881928 24:0.118222 25:0.0779596 26:-0.230813 27:0.0591549 28:-0.188679 29:0.0362416 30:-0.0672806 31:0.0510949 32:0.0714459 33:0.0669626 34:0.132585 35:0.0423872 36:0.136158 37:-0.0140669 38:0.0844103 39:-0.0474812 40:0.0534466 
0.3746012980337347 1:0.121826 2:-0.284919 3:0.139 4:-0.242012 5:0.142384 6:-0.056694 7:0.158348 8:0.179639 9:0.16248 10:0.407296 11:0.168111 12:0.502775 13:0.116698 14:0.451857 15:0.0490642 16:0.411641 17:0.0478955 18:0.230458 19:0.0347454 20:0.187218 21:0.0527325 22:0.133581 23:0.0284337 24:-0.234963 25:0.0567854 26:-0.194562 27:0.0760563 28:-0.0679245 29:0.0881432 30:0.0780251 31:0.0981346 32:0.141196 33:0.0654828 34:0.143577 35:0.000339098 36:0.0776511 37:-0.0403251 38:0.0375606 39:-0.0718008 40:-0.0508026 
0.1775914641267243 1:0.145221 2:-0.25388 3:0.151887 4:-0.0692819 5:0.169536 6:0.157104 7:0.173429 8:0.351531 9:0.178964 10:0.49229 11:0.151646 12:0.4532 13:0.117647 14:0.417959 15:0.0500759 16:0.252454 17:0.0295114 18:0.212264 19:0.0356973 20:0.156875 21:-0.00383509 22:-0.229437 23:0.0101205 24:-0.191704 25:0.0769971 26:-0.0625885 27:0.133333 28:0.090027 29:0.142729 30:0.156306 31:0.0989457 32:0.157181 33:0.0218276 34:0.0854133 35:-0.0261105 36:0.0316197 37:-0.0647077 38:-0.0702746 39:-0.0943833 40:-0.151653 
0.2367240521329824 1:0.198859 2:0.440117 3:0.1973 4:0.478013 5:0.192053 6:0.379098 7:0.16912 8:0.399484 9:0.158556 10:0.420835 11:0.0944541 12:-0.0018498 13:0.0360531 14:0.0609448 15:-0.016692 16:0.22791 17:0.0430576 18:0.404313 19:0.10614 20:0.469981 21:0.12464 22:0.453927 23:0.100723 24:0.344593 25:0.109721 26:0.257434 27:0.0713615 28:0.0927224 29:-0.00581655 30:-0.0560246 31:-0.0194647 32:-0.208525 33:-0.027007 34:-0.342798 35:-0.0301797 36:-0.422241 37:-0.0434511 38:-0.423667 39:-0.0283729 40:-0.346176 
0.3140585876510509 1:0.198859 2:0.456515 3:0.1973 4:0.381841 5:0.178808 6:0.411885 7:0.16912 8:0.42014 9:0.11146 10:0.0357277 11:0.0771231 12:0.107658 13:0.0550285 14:0.283087 15:0.0440061 16:0.485975 17:0.101113 18:0.557951 19:0.10614 20:0.539703 21:0.0671141 22:0.421769 23:0.0621687 24:0.32563 25:0.0712223 26:0.148683 27:0.0338028 28:-0.0107817 29:0.0120805 30:-0.174725 31:-0.00324412 32:-0.320901 33:-0.0122087 34:-0.412411 35:-0.0301797 36:-0.427404 37:-0.0184433 38:-0.355816 39:-0.00521135 40:-0.222285 
0.2701967502693567 1:0.197718 2:0.359297 3:0.183799 4:0.403353 5:0.177483 6:0.421448 7:0.124596 8:0.0320915 9:0.0941915 10:0.136517 11:0.092721 12:0.325194 13:0.110057 14:0.538406 15:0.102681 16:0.636045 17:0.0991776 18:0.621294 19:0.0471204 20:0.497095 21:0.0268456 22:0.393321 23:0.0216867 24:0.203556 25:0.0307988 26:0.0320023 27:0.0507042 28:-0.143396 29:0.0281879 30:-0.300588 31:0.0113544 32:-0.401308 33:-0.0136885 34:-0.424319 35:-0.00440827 36:-0.361153 37:0.00531416 38:-0.228998 39:0.0167921 40:-0.111237 
0.2317345945266063 1:0.184023 2:0.368082 3:0.181344 4:0.40019 5:0.135099 6:0.0491803 7:0.107361 8:0.116931 9:0.10675 10:0.343362 11:0.141248 12:0.573067 13:0.163188 14:0.679048 15:0.0986343 16:0.68864 17:0.0372521 18:0.564016 19:0.0052356 20:0.455132 21:-0.0153404 22:0.254174 23:-0.0207229 24:0.0702222 25:0.0461983 26:-0.118097 27:0.0657277 28:-0.286253 29:0.0425056 30:-0.395242 31:0.0081103 32:-0.423105 33:0.0129486 34:-0.362491 35:0.0200068 36:-0.234244 37:0.0278212 38:-0.117932 39:0.0376375 40:-0.0375826 
0.2362945597915658 1:0.18117 2:0.366325 3:0.141454 4:0.0566276 5:0.118543 6:0.129098 7:0.118133 8:0.321284 9:0.149922 10:0.596841 11:0.188908 12:0.718831 13:0.158444 14:0.734583 15:0.0328781 16:0.630435 17:-0.00628931 18:0.521563 19:-0.0376011 20:0.311168 21:-0.0584851 22:0.116265 23:-0.00626506 24:-0.0856296 25:0.0606352 26:-0.267063 27:0.0798122 28:-0.384906 29:0.0380313 30:-0.417242 31:0.0364964 32:-0.356745 33:0.0388457 34:-0.226471 35:0.0437436 36:-0.115079 37:0.049703 38:-0.0383683 39:0.0347423 40:-0.0462701 
0.07501809890085595 1:0.14408 2:0.0489019 3:0.126112 4:0.131288 5:0.128477 6:0.318989 7:0.15763 8:0.570638 9:0.193093 10:0.745769 11:0.184575 12:0.776545 13:0.0967742 14:0.675442 15:-0.0126454 16:0.586957 17:-0.0498307 18:0.371968 19:-0.0804379 20:0.16785 21:-0.0441035 22:-0.0457638 23:0.00819277 24:-0.240889 25:0.0750722 26:-0.37015 27:0.0751174 28:-0.407547 29:0.0693512 30:-0.346636 31:0.0648824 32:-0.2124 33:0.0647429 34:-0.0991527 35:0.0674805 36:-0.0298989 37:0.0465771 38:-0.0472536 39:0.0318471 40:-0.0545798 
0.009362047187562967 1:0.0904422 2:0.489898 3:0.0561522 4:0.392597 5:0.0529801 6:0.23224 7:0.0470377 8:0.0343047 9:0.0408163 10:-0.0868748 11:0.0164645 12:-0.131336 13:0.00759013 14:-0.0508475 15:-0.0268083 16:0.13324 17:0.01403 18:0.272911 19:0.0585436 20:0.344093 21:0.0767018 22:0.27149 23:0.110361 24:0.205333 25:0.138595 26:0.135656 27:0.11831 28:0.0738544 29:0.0747204 30:0.0181632 31:0.0373074 32:-0.0317268 33:0.0395856 34:-0.0657202 35:0.0444218 36:-0.0931383 37:0.100344 38:-0.138934 39:0.278518 40:-0.162984 
0.1289960564939702 1:0.0476462 2:0.373353 3:0.0469469 4:0.241379 5:0.0430464 6:0.0689891 7:0.0362657 8:-0.0829952 9:0.0133438 10:-0.101166 11:0.0207972 12:-0.0122087 13:0.012334 14:0.180671 15:-0.0217501 16:0.34432 17:0.0188679 18:0.421833 19:0.0252261 20:0.344739 21:0.0431448 22:0.272109 23:0.0573494 24:0.194074 25:0.0856593 26:0.124894 27:0.085446 28:0.0636119 29:0.0434004 30:0.00844206 31:0.0413625 32:-0.0312424 33:0.0432852 34:-0.0652622 35:0.102068 36:-0.127124 37:0.291028 38:-0.162763 39:0.269832 40:-0.139943 
0.3449317309112774 1:0.0282454 2:0.225183 3:0.0260816 4:0.0813034 5:0.0205298 6:-0.0491803 7:-0.00251346 8:-0.10734 9:0.00235479 10:0.00940203 11:0.00866551 12:0.214946 13:-0.000948767 14:0.387667 15:-0.035913 16:0.489481 17:-0.0333817 18:0.413073 19:-0.026178 20:0.336346 21:-0.0278044 22:0.251701 23:-0.0139759 24:0.174519 25:0.0336862 26:0.106202 27:0.0347418 28:0.0458221 29:0.0308725 30:0.00179074 31:0.0300081 32:-0.0375394 33:0.0921199 34:-0.107854 35:0.296033 36:-0.158529 37:0.269772 38:-0.14378 39:0.435437 40:-0.114636 
0.3531249229913765 1:0.00542083 2:0.0676428 3:0.00153421 4:-0.038279 5:-0.0192053 6:-0.0826503 7:-0.0168761 8:-0.0106972 9:-0.0133438 10:0.228281 11:-0.00866551 12:0.415464 13:-0.0199241 14:0.525424 15:-0.096611 16:0.469144 17:-0.0914369 18:0.393531 19:-0.102332 20:0.304713 21:-0.104506 22:0.221398 23:-0.0718072 24:0.145481 25:-0.0240616 26:0.078448 27:0.0159624 28:0.0301887 29:0.0129754 30:-0.0130468 31:0.0786699 32:-0.0903366 33:0.299297 34:-0.148615 35:0.268905 36:-0.145193 37:0.444827 38:-0.123183 39:0.48176 40:-0.095373 
0.3725099697377193 1:-0.0134094 2:-0.0512445 3:-0.0309911 4:-0.0781398 5:-0.0278146 6:-0.00273224 7:-0.0262118 8:0.193655 9:-0.0235479 10:0.421587 11:-0.0199307 12:0.54643 13:-0.0702087 14:0.49441 15:-0.150228 16:0.43899 17:-0.162071 18:0.351078 19:-0.171823 20:0.264041 21:-0.155321 22:0.182437 23:-0.122892 24:0.108148 25:-0.0365736 26:0.0540923 27:0.00375587 28:0.00700809 29:0.0729306 30:-0.0759785 31:0.311436 32:-0.140228 33:0.27488 34:-0.140829 35:0.463547 36:-0.129275 37:0.499219 38:-0.108239 39:0.381587 40:-0.0965061 
0.4051934160098106 1:-0.0345221 2:-0.0934114 3:-0.02915 4:-0.00980702 5:-0.0258278 6:0.180328 7:-0.0240575 8:0.376614 9:-0.0211931 10:0.54795 11:-0.0519931 12:0.507954 13:-0.105313 14:0.456906 15:-0.207891 16:0.388499 17:-0.217223 18:0.302561 19:-0.207044 20:0.21756 21:-0.190796 22:0.13791 23:-0.12 24:0.0773333 25:-0.0336862 26:0.0246389 27:0.0816901 28:-0.0641509 29:0.344072 30:-0.133282 31:0.297648 32:-0.136353 33:0.499075 34:-0.128005 35:0.533401 36:-0.11723 37:0.401063 38:-0.113086 39:0.18645 40:-0.108593 
0.4273525644819921 1:-0.0231098 2:-0.0325037 3:-0.0168763 4:0.157229 5:-0.0125828 6:0.346995 7:-0.00969479 8:0.497602 9:-0.0368917 10:0.505829 11:-0.0693241 12:0.466519 13:-0.143264 14:0.402092 15:-0.248356 16:0.335203 17:-0.236575 18:0.251348 19:-0.226083 20:0.168496 21:-0.17162 22:0.103278 23:-0.100723 24:0.0441481 25:0.0625602 26:-0.0523931 27:0.38216 28:-0.126685 29:0.344072 30:-0.131236 31:0.557178 32:-0.124728 33:0.587865 34:-0.117014 35:0.438454 36:-0.124113 37:0.201 38:-0.127625 39:-0.0220035 40:-0.107082 
0.8898750663691775 1:-0.011127 2:0.127965 3:-0.00398895 4:0.317937 5:0.0013245 6:0.465847 7:-0.0233393 8:0.463667 9:-0.0518053 10:0.47123 11:-0.10312 12:0.417684 13:-0.180266 14:0.35449 15:-0.267577 16:0.28892 17:-0.254959 18:0.206873 19:-0.206092 20:0.138799 21:-0.151486 22:0.0748299 23:-0.00337349 24:-0.0305185 25:0.371511 26:-0.112433 27:0.383099 28:-0.119137 29:0.63132 30:-0.11384 31:0.655312 32:-0.108259 33:0.485017 34:-0.119762 35:0.222109 36:-0.135298 37:-0.0234448 38:-0.121971 39:-0.0214244 40:-0.139566 
1.511948989990168 1:0.110414 2:0.365154 3:0.126726 4:0.397026 5:-0.0298013 6:0.400956 7:-0.15763 8:0.408336 9:-0.214286 10:0.414818 11:-0.195841 12:0.391787 13:-0.167932 14:0.358096 15:-0.13303 16:0.320477 17:0.0478955 18:0.237197 19:0.129938 20:0.180762 21:0.167785 22:0.127396 23:0.066988 24:0.0317037 25:-0.000962464 26:-0.0416313 27:0.000938967 28:-0.084097 29:0.0165548 30:-0.121514 31:0.146796 32:-0.154275 33:0.27266 34:-0.181589 35:0.339437 36:-0.201979 37:0.334792 38:-0.208805 39:0.298784 40:-0.205666 
0.04687555010529063 1:0.113837 2:0.375695 3:-0.02915 4:0.395761 5:-0.145033 6:0.413251 7:-0.196409 8:0.406861 9:-0.178179 10:0.428357 11:-0.138648 12:0.405105 13:-0.0863378 14:0.371078 15:0.0146687 16:0.305049 17:0.0924045 18:0.249326 19:0.116611 20:0.192382 21:0.000958773 22:0.0890538 23:-0.0814458 24:0.00681481 25:-0.0336862 26:-0.0427641 27:0.0253521 28:-0.0851752 29:0.165101 30:-0.122538 31:0.297648 32:-0.155243 33:0.36589 34:-0.182505 35:0.35707 36:-0.202839 37:0.313535 38:-0.209612 39:0.279097 40:-0.198867 
0.3362144526200515 1:-0.0248217 2:0.375695 3:-0.129181 4:0.408415 5:-0.17351 6:0.413251 7:-0.155476 8:0.421616 9:-0.117739 10:0.4434 11:-0.0545927 12:0.419904 13:0.0626186 14:0.356653 15:0.0723318 16:0.319074 17:0.0895017 18:0.262803 19:-0.0385531 20:0.153648 21:-0.136146 22:0.0643166 23:-0.103614 24:0.00681481 25:0.00192493 26:-0.0427641 27:0.191549 28:-0.0851752 29:0.341387 30:-0.122538 31:0.408759 32:-0.155243 33:0.393267 34:-0.182505 35:0.341472 36:-0.202839 37:0.299156 38:-0.201535 39:0.161552 40:-0.206421 
0.08657640290903547 1:-0.123538 2:0.386823 3:-0.161706 4:0.407782 5:-0.142384 6:0.42623 7:-0.107361 8:0.435633 9:-0.0494505 10:0.457691 11:0.0727903 12:0.404366 13:0.107211 14:0.370357 15:0.0591806 16:0.332398 17:-0.0778907 18:0.221698 19:-0.184198 20:0.127179 21:-0.167785 22:0.0636982 23:-0.0775904 24:0.00622222 25:0.162656 26:-0.0433305 27:0.367136 28:-0.0857143 29:0.455034 30:-0.123049 31:0.430657 32:-0.155728 33:0.368849 34:-0.182963 35:0.319091 36:-0.194666 37:0.165989 38:-0.210016 39:0.130863 40:-0.199245 
0.02700936842026962 1:-0.157204 2:0.38858 3:-0.136545 4:0.422335 5:-0.101987 6:0.44194 7:-0.0491921 8:0.452601 9:0.0612245 10:0.444904 11:0.108319 12:0.421384 13:0.0891841 14:0.386946 15:-0.121902 16:0.292426 17:-0.231737 18:0.196765 19:-0.221323 20:0.129116 21:-0.147651 22:0.0655535 23:0.0775904 24:0.008 25:0.336862 26:-0.0416313 27:0.480751 28:-0.084097 29:0.473826 30:-0.121514 31:0.399027 32:-0.154275 33:0.339993 34:-0.17243 35:0.170566 36:-0.201979 37:0.129103 38:-0.200727 39:0.0966995 40:-0.220774 
0.1447442468885924 1:-0.133809 2:0.407906 3:-0.0991102 4:0.443214 5:-0.0483444 6:0.464481 7:0.0520646 8:0.447436 9:0.0934066 10:0.469725 11:0.0918544 12:0.445801 13:-0.0806452 14:0.353047 15:-0.282752 16:0.273492 17:-0.269473 18:0.205526 19:-0.201333 20:0.137508 21:0.00671141 22:0.0735931 23:0.252048 24:0.0157037 25:0.453321 26:-0.0342679 27:0.500469 28:-0.0770889 29:0.438926 30:-0.114863 31:0.367397 32:-0.13829 33:0.17795 34:-0.175635 35:0.130553 36:-0.187782 37:0.0922163 38:-0.219709 39:0.0625362 40:-0.291407 
0.3287259202974034 1:-0.096719 2:0.437775 3:-0.0469469 4:0.475482 5:0.0476821 6:0.471995 7:0.0843806 8:0.485061 9:0.0816327 10:0.508086 11:-0.059792 12:0.424343 13:-0.227704 14:0.346556 15:-0.318159 16:0.295231 17:-0.245283 18:0.226415 19:-0.0442646 20:0.157521 21:0.184084 22:0.0927644 23:0.37253 24:0.0340741 25:0.477382 26:-0.0167091 27:0.467606 28:-0.0603774 29:0.407606 30:-0.0887695 31:0.193025 32:-0.132962 33:0.137255 34:-0.152278 35:0.0932519 36:-0.200258 37:0.0578306 38:-0.287964 39:0.0422698 40:-0.408121 
0.4805667346903429 1:-0.0447932 2:0.474085 3:0.0457195 4:0.489402 5:0.081457 6:0.514344 7:0.0779174 8:0.5308 9:-0.0510204 10:0.494547 11:-0.188908 12:0.425823 13:-0.255218 14:0.376848 15:-0.286798 16:0.324684 17:-0.0798258 18:0.254717 19:0.137554 20:0.184635 21:0.309684 22:0.118738 23:0.40241 24:0.058963 25:0.449471 26:0.00708015 27:0.440376 28:-0.0269542 29:0.220582 30:-0.0775134 31:0.153285 32:-0.10293 33:0.100999 34:-0.160522 35:0.0600203 36:-0.26823 37:0.0396999 38:-0.40832 39:0.0138969 40:-0.4678 
0.5888976464541166 1:0.0453638 2:0.484627 3:0.0813133 4:0.526099 5:0.0801325 6:0.553962 7:-0.0384201 8:0.51457 9:-0.16248 10:0.493042 11:-0.207972 12:0.45394 13:-0.219165 14:0.404255 15:-0.106727 16:0.351332 17:0.111756 18:0.280323 19:0.26892 20:0.209167 21:0.346117 22:0.142239 23:0.381205 24:0.0814815 25:0.428296 26:0.039932 27:0.250704 28:-0.0172507 29:0.182998 30:-0.0478383 31:0.119221 32:-0.113587 33:0.0699223 34:-0.234715 35:0.0451 36:-0.39815 37:0.0134417 38:-0.473748 39:-0.0104227 40:-0.415675 
0.6634268449248444 1:0.0847361 2:0.506881 3:0.0868365 4:0.550142 5:-0.0198675 6:0.525273 7:-0.132496 8:0.49834 9:-0.171115 10:0.506581 11:-0.165511 12:0.467259 13:-0.0398482 14:0.417238 15:0.104704 16:0.363955 17:0.255926 18:0.292453 19:0.315564 20:0.220788 21:0.33557 22:0.15337 23:0.370602 24:0.104 25:0.244466 26:0.0387992 27:0.221596 28:0.0032345 29:0.155257 30:-0.0693272 31:0.0940795 32:-0.201744 33:0.0617832 34:-0.382185 35:0.024076 36:-0.476447 37:-0.00593936 38:-0.42609 39:-0.0399537 40:-0.265345 
0.6627380177101941 1:0.0921541 2:0.513909 3:-0.00337527 4:0.507118 5:-0.103974 6:0.492486 7:-0.137522 8:0.492438 9:-0.129513 10:0.500564 11:0.0017331 12:0.461339 13:0.162239 14:0.411468 15:0.259484 16:0.358345 17:0.307209 18:0.287062 19:0.308901 20:0.215623 21:0.328859 22:0.160792 23:0.190361 24:0.0874074 25:0.218479 26:0.0455961 27:0.196244 28:-0.0334232 29:0.131096 30:-0.175748 31:0.0884023 32:-0.370308 33:0.0418054 34:-0.477444 35:0.00576467 36:-0.436868 37:-0.0353235 38:-0.275848 39:-0.0440069 40:-0.0644004 
0.5801159931543033 1:0.00827389 2:0.461201 3:-0.0813133 4:0.462828 5:-0.108609 6:0.471995 7:-0.0994614 8:0.470306 9:0.021978 10:0.477999 11:0.186308 12:0.439142 13:0.3074 14:0.389831 15:0.313101 16:0.337307 17:0.300435 18:0.266846 19:0.302237 20:0.209167 21:0.149569 22:0.12987 23:0.164337 24:0.0814815 25:0.192493 26:-0.00538091 27:0.170892 28:-0.157412 29:0.124832 30:-0.365055 31:0.0665045 32:-0.481715 33:0.0218276 34:-0.445386 35:-0.0261105 36:-0.286298 37:-0.0396999 38:-0.0698708 39:-0.0364794 40:0.098017 
0.4461097710056344 1:-0.0681883 2:0.409078 3:-0.0899049 4:0.431825 5:-0.0781457 6:0.438525 7:0.0341113 8:0.434157 9:0.183673 10:0.441143 11:0.312825 12:0.402886 13:0.351044 14:0.35449 15:0.298938 16:0.302945 17:0.286889 18:0.247305 19:0.117563 20:0.164622 21:0.11697 22:0.111936 23:0.131566 24:0.0168889 25:0.159769 26:-0.146417 27:0.157746 28:-0.367116 29:0.0944072 30:-0.492453 31:0.0389294 32:-0.457011 33:-0.018128 34:-0.293794 35:-0.0356053 36:-0.0750699 37:-0.0359487 38:0.0961228 39:-0.044586 40:0.200378 
0.3900398002910499 1:-0.0796006 2:0.374524 3:-0.0653575 4:0.394495 5:0.0410596 6:0.398224 7:0.177738 8:0.390631 9:0.293564 10:0.396766 11:0.347487 12:0.35923 13:0.332068 14:0.311937 15:0.278705 16:0.275596 17:0.093372 18:0.19407 19:0.079486 20:0.139445 21:0.0786194 22:0.0383426 23:0.093012 24:-0.136593 25:0.14052 26:-0.372416 27:0.120188 28:-0.506739 29:0.058613 30:-0.471476 31:-0.00973236 32:-0.301526 33:-0.0329264 34:-0.0735058 35:-0.0356053 36:0.0974403 37:-0.0484526 38:0.201535 39:-0.0561668 40:0.238527 
0.4435522875066147 1:-0.0562054 2:0.339385 3:0.0457195 4:0.356533 5:0.174172 6:0.35724 7:0.278995 8:0.346367 9:0.325746 10:0.351636 11:0.331023 12:0.314835 13:0.314042 14:0.283087 15:0.07739 16:0.219495 17:0.0556362 18:0.167116 19:0.0423608 20:0.0619755 21:0.0412272 22:-0.122449 23:0.0746988 24:-0.37363 25:0.102984 26:-0.519683 27:0.0835681 28:-0.485175 29:0.00581655 30:-0.307751 31:-0.0251419 32:-0.069024 33:-0.0321865 34:0.109686 35:-0.048491 36:0.209292 37:-0.0603314 38:0.241922 39:-0.0787493 40:0.223418 
0.475675800546751 1:0.0459344 2:0.308931 3:0.167843 4:0.323632 5:0.266225 6:0.321721 7:0.307002 8:0.308004 9:0.309262 10:0.312524 11:0.312825 12:0.291158 13:0.12334 14:0.231158 15:0.035913 16:0.197055 17:0.0159652 18:0.0916442 19:0.00333175 20:-0.10071 21:0.021093 22:-0.364873 23:0.0351807 24:-0.522963 25:0.0635226 26:-0.492495 27:0.0262911 28:-0.308356 29:-0.0129754 30:-0.0580711 31:-0.025953 32:0.128603 33:-0.0477248 34:0.232425 35:-0.0627331 36:0.255754 37:-0.0859644 38:0.228998 39:-0.0330052 40:0.143343 
0.5074993740045676 1:0.165193 2:0.284334 3:0.259282 4:0.297058 5:0.298675 6:0.293033 7:0.299102 8:0.27702 9:0.300628 10:0.295976 11:0.147314 12:0.245283 13:0.0939279 14:0.21529 15:0.00455235 16:0.125526 17:-0.01403 18:-0.0714286 19:-0.00713946 20:-0.347321 21:-0.00862895 22:-0.514533 23:0.0053012 24:-0.488593 25:0.014437 26:-0.301048 27:0.0159624 28:-0.0398922 29:-0.0049217 30:0.155794 31:-0.0348743 32:0.26326 33:-0.0558639 34:0.286467 35:-0.0837572 36:0.24629 37:-0.030322 38:0.147415 39:-0.0393746 40:0.0519358 
0.5305153933747048 1:0.256491 2:0.26735 3:0.296103 4:0.278709 5:0.298675 6:0.273224 7:0.299102 8:0.27038 9:0.159341 10:0.25912 11:0.129983 12:0.238624 13:0.0749526 14:0.1511 15:-0.0156803 16:-0.0350631 17:-0.01403 18:-0.320081 19:-0.026178 20:-0.495158 21:-0.0278044 22:-0.470625 23:-0.033253 24:-0.280593 25:0.014437 26:-0.0116114 27:0.0347418 28:0.192453 29:-0.0049217 30:0.304682 31:-0.0348743 32:0.326713 33:-0.0706622 34:0.282345 35:-0.0159376 36:0.164982 37:-0.030322 38:0.0549273 39:-0.0393746 40:-0.0572238 
0.5518501160957827 1:0.295292 2:0.258565 3:0.301013 4:0.269219 5:0.303974 6:0.276639 7:0.175583 8:0.244559 9:0.149922 10:0.262881 11:0.119584 12:0.18313 13:0.0635674 14:-0.00396682 15:-0.00758725 16:-0.284011 17:-0.025641 18:-0.46496 19:-0.0376011 20:-0.440284 21:-0.0584851 22:-0.244898 23:-0.0255422 24:0.0305185 25:0.0413859 26:0.240442 27:0.0422535 28:0.356873 29:0.00223714 30:0.378869 31:-0.0446067 32:0.329135 33:0.00924898 34:0.202198 35:-0.010512 36:0.0724887 37:-0.0253204 38:-0.0561389 39:-0.0347423 40:-0.16865 
0.5734438120981531 1:0.301569 2:0.255051 3:0.307763 4:0.278077 5:0.192053 6:0.25888 7:0.16912 8:0.254887 9:0.142857 10:0.213238 11:0.111785 12:0.0307066 13:0.0740038 14:-0.253516 15:-0.016692 16:-0.428471 17:-0.0343493 18:-0.401617 19:-0.065207 20:-0.198838 21:-0.0479386 22:0.0853432 23:0.00433735 24:0.299556 25:0.0519731 26:0.418295 27:0.0525822 28:0.439892 29:-0.00581655 30:0.386032 31:0.0454177 32:0.248729 33:0.0173881 34:0.107854 35:-0.00305188 36:-0.0419445 37:-0.0184433 38:-0.171648 39:-0.0283729 40:-0.238905 
0.5865121751444016 1:0.308987 2:0.262665 3:0.205278 4:0.260993 5:0.187417 6:0.26776 7:0.164093 8:0.205459 9:0.137363 10:0.0575404 11:0.12305 12:-0.226045 13:0.0673624 14:-0.402813 15:-0.0237734 16:-0.363254 17:-0.0604741 18:-0.15027 19:-0.052832 20:0.145255 21:-0.0162991 22:0.365492 23:0.0168675 24:0.485037 25:0.0644851 26:0.504956 27:0.0460094 28:0.4469 29:0.095302 30:0.300588 31:0.0559611 32:0.148462 33:0.027007 34:-0.0144264 35:0.00576467 36:-0.165412 37:-0.0103157 38:-0.247173 39:-0.0440069 40:-0.233994 
0.5903222944100576 1:0.213695 2:0.242753 3:0.200982 4:0.26479 5:0.182781 6:0.217213 7:0.159066 8:0.0475839 9:0.147567 10:-0.208725 11:0.116984 12:-0.384388 13:0.0607211 14:-0.340786 15:-0.0510875 16:-0.106592 17:-0.0478955 18:0.204178 19:-0.0214184 20:0.433183 21:-0.00383509 22:0.554731 23:0.0293976 24:0.571556 25:0.0577478 26:0.508355 27:0.152113 28:0.3531 29:0.106935 30:0.191097 31:0.0665045 32:0.0157423 33:0.036626 34:-0.149073 35:0.0145812 36:-0.248871 37:-0.027196 38:-0.24475 39:-0.0364794 40:-0.178848 
0.5919503699346885 1:0.204565 2:0.238653 3:0.191163 4:0.209744 5:0.172185 6:0.0621585 7:0.161939 8:-0.223165 9:0.135008 10:-0.379466 11:0.10312 12:-0.330374 13:0.0265655 14:-0.0861882 15:-0.047041 16:0.253156 17:-0.0246734 18:0.495957 19:-0.0176107 20:0.622337 22:0.636982 23:0.0139759 24:0.567407 25:0.157844 26:0.402436 27:0.155869 28:0.230728 29:0.110515 30:0.0442568 31:0.0697486 32:-0.132962 33:0.0395856 34:-0.243875 35:-0.00983384 36:-0.251882 37:-0.0246952 38:-0.191034 39:-0.0341633 40:-0.0983947 
0.6007814639268928 1:0.194294 2:0.181845 3:0.180117 4:0.0597912 5:0.17351 6:-0.195355 7:0.149013 8:-0.398008 9:0.120879 10:-0.33208 11:0.0701906 12:-0.0765816 13:0.028463 14:0.276596 15:-0.024785 16:0.54979 17:-0.0227383 18:0.686658 19:-0.0157068 20:0.701743 21:-0.0172579 22:0.626469 23:0.112289 24:0.450667 25:0.159769 26:0.268196 27:0.157746 28:0.0706199 29:0.112304 30:-0.117933 31:0.0713706 32:-0.238072 33:0.0114687 34:-0.25166 35:-0.00847745 36:-0.198968 37:-0.0234448 38:-0.109047 39:-0.0214244 40:-0.0292729 
0.6069159849526888 1:0.182882 2:0.0371889 3:0.180117 4:-0.185068 5:0.160265 6:-0.364071 7:0.13465 8:-0.358908 9:0.0894819 10:-0.0816096 11:0.0701906 12:0.288198 13:0.0474383 14:0.574468 15:-0.024785 16:0.741234 17:-0.0227383 18:0.762803 19:-0.0347454 20:0.684312 21:0.0786194 22:0.498454 23:0.112289 24:0.304296 25:0.159769 26:0.0943076 27:0.157746 28:-0.10566 29:0.112304 30:-0.234075 31:0.0389294 32:-0.25115 33:0.0114687 34:-0.199908 35:-0.00847745 36:-0.115939 37:-0.0109409 38:-0.0391761 39:-0.00984366 40:0.00585458 
0.5926133042778287 1:0.18117 2:-0.1959 3:0.166002 4:-0.348307 5:0.145033 6:-0.335383 7:0.10377 8:-0.121357 9:0.0871272 10:0.280933 11:0.084922 12:0.585646 13:0.044592 14:0.763433 15:-0.0278199 16:0.812763 17:-0.0449927 18:0.737197 19:0.0575916 20:0.543577 21:0.075743 22:0.338899 23:0.109398 24:0.115852 25:0.156882 26:-0.0971396 27:0.15493 28:-0.233962 29:0.0738255 30:-0.253518 31:0.0364964 32:-0.201744 33:0.00924898 34:-0.116556 35:0.00305188 36:-0.0462465 37:-0.000312598 38:-0.00605816 39:0.0115808 40:-0.00849858 
0.5756636322963062 1:0.167475 2:-0.356955 3:0.151273 4:-0.33249 5:0.115894 6:-0.127049 7:0.100898 8:0.221689 9:0.099686 10:0.570515 11:0.0814558 12:0.766926 13:0.040797 14:0.824739 15:-0.0520991 16:0.774194 17:0.0478955 18:0.578841 19:0.0537839 20:0.366043 21:0.071908 22:0.131725 23:0.105542 24:-0.0945185 25:0.153032 26:-0.241575 27:0.113615 28:-0.263612 29:0.0702461 30:-0.210028 31:0.0332522 32:-0.121821 33:0.0210877 34:-0.0501488 35:0.013903 36:-0.0182835 37:0.0221944 38:-0.0282714 39:0.0208454 40:-0.0368272 
0.5259458535304105 1:0.151498 2:-0.347584 3:0.121817 4:-0.145207 5:0.110596 6:0.184426 7:0.109515 8:0.499078 9:0.0934066 10:0.748026 11:0.0745234 12:0.823159 13:0.0142315 14:0.778579 15:0.0409712 16:0.603086 17:0.0401548 18:0.387466 19:0.0461685 20:0.143964 21:0.0642378 22:-0.0933828 23:0.0978313 24:-0.250963 25:0.106833 26:-0.277825 27:0.106103 28:-0.222642 29:0.0630872 30:-0.130212 31:0.0429846 32:-0.0559457 33:0.0299667 34:-0.0245019 35:0.0356053 36:-0.0458163 37:0.0296968 38:-0.0621971 39:0.0509554 40:-0.0761095 
0.3281163229789337 1:0.11669 2:-0.170717 3:0.108929 4:0.147105 5:0.109934 6:0.445355 7:0.0944345 8:0.67761 9:0.0769231 10:0.809703 11:0.0389948 12:0.780244 13:0.0891841 14:0.606924 15:0.0197269 16:0.408135 17:0.0198355 18:0.159704 19:0.026178 20:-0.087153 21:0.0441035 22:-0.252938 23:0.0390361 24:-0.285333 25:0.0866218 26:-0.231379 27:0.086385 28:-0.13531 29:0.0621924 30:-0.0575595 31:0.0421736 32:-0.0259143 33:0.0440252 34:-0.0510648 35:0.0349271 36:-0.0793719 37:0.0540794 38:-0.101777 39:0.177765 40:-0.113126 
0.2993187169215433 1:0.0664765 2:0.547291 3:0.0549248 4:0.682379 5:0.0251656 6:0.722678 7:0.0743268 8:0.623017 9:0.0549451 10:0.483264 11:0.0320624 12:0.251942 13:-0.0132827 14:0.0054093 15:-0.0895296 16:-0.162693 17:-0.123367 18:-0.200135 19:-0.114707 20:-0.147837 21:-0.0977948 22:-0.0513296 23:-0.0457831 24:0.0263704 25:0.0211742 26:0.0552251 27:0.0600939 28:0.0188679 29:0.0371365 30:-0.0237913 31:0.0519059 32:-0.0714459 33:0.200888 34:-0.112434 35:0.273652 36:-0.154227 37:0.31166 38:-0.163974 39:0.323683 40:-0.163739 
0.2848625530285887 1:0.0459344 2:0.646266 3:0.0205585 4:0.700728 5:0.0675497 6:0.619536 7:0.048474 8:0.48211 9:0.0266876 10:0.294472 11:0.000866551 12:0.0514243 13:-0.0474383 14:-0.117923 15:-0.166414 16:-0.142356 17:-0.1582 18:-0.0862534 19:-0.148977 20:0.0129116 21:-0.113135 22:0.0902907 23:-0.0612048 24:0.114667 25:0.0250241 26:0.0716511 27:0.0450704 28:0.0237197 29:0.058613 30:-0.0294193 31:0.217356 32:-0.076774 33:0.292638 34:-0.126632 35:0.330621 36:-0.150355 37:0.339168 38:-0.160339 39:0.256514 40:-0.16034 
0.4344347411865673 1:0.0151213 2:0.66735 3:0.0610617 4:0.609617 5:0.0450331 6:0.493852 7:0.0240575 8:0.302103 10:0.0959007 11:-0.0285962 12:-0.0699223 13:-0.117647 14:-0.0919582 15:-0.200809 16:-0.0189341 17:-0.191098 18:0.0862534 19:-0.162304 20:0.165268 21:-0.126558 22:0.186766 23:-0.0554217 24:0.136 25:0.0115496 26:0.0807137 27:0.0694836 28:0.0215633 29:0.242953 30:-0.0314658 31:0.319546 32:-0.0883991 33:0.356271 34:-0.119304 35:0.361818 36:-0.143472 37:0.267896 38:-0.153877 39:0.213665 40:-0.146742 
0.1488131505008929 1:0.0550642 2:0.583016 3:0.0426511 4:0.493198 5:0.0251656 6:0.327186 7:0.00251346 8:0.10734 9:-0.0235479 10:-0.0274539 11:-0.0892548 12:-0.0432852 13:-0.14611 14:0.0349802 15:-0.231158 16:0.160589 17:-0.200774 18:0.245283 19:-0.171823 20:0.265978 21:-0.11697 22:0.209029 23:-0.0650602 24:0.145481 25:0.0404235 26:0.078448 27:0.266667 28:0.019407 29:0.359284 30:-0.0437452 31:0.392539 32:-0.0806491 33:0.393267 34:-0.111976 35:0.287216 36:-0.136589 37:0.224133 38:-0.139338 39:0.13839 40:-0.133144 
1.269801255083664 1:0.0436519 2:0.470571 3:0.0303774 4:0.333755 5:0.0119205 6:0.141393 7:-0.0118492 8:-0.01955 9:-0.0706436 10:-0.00639338 11:-0.106586 12:0.0810211 13:-0.165085 14:0.213848 15:-0.231158 16:0.320477 17:-0.200774 18:0.345013 19:-0.152784 20:0.284054 21:-0.11697 22:0.213976 23:-0.026506 24:0.13837 25:0.252166 26:0.0716511 27:0.398122 28:0.00215633 29:0.44877 30:-0.0396521 31:0.4412 32:-0.076774 33:0.319275 34:-0.108312 35:0.246524 36:-0.124543 37:0.149109 38:-0.128029 39:0.0689056 40:-0.130123 
4.454121561879444 1:0.476177 2:0.286091 3:0.45873 4:0.31161 5:0.407947 6:0.308743 7:0.331418 8:0.308742 9:0.241758 10:0.328319 11:0.151646 12:0.306696 13:0.0417457 14:0.275153 15:-0.0713202 16:0.239832 17:-0.0478955 18:0.200135 19:-0.0404569 20:0.145255 21:-0.0230105 22:0.0933828 23:0.0101205 24:0.0465185 25:0.0577478 26:0.00651374 27:0.058216 28:-0.0274933 29:0.0174497 30:-0.0575595 31:-0.0145985 32:-0.0840397 33:-0.0521643 34:-0.106022 35:-0.0803662 36:-0.122392 37:-0.227259 38:-0.134087 39:-0.407064 40:-0.150897 
22.6274 1:0.476177 2:0.286091 3:0.45873 4:0.31161 5:0.407947 6:0.308743 7:0.331418 8:0.308742 9:0.241758 10:0.328319 11:0.151646 12:0.306696 13:0.0417457 14:0.275153 15:-0.0713202 16:0.239832 17:-0.0478955 18:0.200135 19:-0.0404569 20:0.145255 21:-0.0230105 22:0.0933828 23:0.0101205 24:0.0465185 25:0.0577478 26:0.00651374 27:0.058216 28:-0.0274933 29:0.0174497 30:-0.0575595 31:-0.0145985 32:-0.0840397 33:-0.0521643 34:-0.106022 35:-0.0803662 36:-0.122392 37:-0.227259 38:-0.134087 39:-0.407064 40:-0.150897 
22.6274 1:0.476177 2:0.286091 3:0.45873 4:0.31161 5:0.407947 6:0.308743 7:0.331418 8:0.308742 9:0.241758 10:0.328319 11:0.151646 12:0.306696 13:0.0417457 14:0.275153 15:-0.0713202 16:0.239832 17:-0.0478955 18:0.200135 19:-0.0404569 20:0.145255 21:-0.0230105 22:0.0933828 23:0.0101205 24:0.0465185 25:0.0577478 26:0.00651374 27:0.058216 28:-0.0274933 29:0.0174497 30:-0.0575595 31:-0.0145985 32:-0.0840397 33:-0.0521643 34:-0.106022 35:-0.0803662 36:-0.122392 37:-0.227259 38:-0.134087 39:-0.407064 40:-0.150897 
